-2.931999999999996387e+00
1.035000000000008136e+00
-2.250999999999995449e+00
-1.806999999999998163e+00
-8.329999999999893046e-01
-2.580999999999991967e+00
4.770000000000065299e-01
1.810000000000008935e+00
-2.449999999999894484e-01
1.587000000000008626e+00
-2.896999999999996689e+00
-2.789999999999965841e-01
1.980000000000006422e+00
-3.569999999999949880e-01
-1.039999999999996705e+00
-5.359999999999979226e-01
6.990000000000085034e-01
-7.299999999999955413e-01
-9.799999999999963185e-01
-6.559999999999952536e-01
3.120000000000020535e-01
-2.759999999999921405e-01
-1.729999999999999094e+00
-7.509999999999980025e-01
6.130000000000090932e-01
3.760000000000076614e-01
-3.759999999999950049e-01
-1.707999999999998852e+00
-1.087999999999997414e+00
3.019000000000009898e+00
3.093000000000008409e+00
1.387000000000006672e+00
-1.205999999999997518e+00
-2.279999999999998472e+00
-7.269999999999988693e-01
-1.859999999999947251e-01
9.870000000000044293e-01
-2.621999999999995445e+00
2.180000000000027471e-01
1.217000000000005411e+00
4.130000000000058069e-01
9.370000000000066054e-01
-8.799999999999956746e-01
-8.079999999999971649e-01
-1.001999999999998225e+00
2.088000000000008960e+00
-4.909999999999967724e-01
-2.949999999999969313e-01
1.525000000000006795e+00
-4.499999999999571010e-02
3.417000000000014026e+00
-8.069999999999917240e-01
-5.159999999999951292e-01
-1.999999999999941824e-01
5.800000000000815614e-02
9.770000000000051976e-01
-2.534999999999997478e+00
4.410000000000047216e-01
8.700000000000795985e-02
2.023000000000013898e+00
-1.142999999999996685e+00
-2.402999999999996028e+00
2.120000000000094031e-01
-1.816999999999995286e+00
1.302000000000006708e+00
4.000000000004333423e-03
9.530000000000052873e-01
1.383000000000004892e+00
-6.119999999999942153e-01
-2.371999999999998554e+00
2.410000000000054321e-01
-8.469999999999899831e-01
9.600000000000054046e-01
1.547000000000009479e+00
9.960000000000064357e-01
9.280000000000098170e-01
-9.479999999999942917e-01
1.280000000000069971e-01
-2.629999999999957927e-01
4.150000000000063638e-01
1.100000000000522782e-02
1.984000000000010200e+00
-3.398999999999992028e+00
1.311000000000008381e+00
8.810000000000060005e-01
-9.989999999999965574e-01
-1.971999999999994646e+00
3.210000000000066134e-01
3.260000000000055076e-01
-3.947999999999999066e+00
-2.057999999999995833e+00
1.225000000000009415e+00
-4.999999999992787991e-03
-9.059999999999901465e-01
1.673000000000008924e+00
-7.449999999999935563e-01
9.800000000000061995e-01
4.236000000000012200e+00
-2.429999999999996163e+00
-3.799999999999967848e-01
-7.219999999999979767e-01
1.043000000000007033e+00
1.515000000000006786e+00
2.530000000000008242e+00
4.810000000000073106e-01
2.383000000000008889e+00
1.358000000000006313e+00
1.644000000000007677e+00
-7.519999999999924523e-01
-9.699999999999974198e-01
-1.273999999999996913e+00
-1.242999999999993221e+00
-8.529999999999944293e-01
6.900000000000057199e-01
1.687000000000004274e+00
3.949000000000012278e+00
-1.164999999999994706e+00
-5.169999999999941309e-01
-1.190999999999994285e+00
5.760000000000047304e-01
2.608000000000006757e+00
-9.619999999999955254e-01
1.200000000000008171e+00
-5.539999999999960512e-01
-2.069999999999997620e+00
-7.199999999999961986e-01
1.377000000000009106e+00
4.391000000000010672e+00
-2.841999999999996085e+00
2.992000000000011539e+00
-2.726999999999998092e+00
2.519000000000009010e+00
-1.075999999999998291e+00
4.990000000000032188e-01
3.200000000000045031e-01
-4.769999999999969820e-01
-1.139999999999911084e-01
-8.109999999999946141e-01
7.460000000000053255e-01
-2.129999999999958593e-01
1.793000000000005922e+00
3.618000000000007432e+00
1.512000000000008226e+00
-1.428999999999998494e+00
5.700000000000637890e-02
-5.399999999999405276e-02
-1.553999999999996939e+00
-2.582999999999996188e+00
5.900000000000056311e-01
-2.589999999999957891e-01
-1.308999999999995723e+00
-1.505999999999997785e+00
-8.159999999999961728e-01
1.191000000000010939e+00
2.920000000000072538e-01
2.500000000000623945e-02
-1.157999999999996588e+00
9.240000000000074820e-01
1.905000000000005134e+00
-1.229999999999992877e+00
2.772000000000011344e+00
-3.089999999999940572e-01
2.670000000000061213e-01
1.607000000000009976e+00
6.910000000000059428e-01
-5.719999999999958451e-01
2.045000000000005258e+00
-4.192999999999996064e+00
1.189000000000005386e+00
7.810000000000053566e-01
8.710000000000069909e-01
-3.219999999999940687e-01
6.340000000000070024e-01
-1.863999999999994550e+00
-1.258999999999994124e+00
2.817000000000005944e+00
-2.006999999999994344e+00
4.360000000000058273e-01
-3.189999999999976188e-01
8.850000000000042277e-01
-7.539999999999963398e-01
-4.259999999999970477e-01
-6.419999999999944640e-01
-1.786999999999997035e+00
2.633000000000007557e+00
-1.481999999999998430e+00
-1.224999999999996536e+00
1.379000000000006443e+00
3.860000000000057829e-01
-1.459999999999994191e+00
1.425000000000007372e+00
-1.309999999999995834e+00
6.170000000000032125e-01
2.830000000000071347e-01
-1.449999999999997513e+00
2.190000000000008384e+00
6.670000000000051443e-01
1.890000000000037206e-01
-2.019999999999926299e-01
-4.299999999999737366e-02
-1.332999999999996854e+00
1.663000000000005141e+00
-8.609999999999945475e-01
-4.209999999999942677e-01
-1.282999999999996810e+00
-1.718999999999996975e+00
8.680000000000054339e-01
-6.329999999999962323e-01
6.200000000000849276e-02
1.242000000000004878e+00
2.730000000000029070e-01
1.089000000000004409e+00
-1.620999999999990449e+00
-1.939999999999995506e+00
-9.149999999999944844e-01
-6.779999999999969384e-01
-2.062999999999996170e+00
-4.119999999999994778e+00
3.000000000006441958e-03
2.066000000000010051e+00
2.950000000000035927e-01
5.230000000000050164e-01
1.364000000000011426e+00
-6.869999999999961693e-01
1.622000000000009656e+00
-2.009999999999957376e-01
5.970000000000049711e-01
1.403000000000009351e+00
-2.128999999999997339e+00
4.920000000000048779e-01
-1.221999999999993980e+00
-5.799999999999941869e-01
-1.692999999999996064e+00
7.220000000000034168e-01
4.630000000000066285e-01
3.090000000000048264e-01
-5.949999999999969758e-01
3.880000000000047855e-01
1.089000000000007073e+00
-1.399999999999991918e+00
-2.457999999999993079e+00
-6.769999999999951612e-01
8.420000000000176232e-01
