-8.999999999999463984e-02
9.000000000000069056e-01
-2.468999999999994088e+00
7.830000000000076898e-01
-6.839999999999943903e-01
-8.439999999999945324e-01
7.300000000000057554e-01
-2.459999999999940012e-01
-4.082999999999997520e+00
6.670000000000074758e-01
1.760000000000080389e-01
1.495000000000008544e+00
-1.289999999999958957e-01
-2.075999999999993850e+00
2.031000000000007244e+00
-1.901999999999998137e+00
-8.759999999999954490e-01
-2.155999999999995698e+00
1.946000000000006169e+00
4.880000000000073168e-01
3.450000000000118527e-01
-4.219999999999950457e-01
1.743000000000006988e+00
7.770000000000051310e-01
-1.154999999999997362e+00
1.067000000000008164e+00
-2.075999999999993850e+00
-1.110999999999995769e+00
2.663000000000009138e+00
-2.259999999999996234e+00
-3.759999999999914522e-01
1.380000000000047855e-01
5.180000000000030136e-01
-2.309999999999949871e-01
7.590000000000043379e-01
-5.239999999999951363e-01
-3.699999999999381561e-02
5.400000000000715339e-02
-3.147999999999993914e+00
-7.899999999999651745e-02
1.004000000000007109e+00
-1.309999999999996723e+00
2.507000000000006779e+00
1.923000000000007148e+00
2.770000000000037987e-01
1.289000000000007473e+00
-1.889999999999940616e-01
-1.610999999999995325e+00
3.000000000000635492e-02
-1.373999999999996557e+00
1.856000000000006311e+00
5.230000000000056826e-01
-9.629999999999920846e-01
1.279000000000005688e+00
8.330000000000044036e-01
8.620000000000057616e-01
-2.272999999999997467e+00
4.130000000000030314e-01
9.760000000000044196e-01
-3.189999999999961755e-01
-4.799999999999969846e-01
1.700000000000010392e-01
-1.414999999999997815e+00
-1.523999999999996913e+00
1.676000000000007706e+00
6.610000000000041398e-01
-3.135999999999994348e+00
7.110000000000051834e-01
-8.889999999999956826e-01
6.160000000000050990e-01
4.440000000000063896e-01
-1.202999999999992298e+00
-1.098999999999994648e+00
4.710000000000049702e-01
4.414000000000012136e+00
-1.594999999999994422e+00
-1.650999999999995804e+00
1.277000000000007240e+00
-3.180999999999996497e+00
6.130000000000057625e-01
-4.929999999999959970e-01
4.350000000000038280e-01
1.823000000000010834e+00
8.140000000000070512e-01
1.680000000000045901e-01
1.206000000000007288e+00
7.290000000000058655e-01
6.690000000000061453e-01
-3.329999999999916360e-01
-6.399999999999912426e-01
8.530000000000050875e-01
-1.629999999999994342e+00
-1.539999999999939195e-01
-8.639999999999962155e-01
7.030000000000031779e-01
-4.569999999999951878e-01
1.006000000000007999e+00
6.720000000000032614e-01
-8.309999999999964082e-01
-1.077999999999996517e+00
2.429000000000007820e+00
-5.529999999999960503e-01
3.160000000000056097e-01
1.220000000000005524e+00
1.742000000000011983e+00
-8.159999999999956177e-01
-7.999999999999933831e-01
-4.388999999999995794e+00
-1.556999999999993500e+00
-2.219999999999929807e-01
-3.779999999999985594e-01
-2.619999999999955698e-01
-1.871999999999994557e+00
-4.829999999999934346e-01
1.436000000000007493e+00
7.250000000000040856e-01
1.150000000000072076e-01
1.139000000000010004e+00
9.140000000000088054e-01
-2.649999999999949063e-01
1.650000000000054756e-01
2.450000000000028821e-01
-1.387999999999994127e+00
-1.134999999999993125e+00
9.640000000000082947e-01
8.240000000000122782e-01
1.878000000000008995e+00
1.866000000000005432e+00
-1.599999999999224265e-02
5.310000000000056897e-01
-1.663999999999996371e+00
1.200000000000046585e-01
-1.564999999999995506e+00
-7.079999999999896376e-01
1.550000000000075762e-01
-2.839999999999942570e-01
1.302000000000007596e+00
1.070000000000044249e-01
-1.346999999999992870e+00
8.800000000000062217e-01
-1.605999999999997208e+00
5.400000000000870770e-02
4.370000000000068274e-01
3.135000000000011333e+00
2.262000000000012001e+00
-3.899999999999941291e-01
4.820000000000058682e-01
-9.289999999999964952e-01
1.392000000000006565e+00
-6.409999999999963505e-01
-1.436999999999995392e+00
1.354000000000003867e+00
1.670000000000009255e+00
6.550000000000067990e-01
1.432000000000005713e+00
1.200000000000445155e-02
-2.309999999999948761e-01
-2.863999999999990553e+00
3.560000000000058673e-01
2.306000000000006267e+00
3.333000000000013507e+00
-7.999999999999936051e-01
1.204000000000005510e+00
-1.697999999999996845e+00
5.360000000000040288e-01
-1.141999999999993687e+00
-2.462999999999998746e+00
3.951000000000014722e+00
7.850000000000060263e-01
2.200000000000014833e+00
9.890000000000069846e-01
-1.085999999999994525e+00
-1.340999999999993308e+00
1.320000000000056684e-01
5.530000000000058202e-01
5.190000000000076774e-01
-2.369999999999959917e-01
2.059000000000006825e+00
-1.820999999999995289e+00
-3.234999999999994991e+00
-2.969999999999941576e-01
2.804000000000007820e+00
2.200000000000005507e+00
-2.315999999999996284e+00
1.789000000000006807e+00
8.270000000000041762e-01
-8.879999999999964588e-01
-1.385999999999995902e+00
1.845000000000009077e+00
-7.639999999999980140e-01
3.180000000000084981e-01
-8.959999999999925802e-01
2.470000000000047713e-01
3.940000000000059011e-01
1.136000000000004562e+00
-5.559999999999950537e-01
1.033000000000005025e+00
-1.142999999999992244e+00
-1.066999999999999282e+00
4.310000000000063780e-01
-1.160999999999996479e+00
-2.028999999999994586e+00
-1.779999999999903881e-01
1.110000000000008757e+00
3.150000000000064970e-01
-1.699999999999735056e-02
2.040000000000006253e+00
-1.317999999999996508e+00
7.440000000000032143e-01
1.019000000000006789e+00
-1.388999999999995794e+00
-9.699999999999742162e-02
1.403000000000004688e+00
3.838000000000008960e+00
1.403000000000006686e+00
-1.609999999999974785e-01
-4.449999999999967315e-01
1.520000000000043539e-01
2.210000000000073017e-01
-5.299999999999571720e-02
-1.073999999999995403e+00
3.670000000000037677e-01
-4.099999999999968114e-01
1.326000000000006507e+00
-1.788999999999993928e+00
6.930000000000059446e-01
2.093000000000008409e+00
-5.359999999999960352e-01
8.680000000000061000e-01
-1.955999999999997296e+00
-4.669999999999959739e-01
2.290000000000037561e-01
-1.497999999999994225e+00
5.880000000000048521e-01
-2.546999999999994380e+00
-2.754999999999994120e+00
-3.919999999999959073e-01
-1.079999999999948779e-01
7.160000000000067422e-01
1.227000000000005642e+00
1.390000000000036762e-01
-2.246999999999996334e+00
-1.445999999999995955e+00
