-2.931999999999996387e+00 -1.093999999999993644e+00 -2.250999999999995449e+00 -1.806999999999998163e+00 -4.699999999999889821e-01 -2.899999999999993250e+00 3.090000000000063807e-01 1.267000000000007454e+00 -1.919999999999966178e-01 1.587000000000008626e+00 -2.621999999999995445e+00 -2.789999999999965841e-01 1.329000000000006843e+00 -2.399999999999947731e-01 -1.649999999999996358e+00 -7.669999999999972395e-01 7.700000000000883915e-02 -1.519999999999941398e-01 -9.799999999999963185e-01 7.500000000000539568e-02 3.120000000000020535e-01 -4.979999999999914495e-01 -1.660999999999998256e+00 -7.509999999999980025e-01 6.130000000000090932e-01 3.010000000000075948e-01 -3.759999999999950049e-01 -1.707999999999998852e+00 -1.087999999999997414e+00 3.019000000000009898e+00 3.093000000000008409e+00 1.446000000000007724e+00 -1.205999999999997518e+00 -2.673999999999997712e+00 -7.269999999999988693e-01 6.830000000000051585e-01 4.860000000000022080e-01 -2.621999999999995445e+00 2.180000000000027471e-01 1.217000000000005411e+00 -2.669999999999903562e-01 1.512000000000006228e+00 -8.799999999999956746e-01 -8.079999999999971649e-01 -1.001999999999998225e+00 2.088000000000008960e+00 6.800000000000472333e-02 -1.612999999999997325e+00 2.847000000000009745e+00 -4.499999999999571010e-02 3.079000000000013060e+00 -2.462999999999993861e+00 1.440000000000054570e-01 -1.999999999999941824e-01 5.800000000000815614e-02 9.770000000000051976e-01 -2.534999999999997478e+00 4.410000000000047216e-01 -7.619999999999946816e-01 1.718000000000011962e+00 -1.049999999999996492e+00 -1.453999999999996628e+00 6.270000000000088836e-01 -1.108999999999993769e+00 9.850000000000055378e-01 -2.139999999999949720e-01 3.480000000000056382e-01 4.800000000000032019e-01 -6.119999999999942153e-01 -2.371999999999998554e+00 2.410000000000054321e-01 -2.673999999999994603e+00 1.243000000000007432e+00 -1.126999999999994007e+00 2.130000000000047411e-01 7.330000000000086446e-01 4.680000000000089644e-01 1.280000000000069971e-01 5.610000000000049392e-01 -5.599999999999305533e-02 4.200000000000063682e-01 1.984000000000010200e+00 -3.398999999999992028e+00 1.311000000000008381e+00 8.810000000000060005e-01 -9.989999999999965574e-01 -2.232999999999992990e+00 1.097000000000006414e+00 3.260000000000055076e-01 -3.268999999999999240e+00 -1.234999999999995879e+00 1.358000000000007867e+00 5.830000000000095106e-01 -1.175999999999989498e+00 1.474000000000007748e+00 -7.449999999999935563e-01 9.800000000000061995e-01 4.231000000000011418e+00 -1.045999999999994934e+00 -2.459999999999957776e-01 -2.673999999999995492e+00 -5.299999999999649436e-02 1.515000000000006786e+00 7.830000000000049143e-01 1.097000000000007969e+00 2.383000000000008889e+00 1.358000000000006313e+00 1.576000000000007617e+00 -7.519999999999924523e-01 -9.699999999999974198e-01 -1.273999999999996913e+00 -2.724999999999995204e+00 -8.999999999993790745e-03 5.130000000000047855e-01 1.577000000000005064e+00 4.424000000000013699e+00 -8.589999999999935465e-01 -3.789999999999931202e-01 -1.878999999999993120e+00 5.760000000000047304e-01 1.934000000000008157e+00 -9.619999999999955254e-01 1.862000000000009647e+00 -2.187999999999997502e+00 -2.069999999999997620e+00 -1.583999999999996078e+00 2.172000000000010811e+00 4.194000000000011497e+00 -2.716999999999995197e+00 3.855000000000012417e+00 -1.760999999999996568e+00 2.866000000000009429e+00 -5.029999999999970051e-01 4.990000000000032188e-01 6.120000000000065388e-01 -1.349999999999975664e-01 3.030000000000074856e-01 -1.604999999999994431e+00 -1.009999999999954268e-01 3.100000000000056044e-01 1.793000000000005922e+00 3.302000000000008040e+00 1.512000000000008226e+00 -1.453999999999997517e+00 5.700000000000637890e-02 1.661000000000007581e+00 -2.443999999999996842e+00 -2.582999999999996188e+00 8.120000000000070495e-01 -2.589999999999957891e-01 5.200000000000031264e-01 -9.649999999999981926e-01 -8.159999999999961728e-01 4.570000000000076223e-01 1.185000000000008935e+00 2.500000000000623945e-02 -5.639999999999961711e-01 3.780000000000078852e-01 1.209000000000003627e+00 -1.229999999999992877e+00 2.772000000000011344e+00 -9.429999999999937321e-01 -6.419999999999946860e-01 1.146000000000008789e+00 9.000000000004448886e-03 -4.179999999999974847e-01 2.615000000000006430e+00 -3.700999999999995627e+00 7.150000000000041878e-01 7.810000000000053566e-01 1.158000000000009244e+00 -1.129999999999995008e+00 -1.627999999999993230e+00 -1.278999999999995030e+00 -1.788999999999997259e+00 2.817000000000005944e+00 -1.725999999999995094e+00 6.660000000000023679e-01 2.790000000000038005e-01 8.850000000000042277e-01 -7.539999999999963398e-01 -1.158999999999995811e+00 -1.899999999999635314e-02 -2.307999999999998497e+00 1.832000000000006068e+00 -5.429999999999965965e-01 -7.669999999999961293e-01 6.980000000000050608e-01 1.104000000000004533e+00 -5.479999999999933813e-01 1.425000000000007372e+00 -9.589999999999955227e-01 9.680000000000026361e-01 1.433000000000007379e+00 -5.769999999999987361e-01 1.194000000000006390e+00 7.700000000000043476e-01 1.890000000000037206e-01 7.160000000000072973e-01 -4.299999999999737366e-02 -3.809999999999997833e+00 9.650000000000036326e-01 -1.889999999999948388e-01 5.900000000000067413e-01 -1.282999999999996810e+00 -1.718999999999996975e+00 6.270000000000061080e-01 -6.329999999999962323e-01 6.200000000000849276e-02 1.242000000000004878e+00 2.730000000000029070e-01 2.000000000000357048e-02 -7.939999999999906022e-01 -1.051999999999995605e+00 -9.149999999999944844e-01 -7.879999999999951488e-01 -2.228999999999997428e+00 -4.119999999999994778e+00 -2.849999999999939249e-01 2.678000000000011482e+00 -1.216999999999996085e+00 5.230000000000050164e-01 7.970000000000098117e-01 -6.869999999999961693e-01 1.158000000000009244e+00 -2.009999999999957376e-01 3.520000000000047535e-01 1.644000000000008566e+00 -1.640999999999997794e+00 -4.779999999999968718e-01 -1.221999999999993980e+00 -7.609999999999961240e-01 -3.120999999999997332e+00 1.589000000000005297e+00 1.220000000000045492e-01 3.090000000000048264e-01 -9.389999999999963931e-01 1.282000000000006468e+00 1.089000000000007073e+00 -7.879999999999904858e-01 -2.841999999999992532e+00 -1.603999999999995207e+00 4.040000000000153468e-01
-2.931999999999996387e+00 -2.099999999999280220e-02 -2.250999999999995449e+00 -2.285999999999997812e+00 -4.699999999999889821e-01 -2.899999999999993250e+00 4.770000000000065299e-01 2.491000000000010317e+00 -1.071999999999991182e+00 1.587000000000008626e+00 -3.817999999999997396e+00 1.090000000000046487e-01 1.980000000000006422e+00 -3.909999999999959064e-01 -1.039999999999996705e+00 -5.359999999999979226e-01 2.930000000000072546e-01 -1.454999999999996074e+00 -9.799999999999963185e-01 -1.469999999999948015e-01 -6.159999999999978826e-01 -2.759999999999921405e-01 -1.660999999999998256e+00 -4.189999999999968194e-01 9.880000000000104254e-01 7.980000000000080362e-01 -3.759999999999950049e-01 -2.104999999999998206e+00 -5.009999999999968923e-01 3.232000000000010420e+00 3.093000000000008409e+00 1.387000000000006672e+00 -1.205999999999997518e+00 -1.861999999999997879e+00 -7.439999999999972191e-01 -1.859999999999947251e-01 4.860000000000022080e-01 -2.621999999999995445e+00 2.530000000000046656e-01 1.217000000000005411e+00 4.130000000000058069e-01 1.512000000000006228e+00 -8.799999999999956746e-01 -8.079999999999971649e-01 -1.001999999999998225e+00 6.060000000000078657e-01 -4.909999999999967724e-01 -2.949999999999969313e-01 1.861000000000007981e+00 -4.499999999999571010e-02 3.079000000000013060e+00 -2.508999999999993236e+00 3.660000000000047660e-01 -1.999999999999941824e-01 5.800000000000815614e-02 9.080000000000060245e-01 -2.534999999999997478e+00 -2.599999999999932365e-01 -7.619999999999946816e-01 2.212000000000013067e+00 -1.142999999999996685e+00 -1.453999999999996628e+00 2.659000000000008690e+00 -1.816999999999995286e+00 4.740000000000040847e-01 4.000000000004333423e-03 9.530000000000052873e-01 4.800000000000032019e-01 1.330000000000072236e-01 -3.260999999999998789e+00 -6.089999999999962110e-01 -1.956999999999993856e+00 1.243000000000007432e+00 7.490000000000077707e-01 2.130000000000047411e-01 7.330000000000086446e-01 -9.479999999999942917e-01 1.280000000000069971e-01 -2.629999999999957927e-01 4.150000000000063638e-01 1.100000000000522782e-02 2.790000000000011582e+00 -3.398999999999992028e+00 1.311000000000008381e+00 1.634000000000007446e+00 -9.989999999999965574e-01 -1.971999999999994646e+00 1.097000000000006414e+00 3.260000000000055076e-01 -3.268999999999999240e+00 -8.179999999999965077e-01 7.720000000000082352e-01 3.030000000000074856e-01 -6.959999999999881837e-01 1.474000000000007748e+00 -1.080999999999993744e+00 9.800000000000061995e-01 4.580000000000012506e+00 -1.531999999999995365e+00 -8.869999999999963469e-01 -2.666999999999996263e+00 6.130000000000057625e-01 1.743000000000007876e+00 7.830000000000049143e-01 1.097000000000007969e+00 2.383000000000008889e+00 1.306000000000007155e+00 2.556000000000007599e+00 -1.372999999999996668e+00 -9.879999999999965477e-01 -1.448999999999995403e+00 -1.085999999999992305e+00 -7.539999999999952296e-01 5.130000000000047855e-01 1.687000000000004274e+00 3.218000000000011962e+00 -2.323999999999995847e+00 -2.749999999999930278e-01 -1.953999999999994852e+00 5.760000000000047304e-01 2.608000000000006757e+00 -1.091999999999996529e+00 1.862000000000009647e+00 -1.829999999999996296e+00 -2.069999999999997620e+00 -7.199999999999961986e-01 1.148000000000008125e+00 4.391000000000010672e+00 -2.841999999999996085e+00 2.992000000000011539e+00 -1.760999999999996568e+00 2.866000000000009429e+00 -1.075999999999998291e+00 -8.699999999999641354e-02 -9.389999999999948388e-01 -1.349999999999975664e-01 -1.589999999999902602e-01 -8.109999999999946141e-01 7.700000000000044587e-01 -7.009999999999945164e-01 1.793000000000005922e+00 3.208000000000008622e+00 1.512000000000008226e+00 -1.428999999999998494e+00 5.700000000000637890e-02 1.661000000000007581e+00 -1.553999999999996939e+00 -2.535999999999995147e+00 1.365000000000007319e+00 -1.047999999999995602e+00 5.200000000000031264e-01 -1.647999999999997911e+00 -8.159999999999961728e-01 5.000000000000086597e-01 2.920000000000072538e-01 2.500000000000623945e-02 -1.157999999999996588e+00 3.780000000000078852e-01 1.209000000000003627e+00 -2.097999999999992760e+00 2.772000000000011344e+00 -3.089999999999940572e-01 1.910000000000069420e-01 1.146000000000008789e+00 6.910000000000059428e-01 -4.179999999999974847e-01 2.615000000000006430e+00 -3.459999999999996412e+00 8.080000000000050475e-01 7.810000000000053566e-01 8.060000000000070441e-01 -1.129999999999995008e+00 -6.119999999999942153e-01 -2.100999999999994650e+00 -8.219999999999945128e-01 2.817000000000005944e+00 -2.006999999999994344e+00 4.360000000000058273e-01 1.082000000000005624e+00 9.440000000000043912e-01 -7.539999999999963398e-01 -1.158999999999995811e+00 1.150000000000028777e-01 -2.189999999999997726e+00 2.127000000000007329e+00 -5.429999999999965965e-01 -5.849999999999950795e-01 6.980000000000050608e-01 3.860000000000057829e-01 -9.369999999999945040e-01 1.425000000000007372e+00 -3.619999999999958806e-01 9.680000000000026361e-01 -3.409999999999934195e-01 -1.300999999999998380e+00 2.190000000000008384e+00 7.700000000000043476e-01 1.890000000000037206e-01 7.160000000000072973e-01 -4.299999999999737366e-02 -2.102999999999996650e+00 9.650000000000036326e-01 -9.769999999999946505e-01 -4.209999999999942677e-01 -1.282999999999996810e+00 -2.498999999999995669e+00 6.270000000000061080e-01 -6.329999999999962323e-01 4.170000000000098073e-01 1.242000000000004878e+00 2.730000000000029070e-01 1.227000000000005642e+00 -7.939999999999906022e-01 -1.771999999999997133e+00 -7.069999999999934115e-01 -1.409999999999956843e-01 -2.228999999999997428e+00 -3.838999999999993751e+00 3.000000000006441958e-03 3.051000000000012591e+00 2.950000000000035927e-01 5.230000000000050164e-01 -4.199999999999193268e-02 5.800000000000360423e-02 6.280000000000077742e-01 -4.869999999999951035e-01 3.120000000000056062e-01 1.644000000000008566e+00 -1.478999999999996762e+00 4.920000000000048779e-01 -1.221999999999993980e+00 -5.799999999999941869e-01 -3.120999999999997332e+00 1.717000000000005411e+00 1.220000000000045492e-01 3.090000000000048264e-01 2.480000000000047722e-01 8.050000000000059330e-01 6.870000000000067164e-01 -2.223999999999990873e+00 -2.841999999999992532e+00 -6.769999999999951612e-01 4.040000000000153468e-01
-2.356999999999994877e+00 1.248000000000008436e+00 -1.893999999999994355e+00 -2.285999999999997812e+00 -5.349999999999908162e-01 -2.899999999999993250e+00 4.770000000000065299e-01 2.491000000000010317e+00 -3.319999999999886375e-01 1.587000000000008626e+00 -2.896999999999996689e+00 1.510000000000046860e-01 1.980000000000006422e+00 -1.018999999999995687e+00 -1.039999999999996705e+00 -7.669999999999972395e-01 4.030000000000091287e-01 -7.299999999999955413e-01 -9.799999999999963185e-01 1.700000000000445599e-02 3.120000000000020535e-01 -2.759999999999921405e-01 -1.729999999999999094e+00 -7.509999999999980025e-01 6.130000000000090932e-01 8.140000000000071623e-01 -3.759999999999950049e-01 -2.104999999999998206e+00 -1.087999999999997414e+00 3.019000000000009898e+00 3.093000000000008409e+00 1.387000000000006672e+00 -1.205999999999997518e+00 -2.614999999999996660e+00 -7.269999999999988693e-01 6.830000000000051585e-01 4.860000000000022080e-01 -2.621999999999995445e+00 3.110000000000056053e-01 1.217000000000005411e+00 4.130000000000058069e-01 9.370000000000066054e-01 -1.591999999999995419e+00 -8.079999999999971649e-01 -1.001999999999998225e+00 2.088000000000008960e+00 6.800000000000472333e-02 -4.849999999999962119e-01 1.525000000000006795e+00 -4.499999999999571010e-02 3.079000000000013060e+00 -2.508999999999993236e+00 1.440000000000054570e-01 -1.999999999999941824e-01 9.150000000000072520e-01 9.770000000000051976e-01 -2.534999999999997478e+00 -2.599999999999932365e-01 -7.619999999999946816e-01 2.023000000000013898e+00 -1.049999999999996492e+00 -1.453999999999996628e+00 2.659000000000008690e+00 -1.816999999999995286e+00 4.740000000000040847e-01 9.500000000000541345e-02 3.480000000000056382e-01 1.383000000000004892e+00 -6.119999999999942153e-01 -3.260999999999998789e+00 2.410000000000054321e-01 -1.491999999999992443e+00 1.816000000000007164e+00 7.490000000000077707e-01 9.960000000000064357e-01 1.557000000000012374e+00 2.640000000000068958e-01 1.280000000000069971e-01 -2.629999999999957927e-01 -1.039999999999992930e+00 1.100000000000522782e-02 2.790000000000011582e+00 -3.412999999999991374e+00 1.311000000000008381e+00 8.810000000000060005e-01 -9.989999999999965574e-01 -1.259999999999993125e+00 1.097000000000006414e+00 -1.179999999999939986e-01 -2.400999999999997581e+00 -8.179999999999965077e-01 7.720000000000082352e-01 3.030000000000074856e-01 -1.175999999999989498e+00 1.474000000000007748e+00 -7.449999999999935563e-01 4.520000000000066187e-01 4.231000000000011418e+00 -1.531999999999995365e+00 -8.869999999999963469e-01 -2.666999999999996263e+00 -1.599999999999931477e-01 2.252000000000008217e+00 1.626000000000006551e+00 7.490000000000084368e-01 2.383000000000008889e+00 7.890000000000050306e-01 1.644000000000007677e+00 -7.519999999999924523e-01 -9.699999999999974198e-01 -1.273999999999996913e+00 -2.158999999999993147e+00 -7.539999999999952296e-01 5.130000000000047855e-01 8.020000000000033769e-01 3.949000000000012278e+00 -8.589999999999935465e-01 -5.169999999999941309e-01 -1.436999999999995392e+00 1.486000000000007315e+00 2.608000000000006757e+00 -5.399999999999942624e-01 1.200000000000008171e+00 -2.306999999999996831e+00 -2.069999999999997620e+00 -7.199999999999961986e-01 2.040000000000009805e+00 4.391000000000010672e+00 -3.919999999999995044e+00 2.992000000000011539e+00 -1.760999999999996568e+00 2.153000000000009795e+00 -1.965999999999998193e+00 4.990000000000032188e-01 6.120000000000065388e-01 -1.349999999999975664e-01 3.030000000000074856e-01 -1.037999999999992928e+00 7.670000000000034568e-01 -7.009999999999945164e-01 1.816000000000006942e+00 3.208000000000008622e+00 1.512000000000008226e+00 -1.428999999999998494e+00 5.700000000000637890e-02 8.900000000000058975e-01 -1.553999999999996939e+00 -2.582999999999996188e+00 5.900000000000056311e-01 -1.047999999999995602e+00 5.200000000000031264e-01 -1.647999999999997911e+00 -8.159999999999961728e-01 5.000000000000086597e-01 2.920000000000072538e-01 2.500000000000623945e-02 -5.639999999999961711e-01 3.780000000000078852e-01 1.209000000000003627e+00 -1.229999999999992877e+00 1.895000000000011564e+00 2.660000000000074527e-01 -4.429999999999935101e-01 1.146000000000008789e+00 9.000000000004448886e-03 -4.179999999999974847e-01 2.854000000000007642e+00 -3.459999999999996412e+00 7.150000000000041878e-01 2.950000000000058131e-01 8.660000000000070974e-01 -1.129999999999995008e+00 -6.119999999999942153e-01 -2.100999999999994650e+00 -7.639999999999953495e-01 2.582000000000006512e+00 -1.725999999999995094e+00 6.660000000000023679e-01 1.242000000000006654e+00 8.850000000000042277e-01 -7.539999999999963398e-01 -1.158999999999995811e+00 1.150000000000028777e-01 -2.307999999999998497e+00 1.832000000000006068e+00 -1.282999999999996366e+00 -7.669999999999961293e-01 6.980000000000050608e-01 3.860000000000057829e-01 -9.329999999999936122e-01 1.425000000000007372e+00 2.600000000000064482e-01 9.680000000000026361e-01 -3.409999999999934195e-01 -5.769999999999987361e-01 1.194000000000006390e+00 1.210000000000046594e-01 1.890000000000037206e-01 -1.379999999999925731e-01 -4.299999999999737366e-02 -2.102999999999996650e+00 9.650000000000036326e-01 -8.609999999999945475e-01 -4.209999999999942677e-01 -1.570999999999995289e+00 -2.498999999999995669e+00 6.270000000000061080e-01 -6.329999999999962323e-01 6.200000000000849276e-02 1.242000000000004878e+00 2.730000000000029070e-01 2.000000000000357048e-02 -7.939999999999906022e-01 -1.727999999999995318e+00 -5.019999999999933404e-01 -6.779999999999969384e-01 -2.228999999999997428e+00 -4.119999999999994778e+00 3.000000000006441958e-03 2.678000000000011482e+00 2.950000000000035927e-01 -1.350999999999995982e+00 1.364000000000011426e+00 -2.159999999999947518e-01 1.158000000000009244e+00 -2.009999999999957376e-01 3.120000000000056062e-01 2.450000000000009948e+00 -1.640999999999997794e+00 4.920000000000048779e-01 -1.221999999999993980e+00 4.150000000000085842e-01 -1.746999999999996112e+00 1.107000000000005535e+00 4.630000000000066285e-01 -3.279999999999948512e-01 2.480000000000047722e-01 8.050000000000059330e-01 5.110000000000056719e-01 -1.399999999999991918e+00 -2.841999999999992532e+00 -6.769999999999951612e-01 1.637000000000018218e+00
-2.356999999999994877e+00 7.130000000000069615e-01 -2.250999999999995449e+00 -2.285999999999997812e+00 -5.349999999999908162e-01 -2.899999999999993250e+00 4.770000000000065299e-01 2.491000000000010317e+00 -3.319999999999886375e-01 1.587000000000008626e+00 -1.787999999999993817e+00 1.510000000000046860e-01 1.980000000000006422e+00 -3.909999999999959064e-01 -1.039999999999996705e+00 -7.669999999999972395e-01 2.930000000000072546e-01 -1.519999999999941398e-01 -9.799999999999963185e-01 -1.469999999999948015e-01 3.120000000000020535e-01 -2.759999999999921405e-01 -1.660999999999998256e+00 -7.509999999999980025e-01 6.130000000000090932e-01 7.980000000000080362e-01 -3.759999999999950049e-01 -2.104999999999998206e+00 -1.087999999999997414e+00 3.019000000000009898e+00 3.093000000000008409e+00 1.387000000000006672e+00 -1.205999999999997518e+00 -2.614999999999996660e+00 -7.269999999999988693e-01 -1.859999999999947251e-01 4.860000000000022080e-01 -2.621999999999995445e+00 2.530000000000046656e-01 1.217000000000005411e+00 -7.999999999999926059e-01 1.512000000000006228e+00 -8.799999999999956746e-01 -8.079999999999971649e-01 -1.001999999999998225e+00 2.088000000000008960e+00 6.800000000000472333e-02 -4.849999999999962119e-01 1.861000000000007981e+00 -4.499999999999571010e-02 3.079000000000013060e+00 -2.508999999999993236e+00 1.440000000000054570e-01 -1.999999999999941824e-01 5.800000000000815614e-02 9.770000000000051976e-01 -2.534999999999997478e+00 -2.599999999999932365e-01 -7.619999999999946816e-01 2.212000000000013067e+00 -1.049999999999996492e+00 -1.453999999999996628e+00 2.659000000000008690e+00 -1.816999999999995286e+00 4.740000000000040847e-01 -2.139999999999949720e-01 3.480000000000056382e-01 4.800000000000032019e-01 -6.119999999999942153e-01 -3.260999999999998789e+00 -6.089999999999962110e-01 -1.491999999999992443e+00 1.243000000000007432e+00 7.490000000000077707e-01 2.130000000000047411e-01 1.726000000000011525e+00 2.640000000000068958e-01 -2.239999999999924274e-01 2.610000000000055609e-01 -1.039999999999992930e+00 4.200000000000063682e-01 2.790000000000011582e+00 -3.398999999999992028e+00 1.311000000000008381e+00 8.810000000000060005e-01 -9.989999999999965574e-01 -1.259999999999993125e+00 1.097000000000006414e+00 3.260000000000055076e-01 -3.268999999999999240e+00 -8.179999999999965077e-01 1.358000000000007867e+00 3.030000000000074856e-01 -1.175999999999989498e+00 1.474000000000007748e+00 -7.449999999999935563e-01 4.520000000000066187e-01 4.231000000000011418e+00 -1.531999999999995365e+00 -8.869999999999963469e-01 -2.666999999999996263e+00 -4.299999999999959410e-01 2.252000000000008217e+00 1.626000000000006551e+00 1.097000000000007969e+00 2.383000000000008889e+00 7.890000000000050306e-01 2.556000000000007599e+00 -1.190999999999991843e+00 -9.699999999999974198e-01 -5.889999999999955271e-01 -1.242999999999993221e+00 -7.539999999999952296e-01 5.130000000000047855e-01 1.687000000000004274e+00 3.949000000000012278e+00 -8.589999999999935465e-01 -3.789999999999931202e-01 -1.436999999999995392e+00 1.486000000000007315e+00 2.608000000000006757e+00 -1.091999999999996529e+00 1.862000000000009647e+00 -2.257999999999996454e+00 -1.770999999999996355e+00 -7.199999999999961986e-01 2.040000000000009805e+00 4.391000000000010672e+00 -3.919999999999995044e+00 2.992000000000011539e+00 -1.760999999999996568e+00 2.866000000000009429e+00 -1.075999999999998291e+00 4.990000000000032188e-01 6.120000000000065388e-01 -1.349999999999975664e-01 3.030000000000074856e-01 -1.604999999999994431e+00 7.670000000000034568e-01 -7.009999999999945164e-01 1.793000000000005922e+00 3.208000000000008622e+00 1.512000000000008226e+00 -1.428999999999998494e+00 5.700000000000637890e-02 1.661000000000007581e+00 -1.553999999999996939e+00 -2.582999999999996188e+00 1.365000000000007319e+00 -1.047999999999995602e+00 5.200000000000031264e-01 -1.647999999999997911e+00 -8.159999999999961728e-01 5.000000000000086597e-01 2.920000000000072538e-01 2.500000000000623945e-02 -5.639999999999961711e-01 3.780000000000078852e-01 1.209000000000003627e+00 -1.229999999999992877e+00 2.772000000000011344e+00 -3.089999999999940572e-01 -4.429999999999935101e-01 1.146000000000008789e+00 9.000000000004448886e-03 -4.179999999999974847e-01 2.615000000000006430e+00 -3.700999999999995627e+00 7.150000000000041878e-01 2.950000000000058131e-01 3.900000000000536371e-02 -1.129999999999995008e+00 -6.119999999999942153e-01 -2.100999999999994650e+00 -7.639999999999953495e-01 2.817000000000005944e+00 -1.725999999999995094e+00 6.660000000000023679e-01 1.082000000000005624e+00 8.850000000000042277e-01 -7.539999999999963398e-01 -1.158999999999995811e+00 1.150000000000028777e-01 -2.307999999999998497e+00 1.832000000000006068e+00 -5.429999999999965965e-01 -7.669999999999961293e-01 6.980000000000050608e-01 1.104000000000004533e+00 -9.369999999999945040e-01 1.425000000000007372e+00 -9.589999999999955227e-01 9.680000000000026361e-01 -3.409999999999934195e-01 -5.769999999999987361e-01 1.194000000000006390e+00 7.700000000000043476e-01 1.890000000000037206e-01 7.160000000000072973e-01 -4.299999999999737366e-02 -2.102999999999996650e+00 9.650000000000036326e-01 -8.609999999999945475e-01 3.750000000000055511e-01 -1.613999999999996326e+00 -2.498999999999995669e+00 6.270000000000061080e-01 -6.329999999999962323e-01 6.200000000000849276e-02 1.242000000000004878e+00 2.730000000000029070e-01 1.227000000000005642e+00 -7.939999999999906022e-01 -1.727999999999995318e+00 -5.019999999999933404e-01 -4.889999999999968816e-01 -2.228999999999997428e+00 -4.119999999999994778e+00 3.000000000006441958e-03 2.678000000000011482e+00 2.950000000000035927e-01 -4.589999999999967439e-01 -4.199999999999193268e-02 -2.159999999999947518e-01 1.158000000000009244e+00 -4.869999999999951035e-01 3.120000000000056062e-01 1.644000000000008566e+00 -1.640999999999997794e+00 4.920000000000048779e-01 -1.221999999999993980e+00 -1.359999999999929043e-01 -3.120999999999997332e+00 1.717000000000005411e+00 1.220000000000045492e-01 3.090000000000048264e-01 2.480000000000047722e-01 8.050000000000059330e-01 5.110000000000056719e-01 -1.552999999999991054e+00 -2.841999999999992532e+00 -6.769999999999951612e-01 4.040000000000153468e-01
-2.931999999999996387e+00 1.035000000000008136e+00 -2.250999999999995449e+00 -1.806999999999998163e+00 -8.329999999999893046e-01 -2.899999999999993250e+00 4.770000000000065299e-01 1.810000000000008935e+00 -1.071999999999991182e+00 1.587000000000008626e+00 -3.885999999999998344e+00 -5.729999999999959570e-01 1.980000000000006422e+00 -3.909999999999959064e-01 -1.039999999999996705e+00 -5.359999999999979226e-01 6.990000000000085034e-01 -1.379999999999996785e+00 -9.799999999999963185e-01 1.700000000000445599e-02 -2.919999999999975948e-01 -1.242999999999992111e+00 -1.729999999999999094e+00 -1.999999999999824141e-02 6.130000000000090932e-01 3.760000000000076614e-01 -3.759999999999950049e-01 -1.707999999999998852e+00 -1.087999999999997414e+00 3.019000000000009898e+00 3.093000000000008409e+00 1.269000000000007455e+00 -1.205999999999997518e+00 -2.279999999999998472e+00 -7.269999999999988693e-01 -1.859999999999947251e-01 3.490000000000029745e-01 -2.621999999999995445e+00 2.180000000000027471e-01 1.217000000000005411e+00 4.130000000000058069e-01 1.124000000000007660e+00 -8.799999999999956746e-01 -8.079999999999971649e-01 -6.359999999999970122e-01 6.060000000000078657e-01 -4.909999999999967724e-01 -2.949999999999969313e-01 1.525000000000006795e+00 -6.119999999999953255e-01 3.797000000000013475e+00 -8.069999999999917240e-01 -5.159999999999951292e-01 -1.999999999999941824e-01 5.800000000000815614e-02 9.770000000000051976e-01 -2.534999999999997478e+00 4.410000000000047216e-01 8.700000000000795985e-02 2.252000000000010438e+00 -1.142999999999996685e+00 -1.453999999999996628e+00 2.120000000000094031e-01 -1.816999999999995286e+00 9.850000000000055378e-01 4.000000000004333423e-03 9.530000000000052873e-01 1.830000000000047145e-01 -7.449999999999934452e-01 -3.260999999999998789e+00 -8.679999999999955529e-01 -1.229999999999991322e+00 9.600000000000054046e-01 1.054000000000008708e+00 9.960000000000064357e-01 7.330000000000086446e-01 -9.479999999999942917e-01 1.280000000000069971e-01 -2.629999999999957927e-01 4.150000000000063638e-01 1.100000000000522782e-02 2.874000000000012101e+00 -2.560999999999991505e+00 1.311000000000008381e+00 8.810000000000060005e-01 -9.989999999999965574e-01 -1.971999999999994646e+00 3.210000000000066134e-01 3.260000000000055076e-01 -4.265999999999998238e+00 -8.179999999999965077e-01 1.950000000000086109e-01 9.800000000000830269e-02 -9.059999999999901465e-01 1.474000000000007748e+00 -7.449999999999935563e-01 9.800000000000061995e-01 4.236000000000012200e+00 -2.429999999999996163e+00 -8.869999999999963469e-01 -7.219999999999979767e-01 1.043000000000007033e+00 1.743000000000007876e+00 7.830000000000049143e-01 8.630000000000067617e-01 6.540000000000090186e-01 1.358000000000006313e+00 2.556000000000007599e+00 -1.372999999999996668e+00 -9.879999999999965477e-01 -6.019999999999954277e-01 -6.999999999999935163e-01 -7.539999999999952296e-01 -8.419999999999946416e-01 1.687000000000004274e+00 2.444000000000008832e+00 -8.229999999999954019e-01 -1.779999999999928306e-01 -1.783999999999994923e+00 5.760000000000047304e-01 2.608000000000006757e+00 -9.619999999999955254e-01 1.200000000000008171e+00 -5.539999999999960512e-01 -2.069999999999997620e+00 -7.199999999999961986e-01 1.377000000000009106e+00 4.391000000000010672e+00 -2.841999999999996085e+00 2.992000000000011539e+00 -2.726999999999998092e+00 2.519000000000009010e+00 -1.075999999999998291e+00 -8.699999999999641354e-02 -9.389999999999948388e-01 -4.769999999999969820e-01 -1.139999999999911084e-01 -8.109999999999946141e-01 7.670000000000034568e-01 8.650000000000024336e-01 1.793000000000005922e+00 3.618000000000007432e+00 1.512000000000008226e+00 -1.971999999999998199e+00 5.700000000000637890e-02 -5.399999999999405276e-02 -1.553999999999996939e+00 -2.549999999999995381e+00 -5.109999999999932374e-01 -2.589999999999957891e-01 -1.308999999999995723e+00 -1.505999999999997785e+00 -8.159999999999961728e-01 4.570000000000076223e-01 -4.859999999999925491e-01 2.500000000000623945e-02 -1.157999999999996588e+00 9.240000000000074820e-01 1.209000000000003627e+00 -2.097999999999992760e+00 2.772000000000011344e+00 -3.089999999999940572e-01 2.670000000000061213e-01 1.607000000000009976e+00 6.910000000000059428e-01 -5.719999999999958451e-01 2.045000000000005258e+00 -4.192999999999996064e+00 4.170000000000048113e-01 7.810000000000053566e-01 8.710000000000069909e-01 -3.219999999999940687e-01 -9.699999999999464606e-02 -1.863999999999994550e+00 -8.219999999999945128e-01 2.817000000000005944e+00 -2.006999999999994344e+00 4.360000000000058273e-01 -3.299999999999825295e-02 7.040000000000032898e-01 -7.539999999999963398e-01 -4.259999999999970477e-01 -6.419999999999944640e-01 -2.307999999999998497e+00 2.633000000000007557e+00 -4.119999999999967022e-01 -1.224999999999996536e+00 6.980000000000050608e-01 3.860000000000057829e-01 -9.369999999999945040e-01 1.425000000000007372e+00 -1.309999999999995834e+00 6.170000000000032125e-01 2.830000000000071347e-01 -1.449999999999997513e+00 2.190000000000008384e+00 6.670000000000051443e-01 1.890000000000037206e-01 -2.019999999999926299e-01 -4.299999999999737366e-02 -2.034999999999998366e+00 1.663000000000005141e+00 -2.589999999999932356e-01 -2.199999999999933120e-01 -1.282999999999996810e+00 -1.718999999999996975e+00 8.680000000000054339e-01 -6.329999999999962323e-01 4.170000000000098073e-01 1.242000000000004878e+00 2.730000000000029070e-01 2.570000000000028928e-01 -7.939999999999906022e-01 -9.829999999999956550e-01 -5.019999999999933404e-01 -4.889999999999968816e-01 -2.228999999999997428e+00 -4.119999999999994778e+00 -6.309999999999922338e-01 2.066000000000010051e+00 2.950000000000035927e-01 5.230000000000050164e-01 -4.199999999999193268e-02 -6.869999999999961693e-01 6.280000000000077742e-01 -4.869999999999951035e-01 5.970000000000049711e-01 2.478000000000010417e+00 -1.478999999999996762e+00 -4.779999999999968718e-01 -1.221999999999993980e+00 -5.799999999999941869e-01 -1.692999999999996064e+00 7.220000000000034168e-01 4.630000000000066285e-01 3.090000000000048264e-01 -5.949999999999969758e-01 3.880000000000047855e-01 1.089000000000007073e+00 -1.399999999999991918e+00 -1.986999999999991662e+00 -6.769999999999951612e-01 8.420000000000176232e-01
-2.931999999999996387e+00 -1.093999999999993644e+00 -2.250999999999995449e+00 -1.806999999999998163e+00 -5.349999999999908162e-01 -3.029999999999994476e+00 4.770000000000065299e-01 1.855000000000008864e+00 -4.889999999999896652e-01 1.587000000000008626e+00 -2.621999999999995445e+00 1.510000000000046860e-01 1.980000000000006422e+00 -3.909999999999959064e-01 -1.649999999999996358e+00 -7.669999999999972395e-01 4.030000000000091287e-01 -7.299999999999955413e-01 -9.799999999999963185e-01 1.700000000000445599e-02 3.120000000000020535e-01 1.076000000000010726e+00 -1.729999999999999094e+00 -1.279999999999997584e+00 6.130000000000090932e-01 8.140000000000071623e-01 -3.759999999999950049e-01 -1.707999999999998852e+00 1.370000000000035634e-01 3.019000000000009898e+00 3.093000000000008409e+00 1.387000000000006672e+00 -1.205999999999997518e+00 -2.614999999999996660e+00 -7.269999999999988693e-01 6.830000000000051585e-01 4.860000000000022080e-01 -2.621999999999995445e+00 3.640000000000037650e-01 1.492000000000006654e+00 -7.999999999999926059e-01 1.512000000000006228e+00 -8.799999999999956746e-01 -8.079999999999971649e-01 -1.001999999999998225e+00 2.088000000000008960e+00 6.800000000000472333e-02 -1.612999999999997325e+00 1.525000000000006795e+00 -4.499999999999571010e-02 3.079000000000013060e+00 -2.462999999999993861e+00 8.570000000000077556e-01 -1.999999999999941824e-01 9.150000000000072520e-01 9.770000000000051976e-01 -2.534999999999997478e+00 4.410000000000047216e-01 -7.619999999999946816e-01 1.718000000000011962e+00 -1.049999999999996492e+00 -1.453999999999996628e+00 6.270000000000088836e-01 -1.108999999999993769e+00 4.740000000000040847e-01 4.000000000004333423e-03 9.530000000000052873e-01 4.800000000000032019e-01 -1.457999999999993967e+00 -2.371999999999998554e+00 2.410000000000054321e-01 -9.789999999999912106e-01 7.060000000000061782e-01 7.490000000000077707e-01 2.130000000000047411e-01 7.330000000000086446e-01 2.640000000000068958e-01 1.740000000000079261e-01 2.610000000000055609e-01 -1.039999999999992930e+00 1.365000000000007985e+00 1.984000000000010200e+00 -2.643999999999990802e+00 1.311000000000008381e+00 8.810000000000060005e-01 -9.989999999999965574e-01 -1.971999999999994646e+00 6.780000000000077076e-01 -3.909999999999942411e-01 -3.403999999999997694e+00 -8.179999999999965077e-01 1.157000000000008466e+00 -4.999999999992787991e-03 -1.175999999999989498e+00 1.474000000000007748e+00 -7.449999999999935563e-01 9.800000000000061995e-01 4.231000000000011418e+00 -1.045999999999994934e+00 -2.459999999999957776e-01 -2.666999999999996263e+00 -5.299999999999649436e-02 2.252000000000008217e+00 1.023000000000005905e+00 4.810000000000073106e-01 2.383000000000008889e+00 1.358000000000006313e+00 2.072000000000008058e+00 -7.769999999999971374e-01 -1.403999999999997694e+00 -1.273999999999996913e+00 -1.242999999999993221e+00 -7.539999999999952296e-01 5.130000000000047855e-01 1.577000000000005064e+00 2.444000000000008832e+00 -6.589999999999952562e-01 -9.449999999999936229e-01 -1.436999999999995392e+00 5.760000000000047304e-01 2.608000000000006757e+00 -9.619999999999955254e-01 1.829000000000010395e+00 -2.187999999999997502e+00 -2.324999999999995737e+00 -7.199999999999961986e-01 2.078000000000010061e+00 4.194000000000011497e+00 -3.919999999999995044e+00 2.867000000000010651e+00 -1.732999999999997431e+00 2.519000000000009010e+00 -1.075999999999998291e+00 4.990000000000032188e-01 6.120000000000065388e-01 -9.449999999999973976e-01 3.030000000000074856e-01 -8.209999999999919584e-01 7.700000000000044587e-01 5.480000000000030402e-01 1.793000000000005922e+00 4.272000000000009123e+00 1.512000000000008226e+00 -2.377999999999998337e+00 5.700000000000637890e-02 1.540000000000007363e+00 -1.553999999999996939e+00 -2.582999999999996188e+00 8.120000000000070495e-01 -2.589999999999957891e-01 5.200000000000031264e-01 -1.587999999999997858e+00 -1.045999999999995378e+00 4.570000000000076223e-01 2.920000000000072538e-01 2.500000000000623945e-02 -5.639999999999961711e-01 3.780000000000078852e-01 1.209000000000003627e+00 -1.229999999999992877e+00 2.732000000000012196e+00 -3.089999999999940572e-01 -6.419999999999946860e-01 1.369000000000009987e+00 9.000000000004448886e-03 4.360000000000041620e-01 2.045000000000005258e+00 -3.459999999999996412e+00 7.150000000000041878e-01 7.810000000000053566e-01 3.900000000000536371e-02 -1.129999999999995008e+00 -6.119999999999942153e-01 -2.100999999999994650e+00 -1.258999999999994124e+00 2.817000000000005944e+00 -1.725999999999995094e+00 6.660000000000023679e-01 -5.569999999999960538e-01 8.850000000000042277e-01 -7.539999999999963398e-01 -4.259999999999970477e-01 -8.999999999995345057e-03 -2.307999999999998497e+00 1.832000000000006068e+00 -1.710999999999996746e+00 -7.669999999999961293e-01 4.340000000000057145e-01 3.860000000000057829e-01 -2.139999999999928626e-01 1.972000000000008857e+00 -9.589999999999955227e-01 9.680000000000026361e-01 1.683000000000008489e+00 -1.300999999999998380e+00 1.194000000000006390e+00 9.230000000000052607e-01 1.890000000000037206e-01 7.160000000000072973e-01 -4.299999999999737366e-02 -2.102999999999996650e+00 6.050000000000042011e-01 -8.609999999999945475e-01 5.900000000000067413e-01 -1.570999999999995289e+00 -1.718999999999996975e+00 6.270000000000061080e-01 -6.329999999999962323e-01 6.200000000000849276e-02 1.242000000000004878e+00 4.000000000000358824e-02 2.000000000000357048e-02 -7.939999999999906022e-01 -1.051999999999995605e+00 -5.019999999999933404e-01 -1.102999999999996428e+00 -3.037999999999997147e+00 -3.947999999999993737e+00 6.320000000000076668e-01 2.066000000000010051e+00 -1.216999999999996085e+00 5.230000000000050164e-01 7.970000000000098117e-01 5.800000000000360423e-02 1.158000000000009244e+00 -2.009999999999957376e-01 3.520000000000047535e-01 1.937000000000009603e+00 -2.128999999999997339e+00 4.920000000000048779e-01 -6.389999999999935731e-01 -8.939999999999935776e-01 -1.719999999999995088e+00 1.281000000000005690e+00 1.220000000000045492e-01 3.090000000000048264e-01 -5.949999999999969758e-01 3.880000000000047855e-01 5.110000000000056719e-01 -1.399999999999991918e+00 -2.841999999999992532e+00 -6.719999999999943796e-01 4.040000000000153468e-01
-2.931999999999996387e+00 -1.093999999999993644e+00 -2.250999999999995449e+00 -1.806999999999998163e+00 -9.719999999999885398e-01 -3.600999999999994206e+00 -4.409999999999933973e-01 1.810000000000008935e+00 -1.071999999999991182e+00 1.587000000000008626e+00 -3.817999999999997396e+00 1.510000000000046860e-01 1.980000000000006422e+00 -3.909999999999959064e-01 -1.039999999999996705e+00 -5.359999999999979226e-01 1.182000000000008821e+00 -1.454999999999996074e+00 -9.799999999999963185e-01 1.700000000000445599e-02 3.120000000000020535e-01 -2.759999999999921405e-01 -1.729999999999999094e+00 -1.243999999999997552e+00 7.220000000000099671e-01 8.140000000000071623e-01 -3.759999999999950049e-01 -1.707999999999998852e+00 -4.519999999999977369e-01 3.019000000000009898e+00 3.093000000000008409e+00 1.176000000000007262e+00 -1.205999999999997518e+00 -2.614999999999996660e+00 -7.439999999999972191e-01 6.830000000000051585e-01 3.490000000000029745e-01 -2.621999999999995445e+00 2.180000000000027471e-01 1.076000000000006285e+00 4.130000000000058069e-01 1.512000000000006228e+00 -8.799999999999956746e-01 -8.079999999999971649e-01 -1.001999999999998225e+00 6.060000000000078657e-01 -4.909999999999967724e-01 -2.949999999999969313e-01 1.525000000000006795e+00 -4.499999999999571010e-02 3.294000000000012029e+00 -8.809999999999909015e-01 3.660000000000047660e-01 -1.999999999999941824e-01 5.800000000000815614e-02 9.770000000000051976e-01 -2.534999999999997478e+00 4.410000000000047216e-01 8.700000000000795985e-02 2.023000000000013898e+00 -1.142999999999996685e+00 -1.453999999999996628e+00 6.270000000000088836e-01 -1.816999999999995286e+00 4.740000000000040847e-01 4.000000000004333423e-03 9.530000000000052873e-01 1.830000000000047145e-01 -6.119999999999942153e-01 -3.356999999999998430e+00 9.320000000000070450e-01 -1.491999999999992443e+00 4.740000000000068603e-01 7.490000000000077707e-01 1.683000000000008045e+00 9.280000000000098170e-01 2.640000000000068958e-01 1.740000000000079261e-01 -6.519999999999943618e-01 -5.619999999999936158e-01 1.365000000000007985e+00 3.871000000000013763e+00 -2.560999999999991505e+00 1.311000000000008381e+00 8.810000000000060005e-01 -9.989999999999965574e-01 -1.971999999999994646e+00 7.830000000000070237e-01 -4.629999999999934168e-01 -4.289999999999997371e+00 -8.179999999999965077e-01 7.720000000000082352e-01 -4.999999999992787991e-03 -9.059999999999901465e-01 1.474000000000007748e+00 -7.449999999999935563e-01 9.800000000000061995e-01 4.231000000000011418e+00 -1.531999999999995365e+00 -8.869999999999963469e-01 -2.666999999999996263e+00 3.010000000000063736e-01 1.515000000000006786e+00 2.131000000000007777e+00 4.810000000000073106e-01 1.560000000000008935e+00 1.358000000000006313e+00 2.556000000000007599e+00 -1.372999999999996668e+00 -1.403999999999997694e+00 -5.079999999999953442e-01 -1.242999999999993221e+00 -7.539999999999952296e-01 5.130000000000047855e-01 1.437000000000004718e+00 3.949000000000012278e+00 -2.323999999999995847e+00 -2.749999999999930278e-01 -1.783999999999994923e+00 4.050000000000054667e-01 2.608000000000006757e+00 -9.619999999999955254e-01 1.829000000000010395e+00 -1.829999999999996296e+00 -2.069999999999997620e+00 -7.199999999999961986e-01 1.148000000000008125e+00 4.391000000000010672e+00 -2.841999999999996085e+00 2.620000000000012097e+00 -2.726999999999998092e+00 2.519000000000009010e+00 -1.075999999999998291e+00 -8.699999999999641354e-02 6.120000000000065388e-01 -1.349999999999975664e-01 3.030000000000074856e-01 -2.759999999999913634e-01 7.700000000000044587e-01 8.650000000000024336e-01 4.320000000000063789e-01 3.803000000000009706e+00 1.512000000000008226e+00 -1.428999999999998494e+00 5.700000000000637890e-02 1.661000000000007581e+00 -1.553999999999996939e+00 -2.582999999999996188e+00 3.760000000000066622e-01 -1.047999999999995602e+00 5.200000000000031264e-01 -1.587999999999997858e+00 -8.159999999999961728e-01 4.570000000000076223e-01 2.920000000000072538e-01 2.500000000000623945e-02 -1.157999999999996588e+00 9.240000000000074820e-01 1.209000000000003627e+00 -2.097999999999992760e+00 2.772000000000011344e+00 -3.089999999999940572e-01 -1.859999999999933928e-01 1.146000000000008789e+00 9.000000000004448886e-03 1.184000000000005715e+00 2.045000000000005258e+00 -3.459999999999996412e+00 7.150000000000041878e-01 7.810000000000053566e-01 3.900000000000536371e-02 -1.129999999999995008e+00 -1.627999999999993230e+00 -1.863999999999994550e+00 -1.258999999999994124e+00 2.817000000000005944e+00 -2.006999999999994344e+00 4.360000000000058273e-01 -8.709999999999972209e-01 8.850000000000042277e-01 -7.539999999999963398e-01 -1.536999999999995259e+00 2.300000000000557154e-02 -1.786999999999997035e+00 1.832000000000006068e+00 -1.703999999999997739e+00 -7.669999999999961293e-01 6.980000000000050608e-01 3.860000000000057829e-01 -9.369999999999945040e-01 1.368000000000008320e+00 2.600000000000064482e-01 9.680000000000026361e-01 2.830000000000071347e-01 -5.769999999999987361e-01 2.497000000000009656e+00 6.670000000000051443e-01 2.800000000000048006e-01 7.160000000000072973e-01 -4.299999999999737366e-02 -1.762999999999996348e+00 9.650000000000036326e-01 -8.609999999999945475e-01 -2.039999999999930758e-01 -1.570999999999995289e+00 -1.718999999999996975e+00 6.270000000000061080e-01 -6.329999999999962323e-01 -1.639999999999898206e-01 1.242000000000004878e+00 2.730000000000029070e-01 -3.369999999999967466e-01 -3.199999999999892930e-01 -1.771999999999997133e+00 -4.869999999999923279e-01 -1.102999999999996428e+00 -2.228999999999997428e+00 -3.838999999999993751e+00 -6.309999999999922338e-01 2.066000000000010051e+00 2.950000000000035927e-01 -1.202999999999997627e+00 -4.199999999999193268e-02 5.800000000000360423e-02 6.280000000000077742e-01 7.930000000000042570e-01 5.970000000000049711e-01 1.644000000000008566e+00 -1.478999999999996762e+00 4.920000000000048779e-01 -1.221999999999993980e+00 -1.217999999999993754e+00 -2.500999999999997669e+00 7.220000000000034168e-01 1.220000000000045492e-01 4.000000000000059064e-01 -5.949999999999969758e-01 -2.659999999999966835e-01 5.110000000000056719e-01 -1.399999999999991918e+00 -2.995999999999991559e+00 -6.769999999999951612e-01 7.900000000001594636e-02
-2.931999999999996387e+00 -1.093999999999993644e+00 -2.250999999999995449e+00 -1.806999999999998163e+00 -5.349999999999908162e-01 -3.029999999999994476e+00 3.090000000000063807e-01 1.267000000000007454e+00 -1.919999999999966178e-01 1.587000000000008626e+00 -2.621999999999995445e+00 -2.789999999999965841e-01 1.980000000000006422e+00 -2.399999999999947731e-01 -1.649999999999996358e+00 -7.669999999999972395e-01 6.990000000000085034e-01 -9.029999999999964722e-01 -9.799999999999963185e-01 7.500000000000539568e-02 3.120000000000020535e-01 -4.979999999999914495e-01 -1.660999999999998256e+00 -7.509999999999980025e-01 6.130000000000090932e-01 8.140000000000071623e-01 -3.759999999999950049e-01 -1.707999999999998852e+00 -4.519999999999977369e-01 3.019000000000009898e+00 3.093000000000008409e+00 1.387000000000006672e+00 -6.139999999999961044e-01 -2.673999999999997712e+00 -7.269999999999988693e-01 6.830000000000051585e-01 4.860000000000022080e-01 -2.621999999999995445e+00 3.640000000000037650e-01 1.217000000000005411e+00 -7.999999999999926059e-01 1.512000000000006228e+00 -8.799999999999956746e-01 -8.079999999999971649e-01 -1.001999999999998225e+00 2.088000000000008960e+00 6.800000000000472333e-02 -1.612999999999997325e+00 1.525000000000006795e+00 -4.499999999999571010e-02 3.079000000000013060e+00 -2.462999999999993861e+00 1.440000000000054570e-01 -1.999999999999941824e-01 9.150000000000072520e-01 9.770000000000051976e-01 -2.534999999999997478e+00 4.410000000000047216e-01 -7.619999999999946816e-01 1.718000000000011962e+00 -1.049999999999996492e+00 -1.453999999999996628e+00 6.270000000000088836e-01 -1.108999999999993769e+00 9.850000000000055378e-01 -2.139999999999949720e-01 9.530000000000052873e-01 4.800000000000032019e-01 -6.119999999999942153e-01 -2.371999999999998554e+00 2.410000000000054321e-01 -1.491999999999992443e+00 7.060000000000061782e-01 7.490000000000077707e-01 2.130000000000047411e-01 7.330000000000086446e-01 2.640000000000068958e-01 1.280000000000069971e-01 5.610000000000049392e-01 -1.039999999999992930e+00 4.200000000000063682e-01 1.984000000000010200e+00 -2.643999999999990802e+00 1.311000000000008381e+00 8.810000000000060005e-01 -9.989999999999965574e-01 -1.259999999999993125e+00 6.780000000000077076e-01 3.260000000000055076e-01 -3.268999999999999240e+00 -8.179999999999965077e-01 1.358000000000007867e+00 -3.209999999999939568e-01 -1.175999999999989498e+00 1.474000000000007748e+00 -7.449999999999935563e-01 9.800000000000061995e-01 4.231000000000011418e+00 -1.045999999999994934e+00 -2.459999999999957776e-01 -2.666999999999996263e+00 -5.299999999999649436e-02 2.252000000000008217e+00 1.023000000000005905e+00 1.097000000000007969e+00 2.383000000000008889e+00 1.358000000000006313e+00 1.576000000000007617e+00 -7.769999999999971374e-01 -1.403999999999997694e+00 -1.273999999999996913e+00 -2.061999999999993616e+00 -7.539999999999952296e-01 5.130000000000047855e-01 1.577000000000005064e+00 2.444000000000008832e+00 -8.089999999999962776e-01 -5.169999999999941309e-01 -1.436999999999995392e+00 5.760000000000047304e-01 2.608000000000006757e+00 -9.619999999999955254e-01 1.875000000000009770e+00 -2.187999999999997502e+00 -2.069999999999997620e+00 -7.199999999999961986e-01 1.148000000000008125e+00 4.194000000000011497e+00 -2.716999999999995197e+00 2.867000000000010651e+00 -2.726999999999998092e+00 2.519000000000009010e+00 -1.075999999999998291e+00 4.990000000000032188e-01 3.200000000000045031e-01 -1.349999999999975664e-01 3.030000000000074856e-01 -1.604999999999994431e+00 7.700000000000044587e-01 -2.129999999999958593e-01 1.472000000000005526e+00 3.618000000000007432e+00 1.512000000000008226e+00 -1.428999999999998494e+00 5.700000000000637890e-02 1.540000000000007363e+00 -1.553999999999996939e+00 -2.582999999999996188e+00 8.120000000000070495e-01 -2.589999999999957891e-01 5.200000000000031264e-01 -9.649999999999981926e-01 -8.159999999999961728e-01 4.570000000000076223e-01 2.920000000000072538e-01 2.500000000000623945e-02 -2.029999999999967386e-01 3.780000000000078852e-01 1.209000000000003627e+00 -1.229999999999992877e+00 2.772000000000011344e+00 -3.089999999999940572e-01 -6.419999999999946860e-01 1.146000000000008789e+00 9.000000000004448886e-03 -1.919999999999963958e-01 2.045000000000005258e+00 -3.700999999999995627e+00 7.150000000000041878e-01 7.810000000000053566e-01 2.240000000000074154e-01 -1.129999999999995008e+00 -9.699999999999464606e-02 -1.278999999999995030e+00 -1.788999999999997259e+00 2.817000000000005944e+00 -1.725999999999995094e+00 6.660000000000023679e-01 2.790000000000038005e-01 8.850000000000042277e-01 -7.539999999999963398e-01 -4.259999999999970477e-01 1.150000000000028777e-01 -2.307999999999998497e+00 1.832000000000006068e+00 -1.710999999999996746e+00 -7.669999999999961293e-01 6.980000000000050608e-01 1.104000000000004533e+00 -9.369999999999945040e-01 1.425000000000007372e+00 -9.589999999999955227e-01 9.680000000000026361e-01 1.683000000000008489e+00 -1.300999999999998380e+00 1.194000000000006390e+00 7.700000000000043476e-01 1.890000000000037206e-01 7.160000000000072973e-01 -4.299999999999737366e-02 -2.903999999999998138e+00 9.650000000000036326e-01 -1.889999999999948388e-01 5.900000000000067413e-01 -1.282999999999996810e+00 -1.718999999999996975e+00 8.680000000000054339e-01 -5.839999999999954117e-01 6.200000000000849276e-02 1.242000000000004878e+00 2.730000000000029070e-01 2.000000000000357048e-02 -7.939999999999906022e-01 -1.051999999999995605e+00 -9.149999999999944844e-01 -1.102999999999996428e+00 -1.555999999999996053e+00 -3.947999999999993737e+00 -2.849999999999939249e-01 2.066000000000010051e+00 -1.216999999999996085e+00 5.230000000000050164e-01 7.970000000000098117e-01 5.800000000000360423e-02 1.158000000000009244e+00 -2.009999999999957376e-01 3.520000000000047535e-01 1.644000000000008566e+00 -1.640999999999997794e+00 -4.779999999999968718e-01 -6.389999999999935731e-01 -7.609999999999961240e-01 -1.746999999999996112e+00 1.589000000000005297e+00 1.220000000000045492e-01 3.090000000000048264e-01 -5.949999999999969758e-01 3.880000000000047855e-01 5.110000000000056719e-01 -1.399999999999991918e+00 -2.841999999999992532e+00 -6.769999999999951612e-01 4.040000000000153468e-01
-2.931999999999996387e+00 -8.729999999999926708e-01 -1.893999999999994355e+00 -1.888999999999997348e+00 -9.269999999999902762e-01 -2.580999999999991967e+00 4.770000000000065299e-01 1.267000000000007454e+00 -2.449999999999894484e-01 1.695000000000009610e+00 -2.896999999999996689e+00 -2.789999999999965841e-01 1.980000000000006422e+00 -3.909999999999959064e-01 -2.199999999999950884e-01 -6.139999999999954383e-01 4.030000000000091287e-01 -7.299999999999955413e-01 -1.733999999999995989e+00 1.700000000000445599e-02 3.120000000000020535e-01 -2.759999999999921405e-01 -1.729999999999999094e+00 -7.509999999999980025e-01 6.130000000000090932e-01 8.140000000000071623e-01 -3.759999999999950049e-01 -1.938999999999998280e+00 -1.087999999999997414e+00 3.019000000000009898e+00 3.093000000000008409e+00 1.387000000000006672e+00 -1.205999999999997518e+00 -2.614999999999996660e+00 -7.269999999999988693e-01 6.830000000000051585e-01 4.860000000000022080e-01 -2.621999999999995445e+00 2.530000000000046656e-01 1.217000000000005411e+00 4.130000000000058069e-01 9.370000000000066054e-01 -1.591999999999995419e+00 -8.079999999999971649e-01 -1.001999999999998225e+00 2.088000000000008960e+00 -4.909999999999967724e-01 -2.949999999999969313e-01 1.525000000000006795e+00 -4.499999999999571010e-02 3.294000000000012029e+00 -2.462999999999993861e+00 1.440000000000054570e-01 -1.999999999999941824e-01 9.150000000000072520e-01 9.770000000000051976e-01 -2.534999999999997478e+00 4.410000000000047216e-01 8.700000000000795985e-02 2.023000000000013898e+00 -5.749999999999952927e-01 -2.402999999999996028e+00 2.659000000000008690e+00 -1.816999999999995286e+00 1.302000000000006708e+00 9.500000000000541345e-02 9.530000000000052873e-01 1.383000000000004892e+00 -6.119999999999942153e-01 -2.371999999999998554e+00 2.410000000000054321e-01 -1.491999999999992443e+00 1.816000000000007164e+00 7.490000000000077707e-01 9.960000000000064357e-01 9.280000000000098170e-01 -5.869999999999948592e-01 1.280000000000069971e-01 -2.629999999999957927e-01 -1.039999999999992930e+00 1.100000000000522782e-02 1.984000000000010200e+00 -3.398999999999992028e+00 1.311000000000008381e+00 1.669000000000007589e+00 -9.989999999999965574e-01 -2.728999999999994319e+00 3.210000000000066134e-01 -3.909999999999942411e-01 -3.947999999999999066e+00 -1.817999999999996508e+00 7.720000000000082352e-01 -4.999999999992787991e-03 -2.379999999999886651e-01 1.474000000000007748e+00 -7.449999999999935563e-01 9.800000000000061995e-01 4.231000000000011418e+00 -1.531999999999995365e+00 -3.799999999999967848e-01 -2.666999999999996263e+00 3.010000000000063736e-01 1.515000000000006786e+00 2.530000000000008242e+00 4.810000000000073106e-01 2.383000000000008889e+00 4.830000000000064242e-01 1.644000000000007677e+00 -7.519999999999924523e-01 -9.699999999999974198e-01 -1.273999999999996913e+00 -1.242999999999993221e+00 -8.529999999999944293e-01 5.130000000000047855e-01 8.020000000000033769e-01 3.949000000000012278e+00 -1.164999999999994706e+00 -5.169999999999941309e-01 -1.190999999999994285e+00 5.760000000000047304e-01 2.608000000000006757e+00 -9.619999999999955254e-01 1.200000000000008171e+00 -2.306999999999996831e+00 -2.069999999999997620e+00 -7.199999999999961986e-01 8.460000000000087450e-01 4.391000000000010672e+00 -2.841999999999996085e+00 2.867000000000010651e+00 -2.726999999999998092e+00 2.519000000000009010e+00 -1.493999999999997774e+00 4.990000000000032188e-01 3.200000000000045031e-01 -1.349999999999975664e-01 3.030000000000074856e-01 -1.037999999999992928e+00 7.460000000000053255e-01 -2.129999999999958593e-01 1.239000000000004542e+00 2.705000000000007176e+00 1.512000000000008226e+00 -1.428999999999998494e+00 5.700000000000637890e-02 8.900000000000058975e-01 -1.553999999999996939e+00 -2.582999999999996188e+00 5.900000000000056311e-01 -2.589999999999957891e-01 5.200000000000031264e-01 -1.505999999999997785e+00 -8.159999999999961728e-01 1.191000000000010939e+00 2.920000000000072538e-01 2.500000000000623945e-02 -1.181999999999997497e+00 -1.809999999999908349e-01 1.905000000000005134e+00 -1.229999999999992877e+00 2.772000000000011344e+00 2.660000000000074527e-01 2.670000000000061213e-01 1.146000000000008789e+00 9.000000000004448886e-03 4.360000000000041620e-01 2.407000000000006246e+00 -3.459999999999996412e+00 1.189000000000005386e+00 1.124000000000006771e+00 8.660000000000070974e-01 -1.129999999999995008e+00 -6.119999999999942153e-01 -2.100999999999994650e+00 -1.258999999999994124e+00 2.582000000000006512e+00 -9.699999999999935341e-01 6.660000000000023679e-01 -3.189999999999976188e-01 8.850000000000042277e-01 -7.539999999999963398e-01 -4.259999999999970477e-01 1.150000000000028777e-01 -1.786999999999997035e+00 1.832000000000006068e+00 -1.481999999999998430e+00 -1.068999999999995509e+00 6.980000000000050608e-01 3.860000000000057829e-01 -1.459999999999994191e+00 1.425000000000007372e+00 2.600000000000064482e-01 9.680000000000026361e-01 -3.409999999999934195e-01 -5.769999999999987361e-01 1.194000000000006390e+00 7.700000000000043476e-01 1.890000000000037206e-01 7.160000000000072973e-01 -4.299999999999737366e-02 -2.102999999999996650e+00 1.417000000000004922e+00 -8.609999999999945475e-01 -4.209999999999942677e-01 -1.570999999999995289e+00 -2.498999999999995669e+00 8.680000000000054339e-01 -6.329999999999962323e-01 6.200000000000849276e-02 1.242000000000004878e+00 2.730000000000029070e-01 2.000000000000357048e-02 -7.939999999999906022e-01 -1.051999999999995605e+00 -9.149999999999944844e-01 -6.779999999999969384e-01 -2.228999999999997428e+00 -4.119999999999994778e+00 3.000000000006441958e-03 2.066000000000010051e+00 2.950000000000035927e-01 -1.598999999999997090e+00 1.364000000000011426e+00 -6.869999999999961693e-01 1.622000000000009656e+00 -2.009999999999957376e-01 5.970000000000049711e-01 1.644000000000008566e+00 -2.128999999999997339e+00 4.920000000000048779e-01 -1.221999999999993980e+00 -9.519999999999945173e-01 -1.746999999999996112e+00 1.107000000000005535e+00 4.630000000000066285e-01 3.090000000000048264e-01 -5.949999999999969758e-01 3.880000000000047855e-01 9.770000000000069740e-01 -1.399999999999991918e+00 -2.457999999999993079e+00 -6.769999999999951612e-01 1.181000000000016925e+00
-2.931999999999996387e+00 -1.093999999999993644e+00 -2.309999999999996501e+00 -1.806999999999998163e+00 -5.349999999999908162e-01 -2.580999999999991967e+00 4.770000000000065299e-01 1.267000000000007454e+00 -2.449999999999894484e-01 1.695000000000009610e+00 -2.621999999999995445e+00 2.320000000000048690e-01 1.980000000000006422e+00 -3.909999999999959064e-01 -2.199999999999950884e-01 -5.359999999999979226e-01 6.990000000000085034e-01 -7.299999999999955413e-01 -9.799999999999963185e-01 1.700000000000445599e-02 3.120000000000020535e-01 -2.759999999999921405e-01 -1.862999999999998213e+00 -7.509999999999980025e-01 6.130000000000090932e-01 8.140000000000071623e-01 -1.033999999999994701e+00 -1.938999999999998280e+00 -4.519999999999977369e-01 3.019000000000009898e+00 3.093000000000008409e+00 1.387000000000006672e+00 -1.205999999999997518e+00 -2.279999999999998472e+00 -7.269999999999988693e-01 6.830000000000051585e-01 -3.359999999999976339e-01 -2.621999999999995445e+00 2.180000000000027471e-01 1.651000000000006684e+00 4.130000000000058069e-01 1.512000000000006228e+00 -6.359999999999945697e-01 -8.079999999999971649e-01 -1.001999999999998225e+00 2.088000000000008960e+00 -4.909999999999967724e-01 -6.999999999999980682e-01 1.525000000000006795e+00 -4.499999999999571010e-02 3.294000000000012029e+00 -8.069999999999917240e-01 1.920000000000063878e-01 4.140000000000072511e-01 9.150000000000072520e-01 9.770000000000051976e-01 -2.691999999999996618e+00 4.410000000000047216e-01 8.700000000000795985e-02 2.205000000000015170e+00 -5.749999999999952927e-01 -1.453999999999996628e+00 2.659000000000008690e+00 -2.602999999999995318e+00 9.850000000000055378e-01 4.000000000004333423e-03 9.530000000000052873e-01 1.239000000000004764e+00 -6.119999999999942153e-01 -2.371999999999998554e+00 2.410000000000054321e-01 -1.491999999999992443e+00 4.740000000000068603e-01 7.490000000000077707e-01 -7.919999999999954854e-01 1.000000000000007994e+00 -1.253999999999994674e+00 1.280000000000069971e-01 -2.629999999999957927e-01 -1.039999999999992930e+00 1.365000000000007985e+00 1.984000000000010200e+00 -1.947999999999989296e+00 1.311000000000008381e+00 1.669000000000007589e+00 -9.989999999999965574e-01 -2.728999999999994319e+00 1.271000000000008345e+00 1.698000000000006615e+00 -3.947999999999999066e+00 -8.179999999999965077e-01 7.720000000000082352e-01 -5.789999999999932978e-01 -2.379999999999886651e-01 1.474000000000007748e+00 -7.449999999999935563e-01 9.800000000000061995e-01 4.231000000000011418e+00 -1.693999999999996398e+00 -3.799999999999967848e-01 -2.673999999999995492e+00 -3.459999999999942011e-01 1.515000000000006786e+00 1.626000000000006551e+00 8.630000000000067617e-01 2.383000000000008889e+00 4.830000000000064242e-01 2.556000000000007599e+00 -7.519999999999924523e-01 -1.403999999999997694e+00 -1.273999999999996913e+00 -1.242999999999993221e+00 -7.539999999999952296e-01 5.130000000000047855e-01 8.020000000000033769e-01 3.949000000000012278e+00 -1.760999999999996124e+00 -5.169999999999941309e-01 -1.436999999999995392e+00 5.760000000000047304e-01 2.256000000000006445e+00 -9.619999999999955254e-01 9.220000000000104778e-01 -2.257999999999996454e+00 -2.069999999999997620e+00 -7.199999999999961986e-01 1.148000000000008125e+00 4.391000000000010672e+00 -3.919999999999995044e+00 2.867000000000010651e+00 -2.726999999999998092e+00 2.519000000000009010e+00 -1.075999999999998291e+00 4.990000000000032188e-01 3.200000000000045031e-01 -1.349999999999975664e-01 3.030000000000074856e-01 -1.037999999999992928e+00 7.670000000000034568e-01 5.480000000000030402e-01 1.793000000000005922e+00 2.705000000000007176e+00 7.880000000000084714e-01 -1.428999999999998494e+00 5.700000000000637890e-02 1.661000000000007581e+00 -1.553999999999996939e+00 -2.582999999999996188e+00 1.574000000000007393e+00 -1.047999999999995602e+00 5.200000000000031264e-01 -1.505999999999997785e+00 -8.159999999999961728e-01 1.448000000000010390e+00 2.920000000000072538e-01 2.500000000000623945e-02 -1.181999999999997497e+00 1.072000000000010500e+00 1.209000000000003627e+00 -1.229999999999992877e+00 2.772000000000011344e+00 -3.089999999999940572e-01 -1.859999999999933928e-01 1.038000000000009582e+00 9.000000000004448886e-03 7.570000000000052243e-01 2.407000000000006246e+00 -3.459999999999996412e+00 1.990000000000046176e-01 7.810000000000053566e-01 3.900000000000536371e-02 -1.129999999999995008e+00 -9.699999999999464606e-02 -2.100999999999994650e+00 -1.258999999999994124e+00 2.817000000000005944e+00 -1.725999999999995094e+00 6.660000000000023679e-01 -3.189999999999976188e-01 8.850000000000042277e-01 -4.799999999999952083e-01 8.880000000000056737e-01 1.150000000000028777e-01 -1.841999999999996529e+00 1.832000000000006068e+00 -1.666999999999997595e+00 -6.139999999999952163e-01 6.980000000000050608e-01 3.860000000000057829e-01 -2.139999999999928626e-01 1.425000000000007372e+00 2.600000000000064482e-01 9.680000000000026361e-01 -3.409999999999934195e-01 -9.909999999999972164e-01 9.050000000000070211e-01 7.700000000000043476e-01 1.890000000000037206e-01 7.160000000000072973e-01 -6.949999999999970646e-01 -3.053999999999997605e+00 1.417000000000004922e+00 4.480000000000065041e-01 -4.209999999999942677e-01 -1.282999999999996810e+00 -2.081999999999996298e+00 7.540000000000072200e-01 -6.329999999999962323e-01 6.200000000000849276e-02 1.242000000000004878e+00 2.730000000000029070e-01 2.000000000000357048e-02 -7.939999999999906022e-01 -1.051999999999995605e+00 -9.149999999999944844e-01 -1.102999999999996428e+00 -2.228999999999997428e+00 -4.119999999999994778e+00 3.000000000006441958e-03 2.066000000000010051e+00 2.950000000000035927e-01 5.230000000000050164e-01 1.364000000000011426e+00 2.610000000000047837e-01 6.280000000000077742e-01 -2.009999999999957376e-01 5.970000000000049711e-01 1.644000000000008566e+00 -1.640999999999997794e+00 4.920000000000048779e-01 -6.389999999999935731e-01 -9.519999999999945173e-01 -1.746999999999996112e+00 5.890000000000041869e-01 4.630000000000066285e-01 1.320000000000007612e+00 -5.949999999999969758e-01 3.880000000000047855e-01 5.110000000000056719e-01 -1.325999999999990964e+00 -2.841999999999992532e+00 -6.719999999999943796e-01 4.040000000000153468e-01
-2.931999999999996387e+00 -1.093999999999993644e+00 -2.309999999999996501e+00 -1.806999999999998163e+00 -5.349999999999908162e-01 -2.899999999999993250e+00 4.770000000000065299e-01 1.810000000000008935e+00 -1.071999999999991182e+00 1.695000000000009610e+00 -2.621999999999995445e+00 -3.239999999999949587e-01 1.980000000000006422e+00 -3.909999999999959064e-01 -1.039999999999996705e+00 -5.359999999999979226e-01 6.990000000000085034e-01 -1.379999999999996785e+00 -9.799999999999963185e-01 1.700000000000445599e-02 3.120000000000020535e-01 -1.242999999999992111e+00 -1.729999999999999094e+00 -1.999999999999824141e-02 6.130000000000090932e-01 -2.499999999999269473e-02 -7.749999999999934719e-01 -1.938999999999998280e+00 -1.087999999999997414e+00 2.231000000000010086e+00 3.093000000000008409e+00 1.269000000000007455e+00 -1.205999999999997518e+00 -2.279999999999998472e+00 -7.269999999999988693e-01 6.830000000000051585e-01 3.490000000000029745e-01 -2.621999999999995445e+00 2.180000000000027471e-01 1.614000000000006541e+00 4.130000000000058069e-01 1.124000000000007660e+00 -8.799999999999956746e-01 -1.005999999999996453e+00 -1.351999999999996760e+00 1.436000000000009269e+00 -4.909999999999967724e-01 -2.949999999999969313e-01 1.525000000000006795e+00 5.010000000000056630e-01 3.797000000000013475e+00 -8.069999999999917240e-01 1.920000000000063878e-01 -1.999999999999941824e-01 9.150000000000072520e-01 9.770000000000051976e-01 -2.534999999999997478e+00 1.381000000000006445e+00 8.700000000000795985e-02 2.205000000000015170e+00 -9.779999999999947624e-01 -1.453999999999996628e+00 2.659000000000008690e+00 -1.816999999999995286e+00 9.650000000000064082e-01 4.000000000004333423e-03 9.530000000000052873e-01 2.019000000000006345e+00 -6.119999999999942153e-01 -3.260999999999998789e+00 -8.679999999999955529e-01 -1.229999999999991322e+00 4.740000000000068603e-01 7.490000000000077707e-01 -7.919999999999954854e-01 1.000000000000007994e+00 -9.479999999999942917e-01 1.280000000000069971e-01 -2.629999999999957927e-01 4.150000000000063638e-01 -7.479999999999945581e-01 2.874000000000012101e+00 -2.784999999999990816e+00 1.311000000000008381e+00 9.150000000000069189e-01 -9.989999999999965574e-01 -1.971999999999994646e+00 3.210000000000066134e-01 3.260000000000055076e-01 -4.265999999999998238e+00 -8.179999999999965077e-01 7.720000000000082352e-01 -5.789999999999932978e-01 -6.779999999999881677e-01 1.474000000000007748e+00 -7.449999999999935563e-01 9.800000000000061995e-01 4.236000000000012200e+00 -1.693999999999996398e+00 -8.869999999999963469e-01 -2.673999999999995492e+00 -3.449999999999934230e-01 1.515000000000006786e+00 7.830000000000049143e-01 8.630000000000067617e-01 1.264000000000010449e+00 1.358000000000006313e+00 2.556000000000007599e+00 -7.519999999999924523e-01 -9.879999999999965477e-01 -6.019999999999954277e-01 -6.999999999999935163e-01 -7.539999999999952296e-01 5.130000000000047855e-01 8.020000000000033769e-01 3.949000000000012278e+00 -1.760999999999996124e+00 -1.779999999999928306e-01 -1.085999999999993415e+00 5.760000000000047304e-01 2.608000000000006757e+00 -9.619999999999955254e-01 1.200000000000008171e+00 -1.476999999999994984e+00 -2.069999999999997620e+00 -7.199999999999961986e-01 1.377000000000009106e+00 4.391000000000010672e+00 -2.841999999999996085e+00 2.992000000000011539e+00 -2.726999999999998092e+00 2.519000000000009010e+00 -1.075999999999998291e+00 -8.699999999999641354e-02 3.200000000000045031e-01 -4.769999999999969820e-01 4.600000000000992184e-02 -3.479999999999932037e-01 7.670000000000034568e-01 5.480000000000030402e-01 1.793000000000005922e+00 2.705000000000007176e+00 1.512000000000008226e+00 -1.428999999999998494e+00 5.700000000000637890e-02 -5.399999999999405276e-02 -1.553999999999996939e+00 -2.582999999999996188e+00 1.574000000000007393e+00 -1.047999999999995602e+00 -1.308999999999995723e+00 -1.505999999999997785e+00 -8.159999999999961728e-01 1.448000000000010390e+00 8.030000000000087068e-01 2.500000000000623945e-02 -1.819999999999996287e+00 9.240000000000074820e-01 1.209000000000003627e+00 -2.097999999999992760e+00 2.772000000000011344e+00 -3.089999999999940572e-01 2.670000000000061213e-01 1.038000000000009582e+00 -6.729999999999952687e-01 7.570000000000052243e-01 2.045000000000005258e+00 -3.459999999999996412e+00 1.990000000000046176e-01 7.810000000000053566e-01 8.710000000000069909e-01 -3.219999999999940687e-01 -9.699999999999464606e-02 -1.863999999999994550e+00 -8.219999999999945128e-01 2.752000000000006885e+00 -1.725999999999995094e+00 6.660000000000023679e-01 -3.299999999999825295e-02 2.700000000000045697e-01 -7.539999999999963398e-01 -4.259999999999970477e-01 1.150000000000028777e-01 -2.307999999999998497e+00 1.832000000000006068e+00 -1.666999999999997595e+00 -6.139999999999952163e-01 6.980000000000050608e-01 3.860000000000057829e-01 -2.139999999999928626e-01 1.425000000000007372e+00 2.600000000000064482e-01 6.170000000000032125e-01 -3.409999999999934195e-01 -1.449999999999997513e+00 9.050000000000070211e-01 6.670000000000051443e-01 1.890000000000037206e-01 7.160000000000072973e-01 -4.299999999999737366e-02 -2.568999999999996398e+00 1.663000000000005141e+00 4.480000000000065041e-01 -2.199999999999933120e-01 -1.282999999999996810e+00 -1.718999999999996975e+00 7.540000000000072200e-01 -6.329999999999962323e-01 4.170000000000098073e-01 1.242000000000004878e+00 2.730000000000029070e-01 2.000000000000357048e-02 -7.939999999999906022e-01 -9.829999999999956550e-01 -5.019999999999933404e-01 -4.889999999999968816e-01 -2.228999999999997428e+00 -4.119999999999994778e+00 3.000000000006441958e-03 2.066000000000010051e+00 2.950000000000035927e-01 5.230000000000050164e-01 -4.199999999999193268e-02 -6.869999999999961693e-01 6.280000000000077742e-01 -2.009999999999957376e-01 5.970000000000049711e-01 1.107000000000009088e+00 -1.478999999999996762e+00 4.920000000000048779e-01 -6.389999999999935731e-01 -1.308999999999993946e+00 -1.692999999999996064e+00 5.890000000000041869e-01 4.630000000000066285e-01 1.320000000000007612e+00 -5.949999999999969758e-01 3.880000000000047855e-01 5.110000000000056719e-01 -1.399999999999991918e+00 -1.986999999999991662e+00 -6.719999999999943796e-01 4.040000000000153468e-01
-3.653999999999996362e+00 -2.099999999999280220e-02 -2.250999999999995449e+00 -2.285999999999997812e+00 -5.349999999999908162e-01 -3.029999999999994476e+00 4.770000000000065299e-01 1.855000000000008864e+00 -4.889999999999896652e-01 1.587000000000008626e+00 -2.621999999999995445e+00 1.090000000000046487e-01 1.980000000000006422e+00 -3.909999999999959064e-01 -1.649999999999996358e+00 -5.359999999999979226e-01 4.030000000000091287e-01 -1.454999999999996074e+00 -9.799999999999963185e-01 1.700000000000445599e-02 -6.159999999999978826e-01 -2.759999999999921405e-01 -1.660999999999998256e+00 -4.189999999999968194e-01 9.880000000000104254e-01 7.980000000000080362e-01 -3.759999999999950049e-01 -2.104999999999998206e+00 -9.989999999999964464e-01 3.019000000000009898e+00 3.093000000000008409e+00 1.387000000000006672e+00 -1.205999999999997518e+00 -2.614999999999996660e+00 -7.269999999999988693e-01 6.830000000000051585e-01 4.860000000000022080e-01 -2.621999999999995445e+00 2.530000000000046656e-01 1.492000000000006654e+00 4.130000000000058069e-01 1.512000000000006228e+00 -8.799999999999956746e-01 -1.666999999999997151e+00 -1.001999999999998225e+00 6.060000000000078657e-01 6.800000000000472333e-02 -2.949999999999969313e-01 1.525000000000006795e+00 -4.499999999999571010e-02 3.079000000000013060e+00 -2.462999999999993861e+00 8.570000000000077556e-01 -1.999999999999941824e-01 9.150000000000072520e-01 9.080000000000060245e-01 -2.534999999999997478e+00 -2.599999999999932365e-01 -7.619999999999946816e-01 2.212000000000013067e+00 -1.142999999999996685e+00 -1.453999999999996628e+00 6.270000000000088836e-01 -1.816999999999995286e+00 4.740000000000040847e-01 2.300000000000054223e-01 4.360000000000057163e-01 4.800000000000032019e-01 1.330000000000072236e-01 -2.371999999999998554e+00 -6.089999999999962110e-01 -1.956999999999993856e+00 1.243000000000007432e+00 7.490000000000077707e-01 2.130000000000047411e-01 7.330000000000086446e-01 2.640000000000068958e-01 1.740000000000079261e-01 2.610000000000055609e-01 -7.019999999999917417e-01 1.100000000000522782e-02 1.984000000000010200e+00 -3.398999999999992028e+00 1.311000000000008381e+00 8.810000000000060005e-01 -9.989999999999965574e-01 -1.971999999999994646e+00 1.097000000000006414e+00 3.260000000000055076e-01 -3.403999999999997694e+00 -8.179999999999965077e-01 1.157000000000008466e+00 3.030000000000074856e-01 -1.175999999999989498e+00 8.280000000000080629e-01 -7.449999999999935563e-01 9.800000000000061995e-01 4.580000000000012506e+00 -1.531999999999995365e+00 -2.459999999999957776e-01 -2.666999999999996263e+00 -5.299999999999649436e-02 1.743000000000007876e+00 1.023000000000005905e+00 4.810000000000073106e-01 2.383000000000008889e+00 1.358000000000006313e+00 2.308000000000008267e+00 -7.769999999999971374e-01 -1.403999999999997694e+00 -1.448999999999995403e+00 -1.242999999999993221e+00 -7.539999999999952296e-01 5.130000000000047855e-01 1.687000000000004274e+00 3.218000000000011962e+00 -2.323999999999995847e+00 -2.749999999999930278e-01 -1.436999999999995392e+00 5.760000000000047304e-01 2.608000000000006757e+00 -1.091999999999996529e+00 1.829000000000010395e+00 -2.187999999999997502e+00 -2.069999999999997620e+00 -7.199999999999961986e-01 1.148000000000008125e+00 4.194000000000011497e+00 -2.841999999999996085e+00 3.946000000000013053e+00 -1.380999999999995342e+00 2.866000000000009429e+00 -1.075999999999998291e+00 -8.699999999999641354e-02 -9.389999999999948388e-01 -1.349999999999975664e-01 -1.589999999999902602e-01 -8.209999999999919584e-01 7.700000000000044587e-01 5.480000000000030402e-01 1.793000000000005922e+00 4.692000000000010829e+00 1.512000000000008226e+00 -1.428999999999998494e+00 5.700000000000637890e-02 1.661000000000007581e+00 -1.553999999999996939e+00 -2.535999999999995147e+00 8.120000000000070495e-01 -2.589999999999957891e-01 5.200000000000031264e-01 -1.647999999999997911e+00 -8.159999999999961728e-01 5.000000000000086597e-01 2.920000000000072538e-01 2.500000000000623945e-02 -1.157999999999996588e+00 3.780000000000078852e-01 1.209000000000003627e+00 -2.097999999999992760e+00 2.732000000000012196e+00 -3.089999999999940572e-01 1.910000000000069420e-01 1.146000000000008789e+00 6.910000000000059428e-01 -4.179999999999974847e-01 2.615000000000006430e+00 -3.459999999999996412e+00 7.150000000000041878e-01 7.810000000000053566e-01 8.060000000000070441e-01 -1.129999999999995008e+00 -6.119999999999942153e-01 -2.100999999999994650e+00 -1.258999999999994124e+00 2.817000000000005944e+00 -1.725999999999995094e+00 4.360000000000058273e-01 1.082000000000005624e+00 8.850000000000042277e-01 -7.539999999999963398e-01 -1.158999999999995811e+00 1.150000000000028777e-01 -2.307999999999998497e+00 1.832000000000006068e+00 -5.429999999999965965e-01 -5.849999999999950795e-01 6.980000000000050608e-01 3.860000000000057829e-01 -2.139999999999928626e-01 1.425000000000007372e+00 -9.589999999999955227e-01 8.290000000000034008e-01 -3.409999999999934195e-01 -2.028999999999998138e+00 2.190000000000008384e+00 7.700000000000043476e-01 1.890000000000037206e-01 7.160000000000072973e-01 -4.299999999999737366e-02 -2.102999999999996650e+00 9.650000000000036326e-01 9.900000000000719336e-02 -4.209999999999942677e-01 -1.570999999999995289e+00 -2.498999999999995669e+00 6.270000000000061080e-01 -6.329999999999962323e-01 1.095000000000011298e+00 1.242000000000004878e+00 4.000000000000358824e-02 2.000000000000357048e-02 -7.939999999999906022e-01 -1.051999999999995605e+00 -7.069999999999934115e-01 -1.815999999999996284e+00 -3.037999999999997147e+00 -3.947999999999993737e+00 3.000000000006441958e-03 2.066000000000010051e+00 -1.216999999999996085e+00 5.230000000000050164e-01 7.970000000000098117e-01 5.800000000000360423e-02 1.158000000000009244e+00 -2.009999999999957376e-01 3.520000000000047535e-01 8.380000000000087379e-01 -1.478999999999996762e+00 4.920000000000048779e-01 -1.221999999999993980e+00 -5.799999999999941869e-01 -3.120999999999997332e+00 1.281000000000005690e+00 1.220000000000045492e-01 3.090000000000048264e-01 -5.949999999999969758e-01 8.050000000000059330e-01 4.400000000000703348e-02 -2.223999999999990873e+00 -2.841999999999992532e+00 -6.719999999999943796e-01 4.040000000000153468e-01
-2.931999999999996387e+00 -1.093999999999993644e+00 -2.250999999999995449e+00 -1.806999999999998163e+00 -9.719999999999885398e-01 -3.029999999999994476e+00 4.770000000000065299e-01 1.855000000000008864e+00 -4.889999999999896652e-01 1.587000000000008626e+00 -3.817999999999997396e+00 1.510000000000046860e-01 1.980000000000006422e+00 -3.909999999999959064e-01 -1.649999999999996358e+00 -5.359999999999979226e-01 1.182000000000008821e+00 -7.299999999999955413e-01 -1.504999999999995897e+00 1.700000000000445599e-02 3.120000000000020535e-01 -2.759999999999921405e-01 -1.729999999999999094e+00 -1.243999999999997552e+00 6.130000000000090932e-01 8.140000000000071623e-01 -3.759999999999950049e-01 -2.080999999999998185e+00 -4.519999999999977369e-01 3.019000000000009898e+00 3.093000000000008409e+00 1.387000000000006672e+00 -1.205999999999997518e+00 -2.614999999999996660e+00 -7.439999999999972191e-01 6.830000000000051585e-01 3.490000000000029745e-01 -2.621999999999995445e+00 2.180000000000027471e-01 2.241000000000008097e+00 -7.999999999999926059e-01 1.512000000000006228e+00 -8.799999999999956746e-01 -8.079999999999971649e-01 -1.001999999999998225e+00 6.060000000000078657e-01 -1.335999999999996746e+00 -1.612999999999997325e+00 1.525000000000006795e+00 -4.499999999999571010e-02 3.294000000000012029e+00 -8.809999999999909015e-01 8.570000000000077556e-01 -1.999999999999941824e-01 5.800000000000815614e-02 9.770000000000051976e-01 -2.534999999999997478e+00 4.410000000000047216e-01 8.700000000000795985e-02 1.718000000000011962e+00 -2.049999999999996270e+00 -1.453999999999996628e+00 -1.789999999999909441e-01 -1.108999999999993769e+00 4.740000000000040847e-01 4.000000000004333423e-03 9.530000000000052873e-01 1.830000000000047145e-01 -6.119999999999942153e-01 -3.356999999999998430e+00 2.410000000000054321e-01 -9.789999999999912106e-01 -2.249999999999928724e-01 7.490000000000077707e-01 1.683000000000008045e+00 9.280000000000098170e-01 2.640000000000068958e-01 1.740000000000079261e-01 2.610000000000055609e-01 -1.039999999999992930e+00 1.365000000000007985e+00 3.871000000000013763e+00 -2.560999999999991505e+00 1.311000000000008381e+00 8.810000000000060005e-01 -9.989999999999965574e-01 -1.971999999999994646e+00 6.780000000000077076e-01 -4.629999999999934168e-01 -3.403999999999997694e+00 -8.179999999999965077e-01 7.720000000000082352e-01 -4.999999999992787991e-03 -1.175999999999989498e+00 1.474000000000007748e+00 -7.449999999999935563e-01 4.280000000000065974e-01 4.231000000000011418e+00 -1.531999999999995365e+00 -2.459999999999957776e-01 -2.703999999999995296e+00 3.010000000000063736e-01 1.515000000000006786e+00 1.023000000000005905e+00 4.810000000000073106e-01 1.560000000000008935e+00 1.358000000000006313e+00 2.556000000000007599e+00 -1.372999999999996668e+00 -1.403999999999997694e+00 -1.100999999999995982e+00 -1.242999999999993221e+00 -7.539999999999952296e-01 5.130000000000047855e-01 1.437000000000004718e+00 2.444000000000008832e+00 -6.589999999999952562e-01 -4.869999999999923279e-01 -1.783999999999994923e+00 5.760000000000047304e-01 2.608000000000006757e+00 -6.259999999999943388e-01 1.829000000000010395e+00 -2.187999999999997502e+00 -2.069999999999997620e+00 -7.199999999999961986e-01 1.148000000000008125e+00 4.194000000000011497e+00 -3.919999999999995044e+00 2.620000000000012097e+00 -1.732999999999997431e+00 2.689000000000009827e+00 -1.075999999999998291e+00 4.990000000000032188e-01 6.120000000000065388e-01 -1.349999999999975664e-01 3.030000000000074856e-01 -2.759999999999913634e-01 7.700000000000044587e-01 8.650000000000024336e-01 4.320000000000063789e-01 3.803000000000009706e+00 1.512000000000008226e+00 -1.428999999999998494e+00 5.700000000000637890e-02 1.661000000000007581e+00 -1.553999999999996939e+00 -2.582999999999996188e+00 3.760000000000066622e-01 -2.589999999999957891e-01 5.200000000000031264e-01 -1.587999999999997858e+00 -1.045999999999995378e+00 4.570000000000076223e-01 2.920000000000072538e-01 2.500000000000623945e-02 -5.639999999999961711e-01 3.780000000000078852e-01 1.209000000000003627e+00 -1.431999999999991280e+00 2.772000000000011344e+00 -3.089999999999940572e-01 -2.719999999999925810e-01 1.146000000000008789e+00 9.000000000004448886e-03 2.990000000000058167e-01 2.045000000000005258e+00 -3.459999999999996412e+00 7.150000000000041878e-01 7.810000000000053566e-01 3.900000000000536371e-02 -1.129999999999995008e+00 -1.627999999999993230e+00 -2.314999999999994174e+00 -1.258999999999994124e+00 2.817000000000005944e+00 -1.725999999999995094e+00 4.360000000000058273e-01 -5.569999999999960538e-01 8.850000000000042277e-01 -7.539999999999963398e-01 -1.536999999999995259e+00 6.570000000000061346e-01 -1.786999999999997035e+00 1.832000000000006068e+00 -1.710999999999996746e+00 -7.669999999999961293e-01 4.340000000000057145e-01 9.440000000000071667e-01 -2.139999999999928626e-01 1.368000000000008320e+00 -9.589999999999955227e-01 9.680000000000026361e-01 1.683000000000008489e+00 -5.769999999999987361e-01 1.194000000000006390e+00 9.230000000000052607e-01 1.890000000000037206e-01 7.160000000000072973e-01 -4.299999999999737366e-02 -1.762999999999996348e+00 6.050000000000042011e-01 -8.609999999999945475e-01 -2.039999999999930758e-01 -2.153999999999995030e+00 -1.718999999999996975e+00 6.270000000000061080e-01 -6.329999999999962323e-01 5.650000000000116041e-01 1.242000000000004878e+00 2.730000000000029070e-01 2.000000000000357048e-02 -3.199999999999892930e-01 -1.771999999999997133e+00 -5.019999999999933404e-01 -1.102999999999996428e+00 -3.794999999999996820e+00 -3.838999999999993751e+00 -6.309999999999922338e-01 2.066000000000010051e+00 -1.216999999999996085e+00 5.230000000000050164e-01 -4.199999999999193268e-02 5.800000000000360423e-02 6.280000000000077742e-01 7.930000000000042570e-01 3.520000000000047535e-01 1.644000000000008566e+00 -2.128999999999997339e+00 4.920000000000048779e-01 -1.221999999999993980e+00 -8.939999999999935776e-01 -1.719999999999995088e+00 7.220000000000034168e-01 1.220000000000045492e-01 3.090000000000048264e-01 -5.949999999999969758e-01 4.720000000000048601e-01 5.110000000000056719e-01 -1.399999999999991918e+00 -2.841999999999992532e+00 -6.719999999999943796e-01 7.900000000001594636e-02
-2.931999999999996387e+00 1.248000000000008436e+00 -2.250999999999995449e+00 -1.806999999999998163e+00 -5.349999999999908162e-01 -2.179999999999991722e+00 4.770000000000065299e-01 2.747000000000011433e+00 -1.071999999999991182e+00 1.587000000000008626e+00 -3.885999999999998344e+00 1.870000000000056062e-01 1.980000000000006422e+00 -3.909999999999959064e-01 -1.039999999999996705e+00 -5.359999999999979226e-01 4.030000000000091287e-01 -1.379999999999996785e+00 -9.799999999999963185e-01 1.700000000000445599e-02 -2.919999999999975948e-01 -1.242999999999992111e+00 -1.729999999999999094e+00 -7.509999999999980025e-01 6.130000000000090932e-01 8.140000000000071623e-01 -3.759999999999950049e-01 -1.707999999999998852e+00 -1.087999999999997414e+00 3.019000000000009898e+00 3.141000000000009340e+00 1.387000000000006672e+00 -1.205999999999997518e+00 -2.981999999999996209e+00 -7.269999999999988693e-01 -1.859999999999947251e-01 3.490000000000029745e-01 -2.621999999999995445e+00 3.110000000000056053e-01 1.217000000000005411e+00 4.130000000000058069e-01 9.370000000000066054e-01 -8.799999999999956746e-01 -8.079999999999971649e-01 -6.359999999999970122e-01 2.088000000000008960e+00 -5.079999999999958993e-01 -4.849999999999962119e-01 1.525000000000006795e+00 -1.517999999999995353e+00 3.797000000000013475e+00 -2.508999999999993236e+00 -5.159999999999951292e-01 -1.999999999999941824e-01 9.150000000000072520e-01 9.770000000000051976e-01 -2.642999999999996685e+00 4.410000000000047216e-01 -7.619999999999946816e-01 2.252000000000010438e+00 -1.142999999999996685e+00 -1.842999999999995975e+00 2.120000000000094031e-01 -1.816999999999995286e+00 4.740000000000040847e-01 4.000000000004333423e-03 3.480000000000056382e-01 1.830000000000047145e-01 -6.119999999999942153e-01 -3.260999999999998789e+00 -8.679999999999955529e-01 -1.229999999999991322e+00 1.816000000000007164e+00 7.490000000000077707e-01 9.960000000000064357e-01 1.557000000000012374e+00 -9.479999999999942917e-01 2.750000000000081268e-01 -2.629999999999957927e-01 4.150000000000063638e-01 1.100000000000522782e-02 2.456000000000012840e+00 -2.560999999999991505e+00 1.311000000000008381e+00 8.810000000000060005e-01 -9.989999999999965574e-01 -1.259999999999993125e+00 3.210000000000066134e-01 -1.179999999999939986e-01 -4.265999999999998238e+00 -5.199999999999953548e-01 1.950000000000086109e-01 9.800000000000830269e-02 -1.175999999999989498e+00 1.474000000000007748e+00 -7.449999999999935563e-01 9.800000000000061995e-01 4.231000000000011418e+00 -2.429999999999996163e+00 -8.869999999999963469e-01 -7.219999999999979767e-01 -1.599999999999931477e-01 2.252000000000008217e+00 1.626000000000006551e+00 7.490000000000084368e-01 6.540000000000090186e-01 7.890000000000050306e-01 2.556000000000007599e+00 -4.199999999999093347e-02 -9.699999999999974198e-01 -6.019999999999954277e-01 -2.158999999999993147e+00 -7.539999999999952296e-01 9.280000000000061533e-01 1.687000000000004274e+00 2.444000000000008832e+00 -8.509999999999945386e-01 -5.169999999999941309e-01 -1.436999999999995392e+00 5.760000000000047304e-01 2.608000000000006757e+00 -5.399999999999942624e-01 1.200000000000008171e+00 -5.539999999999960512e-01 -2.069999999999997620e+00 -7.199999999999961986e-01 1.901000000000010459e+00 4.391000000000010672e+00 -2.841999999999996085e+00 2.992000000000011539e+00 -1.760999999999996568e+00 2.519000000000009010e+00 -1.965999999999998193e+00 -8.699999999999641354e-02 -9.389999999999948388e-01 -1.349999999999975664e-01 -3.849999999999904610e-01 -1.355999999999994099e+00 7.670000000000034568e-01 8.650000000000024336e-01 1.793000000000005922e+00 3.618000000000007432e+00 1.512000000000008226e+00 -1.971999999999998199e+00 5.700000000000637890e-02 -5.399999999999405276e-02 -1.553999999999996939e+00 -2.582999999999996188e+00 -5.109999999999932374e-01 -2.589999999999957891e-01 -1.319999999999994955e+00 -1.505999999999997785e+00 -8.159999999999961728e-01 5.000000000000086597e-01 2.920000000000072538e-01 2.500000000000623945e-02 -1.157999999999996588e+00 9.240000000000074820e-01 1.209000000000003627e+00 -1.229999999999992877e+00 1.895000000000011564e+00 -3.089999999999940572e-01 2.670000000000061213e-01 1.146000000000008789e+00 9.000000000004448886e-03 -4.179999999999974847e-01 2.045000000000005258e+00 -3.459999999999996412e+00 4.170000000000048113e-01 7.810000000000053566e-01 8.710000000000069909e-01 -1.129999999999995008e+00 -6.119999999999942153e-01 -1.863999999999994550e+00 1.460000000000072351e-01 2.817000000000005944e+00 -1.725999999999995094e+00 4.360000000000058273e-01 1.242000000000006654e+00 7.040000000000032898e-01 -7.539999999999963398e-01 -4.259999999999970477e-01 1.150000000000028777e-01 -2.307999999999998497e+00 1.832000000000006068e+00 -1.282999999999996366e+00 -4.809999999999949871e-01 6.980000000000050608e-01 3.860000000000057829e-01 -9.329999999999936122e-01 1.425000000000007372e+00 -1.309999999999995834e+00 6.170000000000032125e-01 -3.409999999999934195e-01 -7.709999999999959108e-01 3.160000000000009912e+00 6.670000000000051443e-01 1.890000000000037206e-01 -2.019999999999926299e-01 -4.299999999999737366e-02 -2.034999999999998366e+00 9.650000000000036326e-01 -2.589999999999932356e-01 -4.209999999999942677e-01 -1.282999999999996810e+00 -2.498999999999995669e+00 6.270000000000061080e-01 -6.329999999999962323e-01 4.170000000000098073e-01 1.306000000000005823e+00 2.730000000000029070e-01 2.570000000000028928e-01 -7.939999999999906022e-01 -9.829999999999956550e-01 -5.019999999999933404e-01 -6.779999999999969384e-01 -2.228999999999997428e+00 -4.119999999999994778e+00 -6.309999999999922338e-01 2.066000000000010051e+00 2.950000000000035927e-01 5.230000000000050164e-01 -4.199999999999193268e-02 -6.869999999999961693e-01 1.158000000000009244e+00 -2.009999999999957376e-01 5.970000000000049711e-01 2.450000000000009948e+00 -2.337999999999996525e+00 -4.779999999999968718e-01 -1.221999999999993980e+00 4.150000000000085842e-01 -1.692999999999996064e+00 1.107000000000005535e+00 4.630000000000066285e-01 3.090000000000048264e-01 2.480000000000047722e-01 3.880000000000047855e-01 1.089000000000007073e+00 -1.399999999999991918e+00 -2.841999999999992532e+00 -6.769999999999951612e-01 8.420000000000176232e-01
-2.931999999999996387e+00 -1.093999999999993644e+00 -2.250999999999995449e+00 -1.806999999999998163e+00 -5.349999999999908162e-01 -3.600999999999994206e+00 3.090000000000063807e-01 1.810000000000008935e+00 -1.071999999999991182e+00 1.587000000000008626e+00 -2.621999999999995445e+00 -2.789999999999965841e-01 1.980000000000006422e+00 -2.399999999999947731e-01 -1.649999999999996358e+00 -7.669999999999972395e-01 6.990000000000085034e-01 -9.029999999999964722e-01 -1.649999999999945954e-01 1.700000000000445599e-02 3.120000000000020535e-01 -4.979999999999914495e-01 -1.729999999999999094e+00 -1.243999999999997552e+00 6.130000000000090932e-01 8.140000000000071623e-01 -3.759999999999950049e-01 -1.707999999999998852e+00 -4.519999999999977369e-01 3.019000000000009898e+00 3.093000000000008409e+00 1.176000000000007262e+00 -6.139999999999961044e-01 -2.614999999999996660e+00 -7.439999999999972191e-01 6.830000000000051585e-01 4.860000000000022080e-01 -2.621999999999995445e+00 3.640000000000037650e-01 1.076000000000006285e+00 -7.999999999999926059e-01 6.890000000000063851e-01 -8.799999999999956746e-01 -8.079999999999971649e-01 -1.001999999999998225e+00 2.088000000000008960e+00 -4.909999999999967724e-01 -2.949999999999969313e-01 1.525000000000006795e+00 -4.499999999999571010e-02 3.294000000000012029e+00 -8.809999999999909015e-01 4.780000000000057536e-01 -1.999999999999941824e-01 5.800000000000815614e-02 9.770000000000051976e-01 -2.534999999999997478e+00 4.410000000000047216e-01 -7.619999999999946816e-01 1.718000000000011962e+00 -1.142999999999996685e+00 -1.453999999999996628e+00 6.270000000000088836e-01 -1.108999999999993769e+00 9.850000000000055378e-01 5.820000000000066231e-01 9.530000000000052873e-01 4.800000000000032019e-01 -6.119999999999942153e-01 -3.356999999999998430e+00 9.320000000000070450e-01 -1.491999999999992443e+00 4.740000000000068603e-01 7.490000000000077707e-01 1.683000000000008045e+00 7.330000000000086446e-01 8.180000000000082760e-01 1.280000000000069971e-01 -6.519999999999943618e-01 -1.039999999999992930e+00 1.365000000000007985e+00 3.871000000000013763e+00 -2.560999999999991505e+00 1.311000000000008381e+00 8.810000000000060005e-01 -9.989999999999965574e-01 -1.971999999999994646e+00 6.780000000000077076e-01 3.260000000000055076e-01 -4.289999999999997371e+00 -8.179999999999965077e-01 1.401000000000008905e+00 -3.209999999999939568e-01 -9.059999999999901465e-01 1.474000000000007748e+00 -7.449999999999935563e-01 9.800000000000061995e-01 4.231000000000011418e+00 -1.045999999999994934e+00 -2.459999999999957776e-01 -2.666999999999996263e+00 -5.299999999999649436e-02 2.252000000000008217e+00 2.131000000000007777e+00 1.097000000000007969e+00 1.560000000000008935e+00 2.206000000000007955e+00 2.556000000000007599e+00 -7.769999999999971374e-01 -1.403999999999997694e+00 -5.079999999999953442e-01 -1.242999999999993221e+00 -7.539999999999952296e-01 5.130000000000047855e-01 1.437000000000004718e+00 2.444000000000008832e+00 -8.089999999999962776e-01 -5.169999999999941309e-01 -1.783999999999994923e+00 4.050000000000054667e-01 2.608000000000006757e+00 -9.619999999999955254e-01 1.875000000000009770e+00 -2.187999999999997502e+00 -2.069999999999997620e+00 -7.199999999999961986e-01 1.148000000000008125e+00 4.194000000000011497e+00 -2.716999999999995197e+00 2.620000000000012097e+00 -2.726999999999998092e+00 2.519000000000009010e+00 -1.075999999999998291e+00 4.990000000000032188e-01 6.120000000000065388e-01 -1.349999999999975664e-01 3.030000000000074856e-01 -2.759999999999913634e-01 7.700000000000044587e-01 8.650000000000024336e-01 4.320000000000063789e-01 3.803000000000009706e+00 1.512000000000008226e+00 -1.428999999999998494e+00 5.700000000000637890e-02 1.661000000000007581e+00 -1.553999999999996939e+00 -2.582999999999996188e+00 8.120000000000070495e-01 -2.589999999999957891e-01 5.200000000000031264e-01 -9.649999999999981926e-01 -8.159999999999961728e-01 4.570000000000076223e-01 2.920000000000072538e-01 2.500000000000623945e-02 -1.157999999999996588e+00 9.240000000000074820e-01 1.209000000000003627e+00 -1.229999999999992877e+00 2.772000000000011344e+00 -6.719999999999934914e-01 -1.859999999999933928e-01 1.146000000000008789e+00 9.000000000004448886e-03 -8.019999999999960494e-01 2.045000000000005258e+00 -3.700999999999995627e+00 7.150000000000041878e-01 1.725000000000007194e+00 3.900000000000536371e-02 -1.129999999999995008e+00 -9.699999999999464606e-02 -1.863999999999994550e+00 -1.788999999999997259e+00 2.817000000000005944e+00 -2.006999999999994344e+00 4.360000000000058273e-01 2.790000000000038005e-01 8.850000000000042277e-01 -7.539999999999963398e-01 -1.536999999999995259e+00 1.150000000000028777e-01 -2.307999999999998497e+00 1.832000000000006068e+00 -1.710999999999996746e+00 -7.669999999999961293e-01 7.070000000000058460e-01 1.104000000000004533e+00 -9.369999999999945040e-01 1.368000000000008320e+00 2.600000000000064482e-01 9.680000000000026361e-01 2.830000000000071347e-01 -5.769999999999987361e-01 1.194000000000006390e+00 7.700000000000043476e-01 2.880000000000056959e-01 7.160000000000072973e-01 -4.299999999999737366e-02 -1.762999999999996348e+00 9.650000000000036326e-01 -1.889999999999948388e-01 -2.039999999999930758e-01 -1.282999999999996810e+00 -1.718999999999996975e+00 8.680000000000054339e-01 -6.329999999999962323e-01 6.200000000000849276e-02 2.133000000000006668e+00 -4.099999999999968114e-01 2.000000000000357048e-02 -7.939999999999906022e-01 -1.537999999999996037e+00 -4.869999999999923279e-01 -1.102999999999996428e+00 -2.228999999999997428e+00 -3.947999999999993737e+00 -2.849999999999939249e-01 2.066000000000010051e+00 -1.216999999999996085e+00 -1.202999999999997627e+00 7.970000000000098117e-01 5.800000000000360423e-02 1.158000000000009244e+00 -2.009999999999957376e-01 5.970000000000049711e-01 1.644000000000008566e+00 -1.640999999999997794e+00 -4.779999999999968718e-01 -1.221999999999993980e+00 -1.217999999999993754e+00 -2.500999999999997669e+00 1.050000000000005596e+00 1.220000000000045492e-01 3.090000000000048264e-01 -5.949999999999969758e-01 -2.659999999999966835e-01 1.447000000000007391e+00 -1.399999999999991918e+00 -2.995999999999991559e+00 -6.769999999999951612e-01 -2.589999999999834657e-01
-2.931999999999996387e+00 -8.729999999999926708e-01 -2.250999999999995449e+00 -1.806999999999998163e+00 -9.269999999999902762e-01 -2.580999999999991967e+00 3.090000000000063807e-01 1.267000000000007454e+00 -1.919999999999966178e-01 1.619000000000010431e+00 -2.896999999999996689e+00 -2.789999999999965841e-01 1.329000000000006843e+00 2.900000000000535483e-02 5.310000000000065778e-01 -7.669999999999972395e-01 3.750000000000099920e-01 -7.299999999999955413e-01 -9.799999999999963185e-01 7.500000000000539568e-02 -3.509999999999976472e-01 -2.759999999999921405e-01 -1.729999999999999094e+00 -7.509999999999980025e-01 6.130000000000090932e-01 8.140000000000071623e-01 -3.759999999999950049e-01 -1.707999999999998852e+00 -1.087999999999997414e+00 3.019000000000009898e+00 3.093000000000008409e+00 1.446000000000007724e+00 -1.205999999999997518e+00 -2.614999999999996660e+00 -7.269999999999988693e-01 6.830000000000051585e-01 4.860000000000022080e-01 -2.621999999999995445e+00 2.530000000000046656e-01 1.217000000000005411e+00 4.130000000000058069e-01 1.512000000000006228e+00 -1.591999999999995419e+00 -8.079999999999971649e-01 -1.001999999999998225e+00 2.088000000000008960e+00 -4.909999999999967724e-01 -2.949999999999969313e-01 2.847000000000009745e+00 -4.499999999999571010e-02 3.079000000000013060e+00 -2.462999999999993861e+00 1.440000000000054570e-01 -1.999999999999941824e-01 8.470000000000096341e-01 8.190000000000059455e-01 -2.534999999999997478e+00 4.410000000000047216e-01 8.700000000000795985e-02 1.718000000000011962e+00 -1.347999999999994980e+00 -1.453999999999996628e+00 2.659000000000008690e+00 -1.816999999999995286e+00 1.302000000000006708e+00 -2.139999999999949720e-01 9.530000000000052873e-01 4.800000000000032019e-01 -4.779999999999932081e-01 -2.371999999999998554e+00 2.410000000000054321e-01 -2.673999999999994603e+00 1.816000000000007164e+00 -1.126999999999994007e+00 9.960000000000064357e-01 9.280000000000098170e-01 -5.869999999999948592e-01 1.280000000000069971e-01 -2.629999999999957927e-01 -5.599999999999305533e-02 4.200000000000063682e-01 2.503000000000011660e+00 -3.398999999999992028e+00 2.135000000000010001e+00 1.669000000000007589e+00 -9.989999999999965574e-01 -2.728999999999994319e+00 1.097000000000006414e+00 3.260000000000055076e-01 -3.268999999999999240e+00 -1.234999999999995879e+00 7.720000000000082352e-01 6.170000000000086526e-01 -1.059999999999988507e+00 1.474000000000007748e+00 -7.449999999999935563e-01 9.800000000000061995e-01 4.231000000000011418e+00 -2.093999999999994976e+00 -2.459999999999957776e-01 -2.673999999999995492e+00 -5.299999999999649436e-02 1.515000000000006786e+00 2.530000000000008242e+00 4.810000000000073106e-01 2.383000000000008889e+00 1.358000000000006313e+00 1.644000000000007677e+00 -5.709999999999915143e-01 -9.699999999999974198e-01 -1.273999999999996913e+00 -2.724999999999995204e+00 -8.999999999993790745e-03 5.130000000000047855e-01 1.577000000000005064e+00 3.949000000000012278e+00 -8.589999999999935465e-01 -5.169999999999941309e-01 -1.878999999999993120e+00 5.760000000000047304e-01 2.608000000000006757e+00 -9.619999999999955254e-01 1.200000000000008171e+00 -2.187999999999997502e+00 -2.069999999999997620e+00 -1.583999999999996078e+00 2.172000000000010811e+00 4.194000000000011497e+00 -2.841999999999996085e+00 3.855000000000012417e+00 -2.726999999999998092e+00 2.445000000000010054e+00 -5.029999999999970051e-01 4.990000000000032188e-01 6.120000000000065388e-01 -1.349999999999975664e-01 3.030000000000074856e-01 -1.604999999999994431e+00 7.460000000000053255e-01 -2.129999999999958593e-01 1.793000000000005922e+00 2.705000000000007176e+00 1.512000000000008226e+00 -1.428999999999998494e+00 5.700000000000637890e-02 8.900000000000058975e-01 -1.553999999999996939e+00 -2.582999999999996188e+00 8.120000000000070495e-01 -2.589999999999957891e-01 5.200000000000031264e-01 -9.649999999999981926e-01 -8.159999999999961728e-01 4.570000000000076223e-01 2.920000000000072538e-01 2.500000000000623945e-02 -1.181999999999997497e+00 -1.809999999999908349e-01 1.209000000000003627e+00 -1.229999999999992877e+00 2.772000000000011344e+00 -4.259999999999922737e-01 2.670000000000061213e-01 1.146000000000008789e+00 6.900000000000058309e-01 4.360000000000041620e-01 2.407000000000006246e+00 -3.459999999999996412e+00 2.490000000000054392e-01 1.124000000000006771e+00 8.660000000000070974e-01 -1.129999999999995008e+00 -1.627999999999993230e+00 -2.100999999999994650e+00 -1.258999999999994124e+00 2.582000000000006512e+00 -9.699999999999935341e-01 6.660000000000023679e-01 -3.189999999999976188e-01 8.850000000000042277e-01 -7.539999999999963398e-01 -4.259999999999970477e-01 -1.899999999999635314e-02 -2.307999999999998497e+00 1.832000000000006068e+00 -5.429999999999965965e-01 -1.068999999999995509e+00 6.980000000000050608e-01 1.104000000000004533e+00 -5.479999999999933813e-01 1.425000000000007372e+00 2.600000000000064482e-01 9.680000000000026361e-01 1.433000000000007379e+00 -5.769999999999987361e-01 1.194000000000006390e+00 7.700000000000043476e-01 1.890000000000037206e-01 -1.139999999999925517e-01 -4.299999999999737366e-02 -2.102999999999996650e+00 9.650000000000036326e-01 -1.889999999999948388e-01 5.900000000000067413e-01 -2.189999999999995062e+00 -1.718999999999996975e+00 6.270000000000061080e-01 -6.329999999999962323e-01 6.200000000000849276e-02 1.242000000000004878e+00 2.730000000000029070e-01 2.000000000000357048e-02 -7.939999999999906022e-01 -1.051999999999995605e+00 -9.149999999999944844e-01 -6.779999999999969384e-01 -2.228999999999997428e+00 -4.119999999999994778e+00 -2.849999999999939249e-01 2.678000000000011482e+00 -1.216999999999996085e+00 5.230000000000050164e-01 1.364000000000011426e+00 -6.869999999999961693e-01 1.158000000000009244e+00 -2.009999999999957376e-01 1.440000000000054570e-01 1.644000000000008566e+00 -1.640999999999997794e+00 4.920000000000048779e-01 -1.221999999999993980e+00 -7.609999999999961240e-01 -1.746999999999996112e+00 1.107000000000005535e+00 4.630000000000066285e-01 3.090000000000048264e-01 -5.949999999999969758e-01 3.880000000000047855e-01 9.770000000000069740e-01 -1.399999999999991918e+00 -2.457999999999993079e+00 -1.603999999999995207e+00 4.040000000000153468e-01
