8.200000000000016165e-01 -2.509999999999983356e-01 6.700000000000014833e-01 3.900000000000012346e-01 -1.699999999999992628e-01 5.000000000000093259e-02 3.500000000000011990e-01 -4.999999999999915623e-02 -1.758999999999999009e+00 6.000000000000094147e-02 8.300000000000016254e-01 -8.399999999999998579e-01 3.690000000000021041e-01 5.900000000000014122e-01 -9.699999999999999734e-01 2.750000000000020206e-01 1.100000000000009859e-01 4.800000000000013145e-01 -9.299999999999999378e-01 -2.919999999999984830e-01 5.940000000000023039e-01 8.600000000000016520e-01 -1.529999999999984706e-01 4.000000000000092371e-02 -5.699999999999996181e-01 9.000000000000016875e-01 -3.599999999999994316e-01 -3.099999999999993872e-01 -1.099999999999974332e-01 6.520000000000023554e-01 8.500000000000016431e-01 5.000000000000093259e-02 -4.099999999999994760e-01 -2.899999999999993694e-01 -2.999999999999913847e-02 -9.699999999999999734e-01 9.000000000000096811e-02 1.500000000000010214e-01 -7.599999999999997868e-01 2.400000000000011013e-01 -7.599999999999997868e-01 -5.599999999999996092e-01 1.770000000000019336e-01 -3.999999999999914735e-02 1.049000000000002597e+00 4.700000000000013056e-01 3.300000000000011813e-01 2.300000000000010925e-01 -4.599999999999995204e-01 -1.999999999999992895e-01 1.328000000000002956e+00 2.080000000000019611e-01 3.500000000000011990e-01 8.000000000000015987e-01 2.800000000000011369e-01 8.900000000000016787e-01 9.500000000000017319e-01 -1.308999999999999275e+00 7.000000000000095035e-02 -3.499999999999994227e-01 5.100000000000032285e-01 -9.899999999999831157e-02 -4.299999999999994937e-01 4.700000000000013056e-01 1.000000000000009770e-01 1.400000000000010125e-01 7.590000000000025615e-01 -5.299999999999995826e-01 5.100000000000013411e-01 1.000000000000009770e-01 3.600000000000012079e-01 -7.099999999999997424e-01 7.410000000000025455e-01 2.300000000000010925e-01 3.800000000000012257e-01 -1.739999999999983782e-01 8.600000000000016520e-01 4.800000000000013145e-01 5.700000000000013944e-01 -5.999999999999916511e-02 -7.259999999999988685e-01 6.000000000000014211e-01 -6.999999999999917399e-02 -1.001999999999998225e+00 -2.299999999999993161e-01 1.141000000000002901e+00 -8.199999999999998401e-01 -6.999999999999997335e-01 4.600000000000012967e-01 -5.999999999999996447e-01 3.800000000000012257e-01 6.800000000000014921e-01 8.600000000000016520e-01 5.800000000000014033e-01 6.700000000000014833e-01 3.100000000000011635e-01 -9.799999999999999822e-01 9.000000000000016875e-01 -9.099999999999999201e-01 6.700000000000014833e-01 -8.299999999999998490e-01 -9.999999999999120703e-03 -4.699999999999995293e-01 -2.699999999999993516e-01 -7.699999999999997957e-01 -3.699999999999994404e-01 -2.599999999999993427e-01 1.600000000000010303e-01 -1.542999999999999705e+00 4.100000000000012523e-01 -7.699999999999997957e-01 -9.999999999999920064e-02 -7.699999999999997957e-01 5.300000000000013589e-01 -9.459999999999990639e-01 5.500000000000013767e-01 -8.199999999999998401e-01 1.800000000000010481e-01 -3.999999999999914735e-02 7.300000000000015365e-01 -7.809999999999989173e-01 1.800000000000010481e-01 8.600000000000016520e-01 7.400000000000015454e-01 4.840000000000022062e-01 2.700000000000011280e-01 -1.520999999999999464e+00 -8.099999999999998312e-01 -7.299999999999997602e-01 3.500000000000011990e-01 -3.999999999999914735e-02 3.000000000000091482e-02 5.000000000000093259e-02 4.100000000000012523e-01 -4.899999999999995470e-01 -1.599999999999992539e-01 1.200000000000009948e-01 1.900000000000010569e-01 7.890000000000025882e-01 -7.799999999999998046e-01 -2.399999999999993250e-01 -6.399999999999996803e-01 1.300000000000010036e-01 -1.209999999999983311e-01 7.100000000000015188e-01 2.300000000000010925e-01 -8.199999999999998401e-01 -7.299999999999997602e-01 4.400000000000012790e-01 -3.699999999999994404e-01 2.700000000000180034e-02 4.200000000000012612e-01 -8.099999999999998312e-01 7.900000000000015898e-01 -5.599999999999738520e-02 -6.699999999999997069e-01 9.200000000000017053e-01 -2.899999999999993694e-01 1.700000000000010392e-01 -7.359999999999988773e-01 -3.799999999999994493e-01 8.500000000000016431e-01 -6.999999999999997335e-01 -6.199999999999996625e-01 1.219000000000002748e+00 -6.999999999999997335e-01 1.400000000000010125e-01 -1.035999999999998256e+00 -5.899999999999996358e-01 -6.099999999999996536e-01 -9.699999999999999734e-01 6.900000000000015010e-01 9.000000000000016875e-01 6.800000000000183675e-02 -5.899999999999996358e-01 5.250000000000031308e-01 8.300000000000016254e-01 -3.099999999999993872e-01 3.900000000000012346e-01 -5.999999999999996447e-01 5.000000000000013323e-01 -2.499999999999993339e-01 8.100000000000016076e-01 -7.999999999999918288e-02 -3.779999999999985594e-01 -3.199999999999993960e-01 -7.999999999999998224e-01 4.700000000000013056e-01 9.600000000000017408e-01 3.800000000000012257e-01 -4.399999999999995026e-01 -4.999999999999915623e-02 1.230000000000017746e-01 7.400000000000015454e-01 -8.199999999999998401e-01 -3.499999999999994227e-01 -1.449999999999982414e-01 -7.399999999999997691e-01 -8.599999999999998757e-01 -5.699999999999996181e-01 7.900000000000015898e-01 4.300000000000012701e-01 -6.099999999999996536e-01 -1.359999999999983444e-01 5.400000000000013678e-01 8.600000000000016520e-01 -9.499999999999999556e-01 9.600000000000017408e-01 -9.499999999999999556e-01 -1.399999999999992362e-01 9.600000000000017408e-01 -7.299999999999997602e-01 8.650000000000035438e-01 -8.199999999999998401e-01 9.000000000000096811e-02 1.500000000000010214e-01 -7.909999999999988152e-01 -1.399999999999992362e-01 -4.099999999999994760e-01 7.300000000000015365e-01 -1.899999999999992806e-01 -9.599999999999999645e-01 7.800000000000015810e-01 -5.699999999999996181e-01 -6.999999999999997335e-01 1.400000000000010125e-01 -1.008999999999999009e+00 1.100000000000009859e-01 -4.799999999999995381e-01 -3.199999999999993960e-01 7.800000000000015810e-01 -1.399999999999992362e-01 9.000000000000016875e-01 4.600000000000012967e-01 3.600000000000012079e-01 6.800000000000014921e-01 1.650000000000003242e+00 -1.100999999999999091e+00 4.200000000000181366e-02 1.529000000000004134e+00 5.500000000000013767e-01 8.100000000000016076e-01 -4.099999999999994760e-01
8.200000000000016165e-01 -2.509999999999983356e-01 6.700000000000014833e-01 3.900000000000012346e-01 -1.699999999999992628e-01 5.000000000000093259e-02 3.500000000000011990e-01 -4.999999999999915623e-02 -1.758999999999999009e+00 6.000000000000094147e-02 8.300000000000016254e-01 -8.399999999999998579e-01 3.690000000000021041e-01 5.900000000000014122e-01 -9.699999999999999734e-01 9.100000000000016964e-01 1.100000000000009859e-01 4.800000000000013145e-01 -9.299999999999999378e-01 -2.919999999999984830e-01 5.940000000000023039e-01 8.600000000000016520e-01 -1.529999999999984706e-01 4.000000000000092371e-02 -5.699999999999996181e-01 9.000000000000016875e-01 -3.599999999999994316e-01 -3.099999999999993872e-01 -1.099999999999974332e-01 6.520000000000023554e-01 8.500000000000016431e-01 5.000000000000093259e-02 -4.099999999999994760e-01 -2.899999999999993694e-01 -2.999999999999913847e-02 -9.699999999999999734e-01 9.000000000000096811e-02 1.082000000000002737e+00 -7.599999999999997868e-01 2.400000000000011013e-01 -7.599999999999997868e-01 -5.599999999999996092e-01 1.770000000000019336e-01 -3.999999999999914735e-02 1.049000000000002597e+00 4.700000000000013056e-01 3.300000000000011813e-01 2.300000000000010925e-01 -4.599999999999995204e-01 -1.999999999999992895e-01 1.328000000000002956e+00 4.100000000000012523e-01 3.500000000000011990e-01 8.000000000000015987e-01 2.800000000000011369e-01 8.900000000000016787e-01 9.500000000000017319e-01 -1.308999999999999275e+00 7.000000000000095035e-02 -3.499999999999994227e-01 5.100000000000032285e-01 -9.899999999999831157e-02 -4.299999999999994937e-01 7.350000000000023181e-01 1.000000000000009770e-01 1.400000000000010125e-01 7.590000000000025615e-01 -5.299999999999995826e-01 5.100000000000013411e-01 1.000000000000009770e-01 3.600000000000012079e-01 -7.099999999999997424e-01 7.410000000000025455e-01 2.300000000000010925e-01 3.800000000000012257e-01 -1.999999999999992895e-01 8.600000000000016520e-01 4.800000000000013145e-01 5.700000000000013944e-01 -5.999999999999916511e-02 -7.259999999999988685e-01 6.000000000000014211e-01 -6.999999999999917399e-02 -1.001999999999998225e+00 -2.299999999999993161e-01 1.141000000000002901e+00 -8.199999999999998401e-01 -6.999999999999997335e-01 4.600000000000012967e-01 -5.999999999999996447e-01 3.800000000000012257e-01 6.800000000000014921e-01 8.600000000000016520e-01 5.800000000000014033e-01 6.700000000000014833e-01 3.100000000000011635e-01 -9.799999999999999822e-01 9.000000000000016875e-01 -9.099999999999999201e-01 6.700000000000014833e-01 -8.299999999999998490e-01 -9.999999999999120703e-03 -4.699999999999995293e-01 -2.699999999999993516e-01 -7.699999999999997957e-01 -3.699999999999994404e-01 -2.599999999999993427e-01 1.600000000000010303e-01 -1.542999999999999705e+00 4.100000000000012523e-01 -7.699999999999997957e-01 -9.999999999999920064e-02 -7.699999999999997957e-01 5.300000000000013589e-01 -9.459999999999990639e-01 5.500000000000013767e-01 -8.199999999999998401e-01 1.800000000000010481e-01 -3.999999999999914735e-02 7.300000000000015365e-01 -7.809999999999989173e-01 4.370000000000020535e-01 8.600000000000016520e-01 7.400000000000015454e-01 4.840000000000022062e-01 2.700000000000011280e-01 -1.520999999999999464e+00 -8.099999999999998312e-01 -7.299999999999997602e-01 3.500000000000011990e-01 -3.999999999999914735e-02 7.570000000000025597e-01 5.000000000000093259e-02 4.100000000000012523e-01 -4.899999999999995470e-01 -1.599999999999992539e-01 1.200000000000009948e-01 1.900000000000010569e-01 7.890000000000025882e-01 -7.799999999999998046e-01 -2.399999999999993250e-01 -6.399999999999996803e-01 1.300000000000010036e-01 -1.209999999999983311e-01 7.100000000000015188e-01 2.300000000000010925e-01 -8.199999999999998401e-01 -7.299999999999997602e-01 4.400000000000012790e-01 -3.699999999999994404e-01 3.800000000000012257e-01 4.200000000000012612e-01 -8.099999999999998312e-01 7.900000000000015898e-01 -5.599999999999738520e-02 -6.699999999999997069e-01 9.200000000000017053e-01 -2.899999999999993694e-01 1.700000000000010392e-01 -7.359999999999988773e-01 -3.799999999999994493e-01 8.500000000000016431e-01 7.000000000000015099e-01 -6.199999999999996625e-01 1.219000000000002748e+00 -6.999999999999997335e-01 1.400000000000010125e-01 -9.079999999999990301e-01 -1.380999999999999339e+00 -6.099999999999996536e-01 -9.699999999999999734e-01 7.000000000001782574e-03 9.000000000000016875e-01 6.800000000000183675e-02 -5.899999999999996358e-01 5.250000000000031308e-01 8.300000000000016254e-01 -3.099999999999993872e-01 3.900000000000012346e-01 -5.999999999999996447e-01 5.000000000000013323e-01 -2.499999999999993339e-01 8.100000000000016076e-01 -7.999999999999918288e-02 -3.779999999999985594e-01 -3.199999999999993960e-01 -7.999999999999998224e-01 4.700000000000013056e-01 9.600000000000017408e-01 3.800000000000012257e-01 -4.399999999999995026e-01 -4.999999999999915623e-02 1.230000000000017746e-01 7.400000000000015454e-01 -8.199999999999998401e-01 -3.499999999999994227e-01 -1.449999999999982414e-01 -7.399999999999997691e-01 -8.599999999999998757e-01 -5.699999999999996181e-01 7.900000000000015898e-01 4.300000000000012701e-01 -6.099999999999996536e-01 -1.359999999999983444e-01 -2.479999999999984439e-01 8.600000000000016520e-01 -9.499999999999999556e-01 9.600000000000017408e-01 -9.499999999999999556e-01 -1.399999999999992362e-01 9.600000000000017408e-01 -7.299999999999997602e-01 8.650000000000035438e-01 -8.199999999999998401e-01 9.000000000000096811e-02 1.500000000000010214e-01 -8.899999999999999023e-01 -2.199999999999984190e-01 -4.099999999999994760e-01 7.300000000000015365e-01 -1.899999999999992806e-01 -9.599999999999999645e-01 7.800000000000015810e-01 -5.699999999999996181e-01 -6.999999999999997335e-01 1.400000000000010125e-01 -1.008999999999999009e+00 1.100000000000009859e-01 -4.799999999999995381e-01 -3.199999999999993960e-01 7.800000000000015810e-01 -1.399999999999992362e-01 9.000000000000016875e-01 4.600000000000012967e-01 3.600000000000012079e-01 6.800000000000014921e-01 1.650000000000003242e+00 -8.099999999999998312e-01 4.200000000000181366e-02 6.470000000000024620e-01 5.500000000000013767e-01 8.100000000000016076e-01 -4.099999999999994760e-01
8.200000000000016165e-01 -2.509999999999983356e-01 6.700000000000014833e-01 3.900000000000012346e-01 -1.699999999999992628e-01 5.000000000000093259e-02 3.500000000000011990e-01 -4.999999999999915623e-02 -2.299999999999993161e-01 6.000000000000094147e-02 8.300000000000016254e-01 -8.399999999999998579e-01 7.390000000000033209e-01 5.900000000000014122e-01 -9.699999999999999734e-01 2.750000000000020206e-01 1.100000000000009859e-01 4.800000000000013145e-01 -9.299999999999999378e-01 -2.919999999999984830e-01 5.940000000000023039e-01 8.600000000000016520e-01 -1.529999999999984706e-01 4.000000000000092371e-02 -5.699999999999996181e-01 9.000000000000016875e-01 -3.599999999999994316e-01 -3.099999999999993872e-01 -4.539999999999986269e-01 6.520000000000023554e-01 1.801000000000003487e+00 5.000000000000093259e-02 -4.099999999999994760e-01 -2.899999999999993694e-01 -2.999999999999913847e-02 -9.699999999999999734e-01 9.000000000000096811e-02 1.500000000000010214e-01 -7.599999999999997868e-01 2.400000000000011013e-01 -7.599999999999997868e-01 -5.599999999999996092e-01 1.770000000000019336e-01 -3.999999999999914735e-02 1.049000000000002597e+00 4.700000000000013056e-01 3.300000000000011813e-01 2.300000000000010925e-01 -4.599999999999995204e-01 -1.999999999999992895e-01 1.328000000000002956e+00 2.080000000000019611e-01 3.500000000000011990e-01 4.170000000000021467e-01 2.800000000000011369e-01 8.900000000000016787e-01 9.500000000000017319e-01 -1.308999999999999275e+00 7.000000000000095035e-02 -3.499999999999994227e-01 5.100000000000032285e-01 -9.899999999999831157e-02 -4.299999999999994937e-01 4.700000000000013056e-01 6.910000000000025011e-01 1.400000000000010125e-01 7.590000000000025615e-01 -5.299999999999995826e-01 5.100000000000013411e-01 1.000000000000009770e-01 3.600000000000012079e-01 -7.099999999999997424e-01 7.410000000000025455e-01 2.300000000000010925e-01 3.800000000000012257e-01 -1.999999999999992895e-01 8.600000000000016520e-01 4.800000000000013145e-01 5.700000000000013944e-01 -5.999999999999916511e-02 -7.259999999999988685e-01 6.000000000000014211e-01 -6.999999999999917399e-02 -1.001999999999998225e+00 -2.299999999999993161e-01 1.141000000000002901e+00 -8.199999999999998401e-01 -6.999999999999997335e-01 4.600000000000012967e-01 -5.999999999999996447e-01 3.800000000000012257e-01 6.800000000000014921e-01 8.600000000000016520e-01 5.800000000000014033e-01 6.700000000000014833e-01 3.100000000000011635e-01 -9.799999999999999822e-01 9.000000000000016875e-01 -9.099999999999999201e-01 6.700000000000014833e-01 -8.299999999999998490e-01 -9.999999999999120703e-03 -4.699999999999995293e-01 -5.699999999999987299e-01 -7.699999999999997957e-01 -3.699999999999994404e-01 -2.599999999999993427e-01 4.450000000000020606e-01 -2.506999999999999673e+00 4.100000000000012523e-01 -7.699999999999997957e-01 -9.999999999999920064e-02 -7.699999999999997957e-01 5.300000000000013589e-01 -9.459999999999990639e-01 4.660000000000021902e-01 -8.199999999999998401e-01 1.800000000000010481e-01 -3.999999999999914735e-02 7.300000000000015365e-01 -7.809999999999989173e-01 1.800000000000010481e-01 8.600000000000016520e-01 7.400000000000015454e-01 -4.029999999999984706e-01 2.700000000000011280e-01 -1.520999999999999464e+00 -8.099999999999998312e-01 -7.299999999999997602e-01 3.500000000000011990e-01 -3.999999999999914735e-02 3.000000000000091482e-02 5.000000000000093259e-02 4.100000000000012523e-01 -4.899999999999995470e-01 -1.599999999999992539e-01 1.200000000000009948e-01 1.900000000000010569e-01 7.890000000000025882e-01 -7.799999999999998046e-01 -2.399999999999993250e-01 -6.399999999999996803e-01 1.300000000000010036e-01 -1.209999999999983311e-01 7.100000000000015188e-01 2.300000000000010925e-01 -8.199999999999998401e-01 -7.299999999999997602e-01 4.400000000000012790e-01 -3.699999999999994404e-01 9.340000000000026059e-01 4.200000000000012612e-01 -8.099999999999998312e-01 7.900000000000015898e-01 1.084000000000004515e+00 -1.158999999999999364e+00 9.200000000000017053e-01 -2.899999999999993694e-01 1.700000000000010392e-01 -7.359999999999988773e-01 -3.799999999999994493e-01 8.500000000000016431e-01 7.000000000000015099e-01 -6.199999999999996625e-01 1.219000000000002748e+00 -1.449999999999982414e-01 1.400000000000010125e-01 -9.079999999999990301e-01 -3.089999999999986091e-01 -6.099999999999996536e-01 -9.699999999999999734e-01 7.000000000001782574e-03 5.770000000000022888e-01 3.000000000000029310e-01 -5.899999999999996358e-01 -1.599999999999992539e-01 8.300000000000016254e-01 -3.099999999999993872e-01 3.900000000000012346e-01 -5.999999999999996447e-01 5.000000000000013323e-01 -6.709999999999988196e-01 8.100000000000016076e-01 -7.999999999999918288e-02 -3.779999999999985594e-01 -3.199999999999993960e-01 -7.999999999999998224e-01 4.700000000000013056e-01 9.600000000000017408e-01 3.800000000000012257e-01 -4.399999999999995026e-01 -4.999999999999915623e-02 1.230000000000017746e-01 7.400000000000015454e-01 -8.199999999999998401e-01 -3.499999999999994227e-01 -1.449999999999982414e-01 -7.399999999999997691e-01 -8.599999999999998757e-01 -5.699999999999996181e-01 7.900000000000015898e-01 4.300000000000012701e-01 -6.099999999999996536e-01 -1.359999999999983444e-01 -2.479999999999984439e-01 8.600000000000016520e-01 -9.499999999999999556e-01 9.600000000000017408e-01 -9.499999999999999556e-01 -1.399999999999992362e-01 9.600000000000017408e-01 -7.299999999999997602e-01 8.650000000000035438e-01 -8.199999999999998401e-01 9.000000000000096811e-02 1.500000000000010214e-01 -8.899999999999999023e-01 -1.399999999999992362e-01 -4.099999999999994760e-01 7.300000000000015365e-01 -1.899999999999992806e-01 -9.599999999999999645e-01 7.740000000000024638e-01 -5.699999999999996181e-01 -6.999999999999997335e-01 -4.599999999999995204e-01 -1.008999999999999009e+00 1.100000000000009859e-01 -4.799999999999995381e-01 -3.199999999999993960e-01 7.800000000000015810e-01 -1.399999999999992362e-01 9.000000000000016875e-01 4.600000000000012967e-01 3.600000000000012079e-01 6.800000000000014921e-01 1.650000000000003242e+00 -1.100999999999999091e+00 4.200000000000181366e-02 1.529000000000004134e+00 5.500000000000013767e-01 8.100000000000016076e-01 -4.099999999999994760e-01
8.200000000000016165e-01 -2.509999999999983356e-01 6.700000000000014833e-01 3.900000000000012346e-01 -1.699999999999992628e-01 5.000000000000093259e-02 3.500000000000011990e-01 -4.999999999999915623e-02 -1.758999999999999009e+00 6.000000000000094147e-02 8.300000000000016254e-01 -8.399999999999998579e-01 3.690000000000021041e-01 5.900000000000014122e-01 -9.699999999999999734e-01 9.100000000000016964e-01 1.100000000000009859e-01 4.800000000000013145e-01 -9.299999999999999378e-01 -2.919999999999984830e-01 5.940000000000023039e-01 8.600000000000016520e-01 -1.529999999999984706e-01 4.000000000000092371e-02 -7.739999999999989111e-01 9.000000000000016875e-01 -3.599999999999994316e-01 -3.099999999999993872e-01 -4.539999999999986269e-01 6.520000000000023554e-01 8.500000000000016431e-01 5.000000000000093259e-02 -4.099999999999994760e-01 -2.899999999999993694e-01 -2.999999999999913847e-02 -9.699999999999999734e-01 9.000000000000096811e-02 1.500000000000010214e-01 -7.599999999999997868e-01 2.400000000000011013e-01 -7.599999999999997868e-01 -5.599999999999996092e-01 1.770000000000019336e-01 -3.999999999999914735e-02 1.049000000000002597e+00 4.700000000000013056e-01 3.300000000000011813e-01 2.300000000000010925e-01 -4.599999999999995204e-01 -1.999999999999992895e-01 1.328000000000002956e+00 2.080000000000019611e-01 3.000000000001779021e-03 8.000000000000015987e-01 2.800000000000011369e-01 8.900000000000016787e-01 9.500000000000017319e-01 -1.308999999999999275e+00 7.000000000000095035e-02 -3.499999999999994227e-01 5.100000000000032285e-01 -9.899999999999831157e-02 -4.299999999999994937e-01 4.700000000000013056e-01 6.910000000000025011e-01 1.400000000000010125e-01 7.590000000000025615e-01 -5.299999999999995826e-01 5.100000000000013411e-01 1.000000000000009770e-01 3.600000000000012079e-01 -7.099999999999997424e-01 7.410000000000025455e-01 2.300000000000010925e-01 3.800000000000012257e-01 -1.999999999999992895e-01 1.531000000000003247e+00 4.800000000000013145e-01 4.500000000000181632e-02 -5.999999999999916511e-02 -7.259999999999988685e-01 6.000000000000014211e-01 -6.999999999999917399e-02 -1.001999999999998225e+00 -2.299999999999993161e-01 1.141000000000002901e+00 -8.199999999999998401e-01 -6.999999999999997335e-01 4.600000000000012967e-01 -5.999999999999996447e-01 6.600000000000183498e-02 6.800000000000014921e-01 8.600000000000016520e-01 5.800000000000014033e-01 6.700000000000014833e-01 3.100000000000011635e-01 -9.799999999999999822e-01 9.000000000000016875e-01 -9.099999999999999201e-01 6.700000000000014833e-01 -8.299999999999998490e-01 -9.999999999999120703e-03 -4.699999999999995293e-01 -5.699999999999987299e-01 -7.699999999999997957e-01 -3.699999999999994404e-01 -2.599999999999993427e-01 1.600000000000010303e-01 -1.542999999999999705e+00 4.100000000000012523e-01 -7.699999999999997957e-01 -9.999999999999920064e-02 -7.699999999999997957e-01 5.300000000000013589e-01 -9.459999999999990639e-01 5.500000000000013767e-01 -8.199999999999998401e-01 1.800000000000010481e-01 -3.999999999999914735e-02 7.300000000000015365e-01 -7.809999999999989173e-01 1.800000000000010481e-01 8.600000000000016520e-01 7.400000000000015454e-01 4.840000000000022062e-01 2.700000000000011280e-01 -1.520999999999999464e+00 -8.099999999999998312e-01 -7.299999999999997602e-01 3.500000000000011990e-01 -3.999999999999914735e-02 3.000000000000091482e-02 5.000000000000093259e-02 4.100000000000012523e-01 -4.899999999999995470e-01 -1.599999999999992539e-01 1.200000000000009948e-01 1.900000000000010569e-01 7.890000000000025882e-01 -7.799999999999998046e-01 -2.399999999999993250e-01 -6.399999999999996803e-01 1.300000000000010036e-01 -1.209999999999983311e-01 7.100000000000015188e-01 2.300000000000010925e-01 -8.199999999999998401e-01 -7.299999999999997602e-01 4.400000000000012790e-01 2.580000000000020055e-01 3.800000000000012257e-01 4.200000000000012612e-01 -8.099999999999998312e-01 7.900000000000015898e-01 1.620000000000019202e-01 -6.699999999999997069e-01 9.200000000000017053e-01 -2.899999999999993694e-01 1.700000000000010392e-01 -7.359999999999988773e-01 -3.799999999999994493e-01 8.500000000000016431e-01 7.000000000000015099e-01 -6.199999999999996625e-01 1.219000000000002748e+00 -6.999999999999997335e-01 1.400000000000010125e-01 -1.035999999999998256e+00 -5.899999999999996358e-01 -6.099999999999996536e-01 -9.699999999999999734e-01 6.900000000000015010e-01 9.000000000000016875e-01 6.800000000000183675e-02 -5.899999999999996358e-01 5.250000000000031308e-01 8.300000000000016254e-01 -3.099999999999993872e-01 3.900000000000012346e-01 -5.999999999999996447e-01 5.000000000000013323e-01 -2.499999999999993339e-01 8.100000000000016076e-01 -7.999999999999918288e-02 -3.779999999999985594e-01 -3.199999999999993960e-01 -7.999999999999998224e-01 4.700000000000013056e-01 9.600000000000017408e-01 3.800000000000012257e-01 -4.399999999999995026e-01 -4.999999999999915623e-02 1.230000000000017746e-01 7.400000000000015454e-01 -8.199999999999998401e-01 -3.499999999999994227e-01 -1.449999999999982414e-01 -7.399999999999997691e-01 -8.599999999999998757e-01 -5.699999999999996181e-01 7.900000000000015898e-01 4.300000000000012701e-01 -6.099999999999996536e-01 -1.359999999999983444e-01 -2.479999999999984439e-01 8.600000000000016520e-01 -9.499999999999999556e-01 9.600000000000017408e-01 -9.499999999999999556e-01 -1.399999999999992362e-01 9.600000000000017408e-01 -7.299999999999997602e-01 8.650000000000035438e-01 -8.199999999999998401e-01 9.000000000000096811e-02 1.500000000000010214e-01 -8.899999999999999023e-01 -2.199999999999984190e-01 -4.099999999999994760e-01 7.300000000000015365e-01 -1.899999999999992806e-01 -9.599999999999999645e-01 7.800000000000015810e-01 -5.699999999999996181e-01 -6.999999999999997335e-01 1.400000000000010125e-01 -1.008999999999999009e+00 1.100000000000009859e-01 -4.799999999999995381e-01 -3.199999999999993960e-01 7.800000000000015810e-01 -1.399999999999992362e-01 9.000000000000016875e-01 4.600000000000012967e-01 3.600000000000012079e-01 6.800000000000014921e-01 1.650000000000003242e+00 -1.100999999999999091e+00 4.200000000000181366e-02 6.470000000000024620e-01 5.500000000000013767e-01 8.100000000000016076e-01 -4.099999999999994760e-01
8.200000000000016165e-01 -2.509999999999983356e-01 6.700000000000014833e-01 3.900000000000012346e-01 -1.699999999999992628e-01 5.000000000000093259e-02 3.500000000000011990e-01 -4.999999999999915623e-02 -1.758999999999999009e+00 6.000000000000094147e-02 8.300000000000016254e-01 -8.399999999999998579e-01 3.690000000000021041e-01 1.580000000000019167e-01 -9.699999999999999734e-01 9.100000000000016964e-01 1.100000000000009859e-01 3.480000000000020854e-01 -9.299999999999999378e-01 -2.919999999999984830e-01 5.940000000000023039e-01 8.600000000000016520e-01 -1.529999999999984706e-01 4.000000000000092371e-02 -7.739999999999989111e-01 9.000000000000016875e-01 -3.599999999999994316e-01 -3.099999999999993872e-01 -4.539999999999986269e-01 6.520000000000023554e-01 8.500000000000016431e-01 5.000000000000093259e-02 -4.099999999999994760e-01 -2.899999999999993694e-01 -2.999999999999913847e-02 -9.699999999999999734e-01 9.000000000000096811e-02 1.500000000000010214e-01 -7.599999999999997868e-01 2.400000000000011013e-01 -7.599999999999997868e-01 -5.599999999999996092e-01 1.770000000000019336e-01 -3.999999999999914735e-02 1.049000000000002597e+00 4.700000000000013056e-01 3.300000000000011813e-01 2.300000000000010925e-01 -4.599999999999995204e-01 -1.999999999999992895e-01 1.328000000000002956e+00 4.100000000000012523e-01 3.500000000000011990e-01 4.170000000000021467e-01 2.800000000000011369e-01 8.900000000000016787e-01 9.500000000000017319e-01 -1.308999999999999275e+00 7.000000000000095035e-02 -3.499999999999994227e-01 5.100000000000032285e-01 -9.899999999999831157e-02 -4.299999999999994937e-01 7.350000000000023181e-01 6.910000000000025011e-01 1.400000000000010125e-01 7.590000000000025615e-01 -5.299999999999995826e-01 5.100000000000013411e-01 1.000000000000009770e-01 3.600000000000012079e-01 -7.099999999999997424e-01 7.410000000000025455e-01 2.300000000000010925e-01 3.800000000000012257e-01 -1.999999999999992895e-01 8.600000000000016520e-01 4.800000000000013145e-01 5.700000000000013944e-01 -5.999999999999916511e-02 -2.099999999999992983e-01 6.000000000000014211e-01 -6.999999999999917399e-02 -1.001999999999998225e+00 -2.299999999999993161e-01 1.141000000000002901e+00 -1.401999999999999469e+00 -6.999999999999997335e-01 4.600000000000012967e-01 -5.999999999999996447e-01 6.600000000000183498e-02 6.800000000000014921e-01 8.600000000000016520e-01 5.800000000000014033e-01 6.700000000000014833e-01 3.100000000000011635e-01 -9.799999999999999822e-01 9.000000000000016875e-01 -9.099999999999999201e-01 6.700000000000014833e-01 -8.299999999999998490e-01 -9.999999999999120703e-03 -4.699999999999995293e-01 -2.699999999999993516e-01 -7.699999999999997957e-01 -3.699999999999994404e-01 -2.599999999999993427e-01 1.600000000000010303e-01 -1.542999999999999705e+00 4.100000000000012523e-01 -7.699999999999997957e-01 -9.999999999999920064e-02 -7.699999999999997957e-01 -2.669999999999984608e-01 -9.459999999999990639e-01 5.500000000000013767e-01 -8.199999999999998401e-01 1.800000000000010481e-01 -3.999999999999914735e-02 7.300000000000015365e-01 -7.809999999999989173e-01 4.370000000000020535e-01 8.600000000000016520e-01 7.400000000000015454e-01 -4.499999999999995115e-01 2.700000000000011280e-01 -1.520999999999999464e+00 -8.099999999999998312e-01 -7.299999999999997602e-01 3.500000000000011990e-01 -3.999999999999914735e-02 3.000000000000091482e-02 5.950000000000021938e-01 4.100000000000012523e-01 -4.899999999999995470e-01 -1.599999999999992539e-01 1.200000000000009948e-01 1.900000000000010569e-01 7.890000000000025882e-01 -7.799999999999998046e-01 -2.399999999999993250e-01 -6.399999999999996803e-01 1.300000000000010036e-01 -1.209999999999983311e-01 7.100000000000015188e-01 2.300000000000010925e-01 -8.199999999999998401e-01 -7.299999999999997602e-01 4.400000000000012790e-01 2.580000000000020055e-01 3.800000000000012257e-01 4.200000000000012612e-01 -1.295999999999999375e+00 7.900000000000015898e-01 1.620000000000019202e-01 -6.699999999999997069e-01 9.200000000000017053e-01 -2.899999999999993694e-01 1.700000000000010392e-01 -7.359999999999988773e-01 -3.799999999999994493e-01 8.500000000000016431e-01 7.000000000000015099e-01 -6.199999999999996625e-01 1.219000000000002748e+00 -6.999999999999997335e-01 1.400000000000010125e-01 -9.079999999999990301e-01 -5.899999999999996358e-01 -6.099999999999996536e-01 -9.699999999999999734e-01 7.000000000001782574e-03 9.000000000000016875e-01 6.800000000000183675e-02 -5.899999999999996358e-01 -1.599999999999992539e-01 8.300000000000016254e-01 -3.099999999999993872e-01 3.900000000000012346e-01 -5.999999999999996447e-01 5.000000000000013323e-01 -2.499999999999993339e-01 8.100000000000016076e-01 -7.999999999999918288e-02 -3.779999999999985594e-01 -3.199999999999993960e-01 -7.999999999999998224e-01 4.700000000000013056e-01 9.600000000000017408e-01 3.800000000000012257e-01 -4.399999999999995026e-01 -4.999999999999915623e-02 1.230000000000017746e-01 7.400000000000015454e-01 -8.199999999999998401e-01 -3.499999999999994227e-01 -1.449999999999982414e-01 -7.399999999999997691e-01 -8.599999999999998757e-01 -5.699999999999996181e-01 7.900000000000015898e-01 4.300000000000012701e-01 -6.099999999999996536e-01 -1.359999999999983444e-01 -2.479999999999984439e-01 8.600000000000016520e-01 -9.499999999999999556e-01 9.600000000000017408e-01 -1.694999999999999840e+00 -1.399999999999992362e-01 9.600000000000017408e-01 -7.299999999999997602e-01 8.650000000000035438e-01 -8.199999999999998401e-01 9.000000000000096811e-02 1.500000000000010214e-01 -8.899999999999999023e-01 -2.199999999999984190e-01 -4.099999999999994760e-01 7.300000000000015365e-01 -1.899999999999992806e-01 -9.599999999999999645e-01 7.800000000000015810e-01 -5.699999999999996181e-01 -6.999999999999997335e-01 -4.599999999999995204e-01 -1.008999999999999009e+00 1.100000000000009859e-01 -4.799999999999995381e-01 -3.199999999999993960e-01 7.800000000000015810e-01 -1.399999999999992362e-01 9.000000000000016875e-01 4.600000000000012967e-01 3.600000000000012079e-01 6.800000000000014921e-01 1.650000000000003242e+00 -8.099999999999998312e-01 4.200000000000181366e-02 1.529000000000004134e+00 5.500000000000013767e-01 8.100000000000016076e-01 -4.099999999999994760e-01
8.200000000000016165e-01 -2.509999999999983356e-01 6.700000000000014833e-01 3.900000000000012346e-01 -1.699999999999992628e-01 5.000000000000093259e-02 3.500000000000011990e-01 -4.999999999999915623e-02 -1.758999999999999009e+00 6.000000000000094147e-02 8.300000000000016254e-01 -8.399999999999998579e-01 7.390000000000033209e-01 5.900000000000014122e-01 -9.699999999999999734e-01 9.100000000000016964e-01 1.100000000000009859e-01 3.480000000000020854e-01 -9.299999999999999378e-01 -2.919999999999984830e-01 5.940000000000023039e-01 8.600000000000016520e-01 -1.529999999999984706e-01 4.000000000000092371e-02 -7.739999999999989111e-01 9.000000000000016875e-01 -3.599999999999994316e-01 -3.099999999999993872e-01 -4.539999999999986269e-01 6.520000000000023554e-01 8.500000000000016431e-01 5.000000000000093259e-02 -4.099999999999994760e-01 -2.899999999999993694e-01 -2.999999999999913847e-02 -9.699999999999999734e-01 9.000000000000096811e-02 1.082000000000002737e+00 -7.599999999999997868e-01 2.400000000000011013e-01 -7.599999999999997868e-01 -5.599999999999996092e-01 1.770000000000019336e-01 -3.999999999999914735e-02 1.049000000000002597e+00 4.700000000000013056e-01 3.300000000000011813e-01 2.300000000000010925e-01 -4.599999999999995204e-01 -1.999999999999992895e-01 1.328000000000002956e+00 4.100000000000012523e-01 3.500000000000011990e-01 4.170000000000021467e-01 2.800000000000011369e-01 8.900000000000016787e-01 9.500000000000017319e-01 -1.308999999999999275e+00 7.000000000000095035e-02 -3.499999999999994227e-01 5.100000000000032285e-01 -9.899999999999831157e-02 -4.299999999999994937e-01 7.350000000000023181e-01 3.830000000000031157e-01 3.140000000000020552e-01 7.590000000000025615e-01 -5.299999999999995826e-01 5.100000000000013411e-01 1.000000000000009770e-01 3.600000000000012079e-01 -7.099999999999997424e-01 7.410000000000025455e-01 2.300000000000010925e-01 3.800000000000012257e-01 -1.999999999999992895e-01 8.600000000000016520e-01 4.800000000000013145e-01 5.700000000000013944e-01 -5.999999999999916511e-02 -2.099999999999992983e-01 6.000000000000014211e-01 -6.999999999999917399e-02 -1.001999999999998225e+00 -2.299999999999993161e-01 1.141000000000002901e+00 -8.199999999999998401e-01 -6.999999999999997335e-01 4.600000000000012967e-01 -5.999999999999996447e-01 3.800000000000012257e-01 6.800000000000014921e-01 8.600000000000016520e-01 5.800000000000014033e-01 6.700000000000014833e-01 3.100000000000011635e-01 -9.799999999999999822e-01 9.000000000000016875e-01 -9.099999999999999201e-01 6.700000000000014833e-01 -8.299999999999998490e-01 -9.999999999999120703e-03 -4.699999999999995293e-01 -2.699999999999993516e-01 -7.699999999999997957e-01 -3.699999999999994404e-01 -2.599999999999993427e-01 1.600000000000010303e-01 -8.799999999999998934e-01 4.100000000000012523e-01 -7.699999999999997957e-01 -9.999999999999920064e-02 -7.699999999999997957e-01 5.300000000000013589e-01 -9.459999999999990639e-01 4.660000000000021902e-01 -8.199999999999998401e-01 1.800000000000010481e-01 -3.999999999999914735e-02 7.300000000000015365e-01 -7.809999999999989173e-01 4.370000000000020535e-01 8.600000000000016520e-01 7.400000000000015454e-01 -4.029999999999984706e-01 2.700000000000011280e-01 -1.520999999999999464e+00 -8.099999999999998312e-01 -7.299999999999997602e-01 3.500000000000011990e-01 -3.999999999999914735e-02 3.000000000000091482e-02 5.000000000000093259e-02 4.100000000000012523e-01 -4.899999999999995470e-01 -1.599999999999992539e-01 1.200000000000009948e-01 1.900000000000010569e-01 7.890000000000025882e-01 -7.799999999999998046e-01 -2.399999999999993250e-01 -6.399999999999996803e-01 1.300000000000010036e-01 -1.209999999999983311e-01 7.100000000000015188e-01 2.300000000000010925e-01 -8.199999999999998401e-01 -7.299999999999997602e-01 4.400000000000012790e-01 -3.699999999999994404e-01 3.800000000000012257e-01 4.200000000000012612e-01 -8.099999999999998312e-01 7.900000000000015898e-01 1.620000000000019202e-01 -6.699999999999997069e-01 9.200000000000017053e-01 -2.899999999999993694e-01 1.700000000000010392e-01 -7.359999999999988773e-01 -3.799999999999994493e-01 -6.999999999999828582e-02 7.000000000000015099e-01 -6.199999999999996625e-01 1.219000000000002748e+00 -6.999999999999997335e-01 1.400000000000010125e-01 -9.079999999999990301e-01 -1.202999999999999403e+00 -6.099999999999996536e-01 -9.699999999999999734e-01 7.000000000001782574e-03 9.000000000000016875e-01 6.800000000000183675e-02 -5.899999999999996358e-01 -1.599999999999992539e-01 8.300000000000016254e-01 -3.099999999999993872e-01 3.900000000000012346e-01 -5.999999999999996447e-01 5.000000000000013323e-01 -2.499999999999993339e-01 8.100000000000016076e-01 -7.999999999999918288e-02 -3.779999999999985594e-01 -3.199999999999993960e-01 -7.999999999999998224e-01 4.700000000000013056e-01 9.600000000000017408e-01 3.800000000000012257e-01 -4.399999999999995026e-01 -4.999999999999915623e-02 1.230000000000017746e-01 7.400000000000015454e-01 -8.199999999999998401e-01 -3.499999999999994227e-01 -1.449999999999982414e-01 -7.399999999999997691e-01 -8.599999999999998757e-01 -5.699999999999996181e-01 7.900000000000015898e-01 4.300000000000012701e-01 -6.099999999999996536e-01 -1.359999999999983444e-01 -2.479999999999984439e-01 8.600000000000016520e-01 -9.499999999999999556e-01 9.600000000000017408e-01 -9.499999999999999556e-01 -1.399999999999992362e-01 9.600000000000017408e-01 -7.299999999999997602e-01 8.650000000000035438e-01 -8.199999999999998401e-01 9.000000000000096811e-02 1.500000000000010214e-01 -1.282999999999999474e+00 -2.199999999999984190e-01 -4.099999999999994760e-01 7.300000000000015365e-01 -1.899999999999992806e-01 -9.599999999999999645e-01 7.800000000000015810e-01 -8.499999999999741096e-02 -6.999999999999997335e-01 -4.599999999999995204e-01 -1.008999999999999009e+00 1.100000000000009859e-01 -4.799999999999995381e-01 -3.199999999999993960e-01 7.800000000000015810e-01 -1.399999999999992362e-01 9.000000000000016875e-01 4.600000000000012967e-01 3.600000000000012079e-01 6.800000000000014921e-01 1.650000000000003242e+00 -8.099999999999998312e-01 4.200000000000181366e-02 6.470000000000024620e-01 5.500000000000013767e-01 8.100000000000016076e-01 -4.099999999999994760e-01
8.200000000000016165e-01 -2.509999999999983356e-01 6.700000000000014833e-01 3.900000000000012346e-01 -1.699999999999992628e-01 5.000000000000093259e-02 3.500000000000011990e-01 -4.999999999999915623e-02 -1.758999999999999009e+00 6.000000000000094147e-02 8.300000000000016254e-01 -8.399999999999998579e-01 3.690000000000021041e-01 5.900000000000014122e-01 -9.699999999999999734e-01 2.750000000000020206e-01 1.100000000000009859e-01 4.800000000000013145e-01 -9.299999999999999378e-01 -2.919999999999984830e-01 5.940000000000023039e-01 8.600000000000016520e-01 -1.529999999999984706e-01 4.000000000000092371e-02 -5.699999999999996181e-01 9.000000000000016875e-01 -3.599999999999994316e-01 -3.099999999999993872e-01 -1.099999999999974332e-01 6.520000000000023554e-01 8.500000000000016431e-01 5.000000000000093259e-02 -4.099999999999994760e-01 -2.899999999999993694e-01 -2.999999999999913847e-02 -1.707999999999999741e+00 9.000000000000096811e-02 1.500000000000010214e-01 -7.599999999999997868e-01 2.400000000000011013e-01 -7.599999999999997868e-01 -5.599999999999996092e-01 1.770000000000019336e-01 -3.999999999999914735e-02 1.049000000000002597e+00 4.700000000000013056e-01 3.300000000000011813e-01 2.300000000000010925e-01 -4.599999999999995204e-01 -1.999999999999992895e-01 1.328000000000002956e+00 2.080000000000019611e-01 3.500000000000011990e-01 8.000000000000015987e-01 2.800000000000011369e-01 8.900000000000016787e-01 9.500000000000017319e-01 -1.308999999999999275e+00 7.000000000000095035e-02 -3.499999999999994227e-01 5.100000000000032285e-01 -9.899999999999831157e-02 -4.299999999999994937e-01 7.350000000000023181e-01 1.000000000000009770e-01 1.400000000000010125e-01 7.590000000000025615e-01 -5.299999999999995826e-01 5.100000000000013411e-01 1.000000000000009770e-01 3.600000000000012079e-01 -7.099999999999997424e-01 7.410000000000025455e-01 2.300000000000010925e-01 3.800000000000012257e-01 -1.999999999999992895e-01 8.600000000000016520e-01 4.800000000000013145e-01 5.700000000000013944e-01 -5.999999999999916511e-02 -7.259999999999988685e-01 6.000000000000014211e-01 -6.999999999999917399e-02 -1.001999999999998225e+00 -2.299999999999993161e-01 1.141000000000002901e+00 -8.199999999999998401e-01 -6.999999999999997335e-01 4.600000000000012967e-01 -5.999999999999996447e-01 3.800000000000012257e-01 6.800000000000014921e-01 8.600000000000016520e-01 5.800000000000014033e-01 6.700000000000014833e-01 3.100000000000011635e-01 -9.799999999999999822e-01 9.000000000000016875e-01 -9.099999999999999201e-01 6.700000000000014833e-01 -8.299999999999998490e-01 -9.999999999999120703e-03 -4.699999999999995293e-01 -2.699999999999993516e-01 -7.699999999999997957e-01 -3.699999999999994404e-01 -2.599999999999993427e-01 1.600000000000010303e-01 -1.542999999999999705e+00 4.100000000000012523e-01 -7.699999999999997957e-01 -9.999999999999920064e-02 -7.699999999999997957e-01 5.300000000000013589e-01 -9.459999999999990639e-01 5.500000000000013767e-01 -8.199999999999998401e-01 1.800000000000010481e-01 -3.999999999999914735e-02 7.300000000000015365e-01 -7.809999999999989173e-01 4.370000000000020535e-01 8.600000000000016520e-01 7.400000000000015454e-01 4.840000000000022062e-01 2.700000000000011280e-01 -1.520999999999999464e+00 -8.099999999999998312e-01 -7.299999999999997602e-01 3.500000000000011990e-01 -3.999999999999914735e-02 7.570000000000025597e-01 5.000000000000093259e-02 4.100000000000012523e-01 -4.899999999999995470e-01 -1.599999999999992539e-01 1.200000000000009948e-01 1.900000000000010569e-01 7.890000000000025882e-01 -7.799999999999998046e-01 -2.399999999999993250e-01 -6.399999999999996803e-01 1.300000000000010036e-01 -1.209999999999983311e-01 7.100000000000015188e-01 2.300000000000010925e-01 -8.199999999999998401e-01 -7.299999999999997602e-01 4.400000000000012790e-01 -3.699999999999994404e-01 2.700000000000180034e-02 4.200000000000012612e-01 -8.099999999999998312e-01 7.900000000000015898e-01 -5.599999999999738520e-02 -6.699999999999997069e-01 9.200000000000017053e-01 -2.899999999999993694e-01 1.700000000000010392e-01 -7.359999999999988773e-01 -3.799999999999994493e-01 8.500000000000016431e-01 7.000000000000015099e-01 -6.199999999999996625e-01 1.219000000000002748e+00 -6.999999999999997335e-01 1.400000000000010125e-01 -1.035999999999998256e+00 -1.380999999999999339e+00 -6.099999999999996536e-01 -9.699999999999999734e-01 7.000000000001782574e-03 9.000000000000016875e-01 6.800000000000183675e-02 -5.899999999999996358e-01 5.250000000000031308e-01 8.300000000000016254e-01 -3.099999999999993872e-01 3.900000000000012346e-01 3.260000000000020659e-01 5.000000000000013323e-01 -2.499999999999993339e-01 8.100000000000016076e-01 -7.999999999999918288e-02 -3.779999999999985594e-01 -3.199999999999993960e-01 -7.999999999999998224e-01 4.700000000000013056e-01 9.600000000000017408e-01 3.800000000000012257e-01 -4.399999999999995026e-01 -4.999999999999915623e-02 1.230000000000017746e-01 7.400000000000015454e-01 -8.199999999999998401e-01 -3.499999999999994227e-01 -1.449999999999982414e-01 -7.399999999999997691e-01 -8.599999999999998757e-01 -5.699999999999996181e-01 7.900000000000015898e-01 4.300000000000012701e-01 -6.099999999999996536e-01 -1.359999999999983444e-01 5.400000000000013678e-01 8.600000000000016520e-01 -9.499999999999999556e-01 9.600000000000017408e-01 -9.499999999999999556e-01 -1.399999999999992362e-01 9.600000000000017408e-01 -7.299999999999997602e-01 8.650000000000035438e-01 -8.199999999999998401e-01 9.000000000000096811e-02 1.500000000000010214e-01 -8.899999999999999023e-01 -2.199999999999984190e-01 -4.099999999999994760e-01 7.300000000000015365e-01 -1.899999999999992806e-01 -9.599999999999999645e-01 7.800000000000015810e-01 -5.699999999999996181e-01 -6.999999999999997335e-01 1.400000000000010125e-01 -1.008999999999999009e+00 1.100000000000009859e-01 -4.799999999999995381e-01 -3.199999999999993960e-01 7.800000000000015810e-01 -1.399999999999992362e-01 9.000000000000016875e-01 4.600000000000012967e-01 3.600000000000012079e-01 6.800000000000014921e-01 1.650000000000003242e+00 -8.099999999999998312e-01 4.200000000000181366e-02 1.529000000000004134e+00 5.500000000000013767e-01 8.100000000000016076e-01 -4.099999999999994760e-01
8.200000000000016165e-01 -2.509999999999983356e-01 6.700000000000014833e-01 3.900000000000012346e-01 -1.699999999999992628e-01 5.000000000000093259e-02 3.500000000000011990e-01 -4.999999999999915623e-02 -3.699999999999985523e-01 6.000000000000094147e-02 8.300000000000016254e-01 -8.399999999999998579e-01 3.690000000000021041e-01 5.900000000000014122e-01 -9.699999999999999734e-01 9.100000000000016964e-01 1.100000000000009859e-01 3.480000000000020854e-01 -9.299999999999999378e-01 -2.919999999999984830e-01 5.940000000000023039e-01 8.600000000000016520e-01 -1.529999999999984706e-01 4.000000000000092371e-02 -5.699999999999996181e-01 9.000000000000016875e-01 -3.599999999999994316e-01 -3.099999999999993872e-01 -4.539999999999986269e-01 6.520000000000023554e-01 8.500000000000016431e-01 5.000000000000093259e-02 -4.099999999999994760e-01 -2.899999999999993694e-01 -2.999999999999913847e-02 -1.348999999999999311e+00 9.000000000000096811e-02 1.500000000000010214e-01 -7.599999999999997868e-01 2.400000000000011013e-01 -7.599999999999997868e-01 -5.599999999999996092e-01 1.770000000000019336e-01 -3.999999999999914735e-02 1.049000000000002597e+00 4.700000000000013056e-01 3.300000000000011813e-01 2.300000000000010925e-01 -4.599999999999995204e-01 -1.999999999999992895e-01 1.328000000000002956e+00 4.100000000000012523e-01 3.500000000000011990e-01 4.170000000000021467e-01 2.800000000000011369e-01 8.900000000000016787e-01 9.500000000000017319e-01 -1.308999999999999275e+00 7.000000000000095035e-02 -3.499999999999994227e-01 5.100000000000032285e-01 -9.899999999999831157e-02 -4.299999999999994937e-01 4.700000000000013056e-01 6.910000000000025011e-01 1.400000000000010125e-01 7.590000000000025615e-01 -5.299999999999995826e-01 5.100000000000013411e-01 1.000000000000009770e-01 3.600000000000012079e-01 -7.099999999999997424e-01 7.410000000000025455e-01 2.300000000000010925e-01 3.800000000000012257e-01 -1.999999999999992895e-01 8.600000000000016520e-01 4.800000000000013145e-01 5.700000000000013944e-01 -5.999999999999916511e-02 -2.099999999999992983e-01 6.000000000000014211e-01 -6.999999999999917399e-02 -1.001999999999998225e+00 -2.299999999999993161e-01 1.141000000000002901e+00 -8.199999999999998401e-01 -6.999999999999997335e-01 4.600000000000012967e-01 -5.999999999999996447e-01 3.800000000000012257e-01 6.800000000000014921e-01 8.600000000000016520e-01 5.800000000000014033e-01 6.700000000000014833e-01 3.100000000000011635e-01 -9.799999999999999822e-01 9.000000000000016875e-01 -9.099999999999999201e-01 6.700000000000014833e-01 -8.299999999999998490e-01 -9.999999999999120703e-03 -4.699999999999995293e-01 -2.699999999999993516e-01 -7.699999999999997957e-01 -3.699999999999994404e-01 -2.599999999999993427e-01 1.600000000000010303e-01 -1.542999999999999705e+00 4.100000000000012523e-01 -7.699999999999997957e-01 -9.999999999999920064e-02 -7.699999999999997957e-01 9.000000000000025757e-01 -9.459999999999990639e-01 5.500000000000013767e-01 -8.199999999999998401e-01 1.800000000000010481e-01 -3.999999999999914735e-02 7.300000000000015365e-01 -7.809999999999989173e-01 1.800000000000010481e-01 8.600000000000016520e-01 7.400000000000015454e-01 -4.499999999999995115e-01 2.700000000000011280e-01 -1.520999999999999464e+00 -8.099999999999998312e-01 -7.299999999999997602e-01 3.500000000000011990e-01 -3.999999999999914735e-02 3.000000000000091482e-02 5.000000000000093259e-02 4.100000000000012523e-01 -4.899999999999995470e-01 -1.599999999999992539e-01 1.200000000000009948e-01 1.900000000000010569e-01 7.890000000000025882e-01 -7.799999999999998046e-01 -2.399999999999993250e-01 -6.399999999999996803e-01 1.300000000000010036e-01 -1.209999999999983311e-01 7.100000000000015188e-01 2.300000000000010925e-01 -8.199999999999998401e-01 -7.299999999999997602e-01 4.400000000000012790e-01 -3.699999999999994404e-01 9.340000000000026059e-01 4.200000000000012612e-01 -8.099999999999998312e-01 7.900000000000015898e-01 1.620000000000019202e-01 -6.699999999999997069e-01 9.200000000000017053e-01 -2.899999999999993694e-01 1.700000000000010392e-01 -7.359999999999988773e-01 -3.799999999999994493e-01 8.500000000000016431e-01 7.000000000000015099e-01 -6.199999999999996625e-01 1.219000000000002748e+00 -6.999999999999997335e-01 1.400000000000010125e-01 -9.079999999999990301e-01 -3.089999999999986091e-01 -6.099999999999996536e-01 -9.699999999999999734e-01 7.000000000001782574e-03 9.000000000000016875e-01 3.000000000000029310e-01 -5.899999999999996358e-01 -1.599999999999992539e-01 8.300000000000016254e-01 -3.099999999999993872e-01 3.900000000000012346e-01 -5.999999999999996447e-01 5.000000000000013323e-01 -2.499999999999993339e-01 8.100000000000016076e-01 -7.999999999999918288e-02 -3.779999999999985594e-01 -3.199999999999993960e-01 -7.999999999999998224e-01 4.700000000000013056e-01 9.600000000000017408e-01 3.800000000000012257e-01 -4.399999999999995026e-01 -4.999999999999915623e-02 1.230000000000017746e-01 7.400000000000015454e-01 -8.199999999999998401e-01 -3.499999999999994227e-01 -1.449999999999982414e-01 -7.399999999999997691e-01 -8.599999999999998757e-01 -5.699999999999996181e-01 7.900000000000015898e-01 4.300000000000012701e-01 -6.099999999999996536e-01 -1.359999999999983444e-01 -2.479999999999984439e-01 8.600000000000016520e-01 -9.499999999999999556e-01 9.600000000000017408e-01 -9.499999999999999556e-01 -1.399999999999992362e-01 9.600000000000017408e-01 -7.299999999999997602e-01 8.650000000000035438e-01 -8.199999999999998401e-01 9.000000000000096811e-02 1.500000000000010214e-01 -8.899999999999999023e-01 -2.199999999999984190e-01 -4.099999999999994760e-01 7.300000000000015365e-01 -1.899999999999992806e-01 -9.599999999999999645e-01 7.740000000000024638e-01 -5.699999999999996181e-01 -6.999999999999997335e-01 1.400000000000010125e-01 -1.008999999999999009e+00 1.100000000000009859e-01 -4.799999999999995381e-01 -3.199999999999993960e-01 7.800000000000015810e-01 -1.399999999999992362e-01 9.000000000000016875e-01 4.600000000000012967e-01 3.600000000000012079e-01 6.800000000000014921e-01 2.231000000000004313e+00 -8.099999999999998312e-01 4.200000000000181366e-02 6.470000000000024620e-01 5.500000000000013767e-01 8.100000000000016076e-01 -4.099999999999994760e-01
8.200000000000016165e-01 -2.509999999999983356e-01 6.700000000000014833e-01 3.900000000000012346e-01 -1.699999999999992628e-01 5.000000000000093259e-02 3.500000000000011990e-01 -4.999999999999915623e-02 -2.299999999999993161e-01 6.000000000000094147e-02 8.300000000000016254e-01 -8.399999999999998579e-01 7.390000000000033209e-01 5.900000000000014122e-01 -9.699999999999999734e-01 2.750000000000020206e-01 1.100000000000009859e-01 4.800000000000013145e-01 -9.299999999999999378e-01 -2.919999999999984830e-01 5.940000000000023039e-01 8.600000000000016520e-01 -1.529999999999984706e-01 4.000000000000092371e-02 -5.699999999999996181e-01 9.000000000000016875e-01 -3.599999999999994316e-01 -3.099999999999993872e-01 -4.539999999999986269e-01 6.520000000000023554e-01 8.500000000000016431e-01 5.000000000000093259e-02 -4.099999999999994760e-01 -2.899999999999993694e-01 -2.999999999999913847e-02 -9.699999999999999734e-01 9.000000000000096811e-02 1.500000000000010214e-01 -7.599999999999997868e-01 2.400000000000011013e-01 -7.599999999999997868e-01 -5.599999999999996092e-01 1.770000000000019336e-01 -3.999999999999914735e-02 1.049000000000002597e+00 4.700000000000013056e-01 3.300000000000011813e-01 2.300000000000010925e-01 -4.599999999999995204e-01 -1.999999999999992895e-01 1.328000000000002956e+00 2.080000000000019611e-01 3.500000000000011990e-01 4.170000000000021467e-01 2.800000000000011369e-01 8.900000000000016787e-01 9.500000000000017319e-01 -1.308999999999999275e+00 7.000000000000095035e-02 -3.499999999999994227e-01 5.100000000000032285e-01 -9.899999999999831157e-02 -4.299999999999994937e-01 4.700000000000013056e-01 6.910000000000025011e-01 1.400000000000010125e-01 7.590000000000025615e-01 -5.299999999999995826e-01 5.100000000000013411e-01 1.000000000000009770e-01 3.600000000000012079e-01 -7.099999999999997424e-01 7.410000000000025455e-01 2.300000000000010925e-01 3.800000000000012257e-01 -1.739999999999983782e-01 8.600000000000016520e-01 4.800000000000013145e-01 5.700000000000013944e-01 -5.999999999999916511e-02 -7.259999999999988685e-01 6.000000000000014211e-01 -6.999999999999917399e-02 -1.001999999999998225e+00 -2.299999999999993161e-01 1.141000000000002901e+00 -8.199999999999998401e-01 -6.999999999999997335e-01 4.600000000000012967e-01 -5.999999999999996447e-01 3.800000000000012257e-01 6.800000000000014921e-01 8.600000000000016520e-01 5.800000000000014033e-01 6.700000000000014833e-01 3.100000000000011635e-01 -9.799999999999999822e-01 9.000000000000016875e-01 -9.099999999999999201e-01 6.700000000000014833e-01 -8.299999999999998490e-01 -9.999999999999120703e-03 -4.699999999999995293e-01 -5.699999999999987299e-01 -7.699999999999997957e-01 -3.699999999999994404e-01 -2.599999999999993427e-01 1.600000000000010303e-01 -1.542999999999999705e+00 4.100000000000012523e-01 -7.699999999999997957e-01 -9.999999999999920064e-02 -7.699999999999997957e-01 5.300000000000013589e-01 -9.459999999999990639e-01 4.660000000000021902e-01 -8.199999999999998401e-01 1.800000000000010481e-01 -3.999999999999914735e-02 7.300000000000015365e-01 -7.809999999999989173e-01 1.800000000000010481e-01 8.600000000000016520e-01 7.400000000000015454e-01 4.840000000000022062e-01 2.700000000000011280e-01 -1.520999999999999464e+00 -8.099999999999998312e-01 -7.299999999999997602e-01 3.500000000000011990e-01 -3.999999999999914735e-02 3.000000000000091482e-02 5.000000000000093259e-02 4.100000000000012523e-01 -4.899999999999995470e-01 -1.599999999999992539e-01 1.200000000000009948e-01 1.900000000000010569e-01 7.890000000000025882e-01 -7.799999999999998046e-01 -2.399999999999993250e-01 -6.399999999999996803e-01 1.300000000000010036e-01 -1.209999999999983311e-01 7.100000000000015188e-01 2.300000000000010925e-01 -8.199999999999998401e-01 -7.299999999999997602e-01 4.400000000000012790e-01 -3.699999999999994404e-01 2.700000000000180034e-02 4.200000000000012612e-01 -8.099999999999998312e-01 7.900000000000015898e-01 1.620000000000019202e-01 -6.699999999999997069e-01 9.200000000000017053e-01 -2.899999999999993694e-01 1.700000000000010392e-01 -7.359999999999988773e-01 -3.799999999999994493e-01 8.500000000000016431e-01 7.000000000000015099e-01 -6.199999999999996625e-01 1.219000000000002748e+00 -1.449999999999982414e-01 1.400000000000010125e-01 -9.079999999999990301e-01 -3.089999999999986091e-01 -6.099999999999996536e-01 -9.699999999999999734e-01 6.900000000000015010e-01 9.000000000000016875e-01 6.800000000000183675e-02 -5.899999999999996358e-01 -1.599999999999992539e-01 8.300000000000016254e-01 -3.099999999999993872e-01 3.900000000000012346e-01 -5.999999999999996447e-01 5.000000000000013323e-01 -2.499999999999993339e-01 8.100000000000016076e-01 -7.999999999999918288e-02 -3.779999999999985594e-01 -3.199999999999993960e-01 -7.999999999999998224e-01 4.700000000000013056e-01 9.600000000000017408e-01 3.800000000000012257e-01 -4.399999999999995026e-01 -4.999999999999915623e-02 1.230000000000017746e-01 7.400000000000015454e-01 -8.199999999999998401e-01 -3.499999999999994227e-01 -1.449999999999982414e-01 -7.399999999999997691e-01 -8.599999999999998757e-01 -5.699999999999996181e-01 7.900000000000015898e-01 4.300000000000012701e-01 -6.099999999999996536e-01 -1.359999999999983444e-01 -2.479999999999984439e-01 8.600000000000016520e-01 -9.499999999999999556e-01 9.600000000000017408e-01 -9.499999999999999556e-01 -1.399999999999992362e-01 9.600000000000017408e-01 -7.299999999999997602e-01 8.650000000000035438e-01 -8.199999999999998401e-01 9.000000000000096811e-02 1.500000000000010214e-01 -7.909999999999988152e-01 -1.399999999999992362e-01 -4.099999999999994760e-01 7.300000000000015365e-01 -1.899999999999992806e-01 -9.599999999999999645e-01 7.800000000000015810e-01 -5.699999999999996181e-01 -6.999999999999997335e-01 1.400000000000010125e-01 -1.008999999999999009e+00 1.100000000000009859e-01 -4.799999999999995381e-01 -3.199999999999993960e-01 7.800000000000015810e-01 -1.399999999999992362e-01 9.000000000000016875e-01 4.600000000000012967e-01 3.600000000000012079e-01 6.800000000000014921e-01 1.650000000000003242e+00 -1.100999999999999091e+00 4.200000000000181366e-02 1.529000000000004134e+00 5.500000000000013767e-01 8.100000000000016076e-01 -4.099999999999994760e-01
8.200000000000016165e-01 -2.509999999999983356e-01 6.700000000000014833e-01 3.900000000000012346e-01 -1.699999999999992628e-01 5.000000000000093259e-02 3.500000000000011990e-01 -4.999999999999915623e-02 -1.758999999999999009e+00 6.000000000000094147e-02 8.300000000000016254e-01 -8.399999999999998579e-01 3.690000000000021041e-01 5.900000000000014122e-01 -9.699999999999999734e-01 9.100000000000016964e-01 1.100000000000009859e-01 4.800000000000013145e-01 -9.299999999999999378e-01 -2.919999999999984830e-01 5.940000000000023039e-01 8.600000000000016520e-01 -1.529999999999984706e-01 4.000000000000092371e-02 -5.699999999999996181e-01 9.000000000000016875e-01 -3.599999999999994316e-01 -3.099999999999993872e-01 -4.539999999999986269e-01 6.520000000000023554e-01 8.500000000000016431e-01 4.430000000000020588e-01 -4.099999999999994760e-01 -2.899999999999993694e-01 -2.999999999999913847e-02 -9.699999999999999734e-01 9.000000000000096811e-02 1.500000000000010214e-01 -7.599999999999997868e-01 2.400000000000011013e-01 -7.599999999999997868e-01 -5.599999999999996092e-01 3.220000000000028395e-01 -3.999999999999914735e-02 1.049000000000002597e+00 4.700000000000013056e-01 3.300000000000011813e-01 2.300000000000010925e-01 -4.599999999999995204e-01 -1.999999999999992895e-01 1.328000000000002956e+00 4.100000000000012523e-01 3.500000000000011990e-01 4.170000000000021467e-01 2.800000000000011369e-01 8.900000000000016787e-01 9.500000000000017319e-01 -1.308999999999999275e+00 7.000000000000095035e-02 -3.499999999999994227e-01 5.100000000000032285e-01 -9.899999999999831157e-02 -4.299999999999994937e-01 7.350000000000023181e-01 6.910000000000025011e-01 1.400000000000010125e-01 7.590000000000025615e-01 -5.299999999999995826e-01 5.100000000000013411e-01 1.000000000000009770e-01 3.600000000000012079e-01 -7.099999999999997424e-01 7.410000000000025455e-01 2.300000000000010925e-01 3.800000000000012257e-01 -1.999999999999992895e-01 1.531000000000003247e+00 4.800000000000013145e-01 4.500000000000181632e-02 -5.999999999999916511e-02 -2.099999999999992983e-01 6.000000000000014211e-01 -6.999999999999917399e-02 -1.001999999999998225e+00 -2.299999999999993161e-01 1.141000000000002901e+00 -8.199999999999998401e-01 -6.999999999999997335e-01 4.600000000000012967e-01 -5.999999999999996447e-01 6.600000000000183498e-02 6.800000000000014921e-01 8.600000000000016520e-01 5.800000000000014033e-01 6.700000000000014833e-01 3.100000000000011635e-01 -9.799999999999999822e-01 9.000000000000016875e-01 -9.099999999999999201e-01 6.700000000000014833e-01 -8.299999999999998490e-01 -9.999999999999120703e-03 -4.699999999999995293e-01 -5.699999999999987299e-01 -7.699999999999997957e-01 -3.699999999999994404e-01 -2.599999999999993427e-01 1.600000000000010303e-01 -1.542999999999999705e+00 4.100000000000012523e-01 -7.699999999999997957e-01 -9.999999999999920064e-02 -7.699999999999997957e-01 -2.669999999999984608e-01 -9.459999999999990639e-01 5.500000000000013767e-01 -8.199999999999998401e-01 1.800000000000010481e-01 -3.999999999999914735e-02 7.300000000000015365e-01 -7.809999999999989173e-01 1.800000000000010481e-01 8.600000000000016520e-01 7.400000000000015454e-01 4.840000000000022062e-01 2.700000000000011280e-01 -1.520999999999999464e+00 -8.099999999999998312e-01 -7.299999999999997602e-01 3.500000000000011990e-01 -3.999999999999914735e-02 3.000000000000091482e-02 5.000000000000093259e-02 4.100000000000012523e-01 -4.899999999999995470e-01 -1.599999999999992539e-01 1.200000000000009948e-01 1.900000000000010569e-01 7.890000000000025882e-01 -7.799999999999998046e-01 -3.099999999999993872e-01 -6.399999999999996803e-01 1.300000000000010036e-01 -1.209999999999983311e-01 7.100000000000015188e-01 2.300000000000010925e-01 -8.199999999999998401e-01 -7.299999999999997602e-01 4.400000000000012790e-01 2.580000000000020055e-01 3.800000000000012257e-01 4.200000000000012612e-01 -8.099999999999998312e-01 7.900000000000015898e-01 1.620000000000019202e-01 -6.699999999999997069e-01 9.200000000000017053e-01 -2.899999999999993694e-01 1.700000000000010392e-01 -7.359999999999988773e-01 -3.799999999999994493e-01 8.500000000000016431e-01 7.000000000000015099e-01 -6.199999999999996625e-01 1.219000000000002748e+00 -6.999999999999997335e-01 1.400000000000010125e-01 -9.079999999999990301e-01 -5.899999999999996358e-01 -6.099999999999996536e-01 -9.699999999999999734e-01 7.000000000001782574e-03 9.000000000000016875e-01 3.000000000000029310e-01 -5.899999999999996358e-01 -1.599999999999992539e-01 8.300000000000016254e-01 -3.099999999999993872e-01 3.900000000000012346e-01 -5.999999999999996447e-01 5.000000000000013323e-01 -2.499999999999993339e-01 8.100000000000016076e-01 -7.999999999999918288e-02 -3.779999999999985594e-01 -3.199999999999993960e-01 -7.999999999999998224e-01 4.700000000000013056e-01 9.600000000000017408e-01 3.800000000000012257e-01 -4.399999999999995026e-01 -4.999999999999915623e-02 1.230000000000017746e-01 7.400000000000015454e-01 -8.199999999999998401e-01 -3.499999999999994227e-01 5.600000000000031619e-01 -7.399999999999997691e-01 -8.599999999999998757e-01 -5.699999999999996181e-01 7.900000000000015898e-01 4.300000000000012701e-01 -6.099999999999996536e-01 -1.359999999999983444e-01 -2.479999999999984439e-01 8.600000000000016520e-01 -9.499999999999999556e-01 9.600000000000017408e-01 -1.694999999999999840e+00 -1.399999999999992362e-01 9.600000000000017408e-01 -7.299999999999997602e-01 8.650000000000035438e-01 -8.199999999999998401e-01 9.000000000000096811e-02 1.500000000000010214e-01 -8.899999999999999023e-01 -1.399999999999992362e-01 -4.099999999999994760e-01 7.300000000000015365e-01 -1.899999999999992806e-01 -1.569999999999982521e-01 7.800000000000015810e-01 -8.499999999999741096e-02 -7.199999999999828759e-02 -4.599999999999995204e-01 -1.008999999999999009e+00 1.100000000000009859e-01 -4.799999999999995381e-01 -3.199999999999993960e-01 7.800000000000015810e-01 -1.399999999999992362e-01 9.000000000000016875e-01 4.600000000000012967e-01 3.600000000000012079e-01 6.800000000000014921e-01 1.650000000000003242e+00 -8.099999999999998312e-01 4.200000000000181366e-02 6.470000000000024620e-01 5.500000000000013767e-01 8.100000000000016076e-01 -4.099999999999994760e-01
4.490000000000021751e-01 -2.509999999999983356e-01 6.700000000000014833e-01 3.900000000000012346e-01 -1.699999999999992628e-01 5.000000000000093259e-02 3.500000000000011990e-01 -4.999999999999915623e-02 -2.299999999999993161e-01 6.000000000000094147e-02 8.300000000000016254e-01 -8.399999999999998579e-01 3.690000000000021041e-01 5.900000000000014122e-01 -9.699999999999999734e-01 2.750000000000020206e-01 1.100000000000009859e-01 4.800000000000013145e-01 -9.299999999999999378e-01 -2.919999999999984830e-01 5.940000000000023039e-01 8.600000000000016520e-01 -1.529999999999984706e-01 4.000000000000092371e-02 -5.699999999999996181e-01 9.000000000000016875e-01 -3.599999999999994316e-01 -3.099999999999993872e-01 -4.539999999999986269e-01 6.520000000000023554e-01 1.801000000000003487e+00 5.000000000000093259e-02 -4.099999999999994760e-01 -2.899999999999993694e-01 -2.999999999999913847e-02 -9.699999999999999734e-01 9.000000000000096811e-02 1.500000000000010214e-01 -7.599999999999997868e-01 2.400000000000011013e-01 -7.599999999999997868e-01 -5.599999999999996092e-01 1.770000000000019336e-01 -3.999999999999914735e-02 1.049000000000002597e+00 4.700000000000013056e-01 3.300000000000011813e-01 9.400000000000026112e-01 -4.599999999999995204e-01 -1.999999999999992895e-01 1.328000000000002956e+00 2.080000000000019611e-01 3.500000000000011990e-01 4.170000000000021467e-01 2.800000000000011369e-01 8.900000000000016787e-01 9.500000000000017319e-01 -1.308999999999999275e+00 7.000000000000095035e-02 -3.499999999999994227e-01 5.100000000000032285e-01 -9.899999999999831157e-02 -4.299999999999994937e-01 4.700000000000013056e-01 6.910000000000025011e-01 1.400000000000010125e-01 7.590000000000025615e-01 -5.299999999999995826e-01 5.100000000000013411e-01 1.000000000000009770e-01 3.600000000000012079e-01 -7.099999999999997424e-01 7.410000000000025455e-01 2.300000000000010925e-01 3.800000000000012257e-01 -1.999999999999992895e-01 8.600000000000016520e-01 4.800000000000013145e-01 5.700000000000013944e-01 -5.999999999999916511e-02 -7.259999999999988685e-01 5.570000000000022711e-01 -6.999999999999917399e-02 -1.001999999999998225e+00 -2.299999999999993161e-01 1.141000000000002901e+00 -8.199999999999998401e-01 -6.999999999999997335e-01 4.600000000000012967e-01 -5.999999999999996447e-01 3.800000000000012257e-01 6.800000000000014921e-01 8.600000000000016520e-01 1.480000000000019078e-01 6.700000000000014833e-01 3.100000000000011635e-01 -9.799999999999999822e-01 9.000000000000016875e-01 -9.099999999999999201e-01 6.700000000000014833e-01 -8.299999999999998490e-01 -9.999999999999120703e-03 -4.699999999999995293e-01 -5.699999999999987299e-01 -7.699999999999997957e-01 -3.699999999999994404e-01 -2.599999999999993427e-01 4.450000000000020606e-01 -2.506999999999999673e+00 4.100000000000012523e-01 -7.699999999999997957e-01 -9.999999999999920064e-02 -7.699999999999997957e-01 5.300000000000013589e-01 -9.459999999999990639e-01 4.660000000000021902e-01 -8.199999999999998401e-01 1.800000000000010481e-01 -3.999999999999914735e-02 7.300000000000015365e-01 -7.809999999999989173e-01 4.370000000000020535e-01 8.600000000000016520e-01 7.400000000000015454e-01 -4.029999999999984706e-01 2.700000000000011280e-01 -1.520999999999999464e+00 -2.519999999999984475e-01 -7.299999999999997602e-01 3.500000000000011990e-01 -3.999999999999914735e-02 7.570000000000025597e-01 5.000000000000093259e-02 4.100000000000012523e-01 -4.899999999999995470e-01 -1.599999999999992539e-01 1.200000000000009948e-01 1.900000000000010569e-01 7.890000000000025882e-01 -7.799999999999998046e-01 -2.399999999999993250e-01 -6.399999999999996803e-01 1.300000000000010036e-01 -1.209999999999983311e-01 7.100000000000015188e-01 2.300000000000010925e-01 -8.199999999999998401e-01 -7.299999999999997602e-01 4.400000000000012790e-01 -4.469999999999986207e-01 9.340000000000026059e-01 4.200000000000012612e-01 -8.099999999999998312e-01 7.900000000000015898e-01 1.084000000000004515e+00 -6.699999999999997069e-01 9.200000000000017053e-01 -2.899999999999993694e-01 1.700000000000010392e-01 -7.359999999999988773e-01 -3.799999999999994493e-01 8.500000000000016431e-01 7.000000000000015099e-01 -6.199999999999996625e-01 1.219000000000002748e+00 -6.999999999999997335e-01 1.400000000000010125e-01 -9.079999999999990301e-01 -1.380999999999999339e+00 -6.099999999999996536e-01 -9.699999999999999734e-01 7.000000000001782574e-03 5.770000000000022888e-01 6.800000000000183675e-02 -5.899999999999996358e-01 -1.599999999999992539e-01 8.300000000000016254e-01 -3.099999999999993872e-01 3.900000000000012346e-01 -5.999999999999996447e-01 5.000000000000013323e-01 -2.499999999999993339e-01 8.100000000000016076e-01 -7.999999999999918288e-02 -3.779999999999985594e-01 -3.199999999999993960e-01 -7.999999999999998224e-01 4.700000000000013056e-01 9.600000000000017408e-01 3.800000000000012257e-01 -4.399999999999995026e-01 -4.999999999999915623e-02 1.230000000000017746e-01 7.400000000000015454e-01 -8.199999999999998401e-01 -3.499999999999994227e-01 -1.449999999999982414e-01 -7.399999999999997691e-01 -8.599999999999998757e-01 -5.699999999999996181e-01 7.900000000000015898e-01 4.300000000000012701e-01 -6.099999999999996536e-01 -1.359999999999983444e-01 5.400000000000013678e-01 8.600000000000016520e-01 -9.499999999999999556e-01 9.600000000000017408e-01 -9.499999999999999556e-01 -1.399999999999992362e-01 9.600000000000017408e-01 -7.299999999999997602e-01 8.650000000000035438e-01 -8.199999999999998401e-01 9.000000000000096811e-02 1.500000000000010214e-01 -8.899999999999999023e-01 -9.299999999999981615e-01 -4.099999999999994760e-01 7.300000000000015365e-01 -8.389999999999989688e-01 -9.599999999999999645e-01 7.740000000000024638e-01 -5.699999999999996181e-01 -6.999999999999997335e-01 -4.599999999999995204e-01 -1.008999999999999009e+00 1.100000000000009859e-01 -4.799999999999995381e-01 -3.199999999999993960e-01 7.800000000000015810e-01 -1.399999999999992362e-01 9.000000000000016875e-01 4.600000000000012967e-01 3.600000000000012079e-01 6.800000000000014921e-01 1.650000000000003242e+00 -8.099999999999998312e-01 4.200000000000181366e-02 1.529000000000004134e+00 5.500000000000013767e-01 8.100000000000016076e-01 -4.099999999999994760e-01
8.200000000000016165e-01 -2.509999999999983356e-01 6.700000000000014833e-01 3.900000000000012346e-01 -1.699999999999992628e-01 5.000000000000093259e-02 3.500000000000011990e-01 -4.999999999999915623e-02 -2.299999999999993161e-01 6.000000000000094147e-02 8.300000000000016254e-01 -8.399999999999998579e-01 7.390000000000033209e-01 5.900000000000014122e-01 -9.699999999999999734e-01 2.750000000000020206e-01 1.100000000000009859e-01 4.800000000000013145e-01 -9.299999999999999378e-01 -2.919999999999984830e-01 5.940000000000023039e-01 8.600000000000016520e-01 -1.529999999999984706e-01 4.000000000000092371e-02 -5.699999999999996181e-01 9.000000000000016875e-01 -3.599999999999994316e-01 -3.099999999999993872e-01 -1.099999999999974332e-01 6.520000000000023554e-01 8.500000000000016431e-01 5.000000000000093259e-02 -4.099999999999994760e-01 -2.899999999999993694e-01 -2.999999999999913847e-02 -9.699999999999999734e-01 9.000000000000096811e-02 1.082000000000002737e+00 -7.599999999999997868e-01 2.400000000000011013e-01 -7.599999999999997868e-01 -5.599999999999996092e-01 1.770000000000019336e-01 -3.999999999999914735e-02 1.049000000000002597e+00 4.700000000000013056e-01 3.300000000000011813e-01 2.300000000000010925e-01 -4.599999999999995204e-01 -1.999999999999992895e-01 1.328000000000002956e+00 4.100000000000012523e-01 3.500000000000011990e-01 8.000000000000015987e-01 2.800000000000011369e-01 8.900000000000016787e-01 9.500000000000017319e-01 -1.308999999999999275e+00 7.000000000000095035e-02 -3.499999999999994227e-01 5.100000000000032285e-01 -9.899999999999831157e-02 -4.299999999999994937e-01 4.700000000000013056e-01 6.910000000000025011e-01 1.400000000000010125e-01 7.590000000000025615e-01 -5.299999999999995826e-01 5.100000000000013411e-01 1.000000000000009770e-01 3.600000000000012079e-01 -7.099999999999997424e-01 7.410000000000025455e-01 2.300000000000010925e-01 3.800000000000012257e-01 -1.999999999999992895e-01 8.600000000000016520e-01 4.800000000000013145e-01 5.700000000000013944e-01 -5.999999999999916511e-02 -7.259999999999988685e-01 6.000000000000014211e-01 -6.999999999999917399e-02 -1.001999999999998225e+00 -2.299999999999993161e-01 1.141000000000002901e+00 -8.199999999999998401e-01 -6.999999999999997335e-01 4.600000000000012967e-01 -5.999999999999996447e-01 3.800000000000012257e-01 6.800000000000014921e-01 8.600000000000016520e-01 5.800000000000014033e-01 6.700000000000014833e-01 3.100000000000011635e-01 -9.799999999999999822e-01 9.000000000000016875e-01 -9.099999999999999201e-01 6.700000000000014833e-01 -8.299999999999998490e-01 -9.999999999999120703e-03 -4.699999999999995293e-01 -2.699999999999993516e-01 -7.699999999999997957e-01 -3.699999999999994404e-01 -2.599999999999993427e-01 1.600000000000010303e-01 -1.542999999999999705e+00 4.100000000000012523e-01 -7.699999999999997957e-01 -9.999999999999920064e-02 -7.699999999999997957e-01 5.300000000000013589e-01 -9.459999999999990639e-01 5.500000000000013767e-01 -8.199999999999998401e-01 1.800000000000010481e-01 -3.999999999999914735e-02 7.300000000000015365e-01 -7.809999999999989173e-01 1.800000000000010481e-01 8.600000000000016520e-01 7.400000000000015454e-01 4.840000000000022062e-01 2.700000000000011280e-01 -1.520999999999999464e+00 -8.099999999999998312e-01 -7.299999999999997602e-01 3.500000000000011990e-01 -3.999999999999914735e-02 7.570000000000025597e-01 5.000000000000093259e-02 4.100000000000012523e-01 -4.899999999999995470e-01 -1.599999999999992539e-01 1.200000000000009948e-01 1.900000000000010569e-01 7.890000000000025882e-01 -7.799999999999998046e-01 -2.399999999999993250e-01 -6.399999999999996803e-01 1.300000000000010036e-01 -1.209999999999983311e-01 7.100000000000015188e-01 2.300000000000010925e-01 -8.199999999999998401e-01 -7.299999999999997602e-01 4.400000000000012790e-01 -3.699999999999994404e-01 2.700000000000180034e-02 4.200000000000012612e-01 -8.099999999999998312e-01 7.900000000000015898e-01 -5.599999999999738520e-02 -6.699999999999997069e-01 9.200000000000017053e-01 -2.899999999999993694e-01 1.700000000000010392e-01 -7.359999999999988773e-01 -3.799999999999994493e-01 8.500000000000016431e-01 7.000000000000015099e-01 -6.199999999999996625e-01 1.219000000000002748e+00 -6.999999999999997335e-01 1.400000000000010125e-01 -9.079999999999990301e-01 -1.380999999999999339e+00 -6.099999999999996536e-01 -9.699999999999999734e-01 7.000000000001782574e-03 9.000000000000016875e-01 6.800000000000183675e-02 -5.899999999999996358e-01 5.250000000000031308e-01 8.300000000000016254e-01 -3.099999999999993872e-01 3.900000000000012346e-01 -5.999999999999996447e-01 5.000000000000013323e-01 -2.499999999999993339e-01 8.100000000000016076e-01 -7.999999999999918288e-02 -3.779999999999985594e-01 -3.199999999999993960e-01 -7.999999999999998224e-01 4.700000000000013056e-01 9.600000000000017408e-01 3.800000000000012257e-01 -4.399999999999995026e-01 -4.999999999999915623e-02 1.230000000000017746e-01 7.400000000000015454e-01 -8.199999999999998401e-01 -3.499999999999994227e-01 -1.449999999999982414e-01 -7.399999999999997691e-01 -8.599999999999998757e-01 -5.699999999999996181e-01 7.900000000000015898e-01 4.300000000000012701e-01 -6.099999999999996536e-01 -1.359999999999983444e-01 -2.479999999999984439e-01 8.600000000000016520e-01 -9.499999999999999556e-01 9.600000000000017408e-01 -9.499999999999999556e-01 -1.399999999999992362e-01 9.600000000000017408e-01 -7.299999999999997602e-01 8.650000000000035438e-01 -8.199999999999998401e-01 9.000000000000096811e-02 1.500000000000010214e-01 -7.909999999999988152e-01 -1.399999999999992362e-01 -4.099999999999994760e-01 7.300000000000015365e-01 -1.899999999999992806e-01 -9.599999999999999645e-01 7.800000000000015810e-01 -5.699999999999996181e-01 -6.999999999999997335e-01 1.400000000000010125e-01 -1.008999999999999009e+00 1.100000000000009859e-01 -4.799999999999995381e-01 2.200000000000019718e-01 7.800000000000015810e-01 -1.399999999999992362e-01 9.000000000000016875e-01 4.600000000000012967e-01 3.600000000000012079e-01 6.800000000000014921e-01 1.650000000000003242e+00 -8.099999999999998312e-01 4.200000000000181366e-02 1.529000000000004134e+00 5.500000000000013767e-01 8.100000000000016076e-01 -4.099999999999994760e-01
8.200000000000016165e-01 -2.509999999999983356e-01 6.700000000000014833e-01 3.900000000000012346e-01 -1.699999999999992628e-01 5.000000000000093259e-02 3.500000000000011990e-01 -4.999999999999915623e-02 -2.299999999999993161e-01 6.000000000000094147e-02 8.300000000000016254e-01 -8.399999999999998579e-01 7.390000000000033209e-01 5.900000000000014122e-01 -9.699999999999999734e-01 2.750000000000020206e-01 1.100000000000009859e-01 4.800000000000013145e-01 -9.299999999999999378e-01 -2.919999999999984830e-01 5.940000000000023039e-01 8.600000000000016520e-01 -1.529999999999984706e-01 4.000000000000092371e-02 -5.699999999999996181e-01 9.000000000000016875e-01 -3.599999999999994316e-01 -3.099999999999993872e-01 -4.539999999999986269e-01 6.520000000000023554e-01 8.500000000000016431e-01 5.000000000000093259e-02 -4.099999999999994760e-01 -2.899999999999993694e-01 -2.999999999999913847e-02 -9.699999999999999734e-01 9.000000000000096811e-02 1.500000000000010214e-01 -7.599999999999997868e-01 2.400000000000011013e-01 -7.599999999999997868e-01 -5.599999999999996092e-01 1.770000000000019336e-01 -3.999999999999914735e-02 1.049000000000002597e+00 4.700000000000013056e-01 3.300000000000011813e-01 2.300000000000010925e-01 -4.599999999999995204e-01 -1.999999999999992895e-01 1.328000000000002956e+00 2.080000000000019611e-01 3.500000000000011990e-01 4.170000000000021467e-01 2.800000000000011369e-01 8.900000000000016787e-01 9.500000000000017319e-01 -1.308999999999999275e+00 7.000000000000095035e-02 -3.499999999999994227e-01 5.100000000000032285e-01 -1.004999999999998117e+00 -4.299999999999994937e-01 4.700000000000013056e-01 6.910000000000025011e-01 1.400000000000010125e-01 7.590000000000025615e-01 -5.299999999999995826e-01 5.100000000000013411e-01 1.000000000000009770e-01 3.600000000000012079e-01 -7.099999999999997424e-01 7.410000000000025455e-01 2.300000000000010925e-01 3.800000000000012257e-01 -1.999999999999992895e-01 8.600000000000016520e-01 4.800000000000013145e-01 4.500000000000181632e-02 -5.999999999999916511e-02 -7.259999999999988685e-01 6.000000000000014211e-01 -6.999999999999917399e-02 -1.001999999999998225e+00 -2.299999999999993161e-01 1.141000000000002901e+00 -8.199999999999998401e-01 -6.999999999999997335e-01 4.600000000000012967e-01 -5.999999999999996447e-01 6.600000000000183498e-02 6.800000000000014921e-01 8.600000000000016520e-01 5.800000000000014033e-01 6.700000000000014833e-01 3.100000000000011635e-01 -9.799999999999999822e-01 9.000000000000016875e-01 -9.099999999999999201e-01 6.700000000000014833e-01 -8.299999999999998490e-01 -9.999999999999120703e-03 -4.699999999999995293e-01 -5.699999999999987299e-01 -7.699999999999997957e-01 -3.699999999999994404e-01 -2.599999999999993427e-01 1.600000000000010303e-01 -1.542999999999999705e+00 4.100000000000012523e-01 -7.699999999999997957e-01 -9.999999999999920064e-02 -7.699999999999997957e-01 5.300000000000013589e-01 -9.459999999999990639e-01 5.500000000000013767e-01 -8.199999999999998401e-01 1.800000000000010481e-01 -3.999999999999914735e-02 7.300000000000015365e-01 -7.809999999999989173e-01 1.800000000000010481e-01 8.600000000000016520e-01 7.400000000000015454e-01 4.840000000000022062e-01 2.700000000000011280e-01 -1.520999999999999464e+00 -8.099999999999998312e-01 -7.299999999999997602e-01 3.500000000000011990e-01 -3.999999999999914735e-02 3.000000000000091482e-02 5.000000000000093259e-02 4.100000000000012523e-01 -4.899999999999995470e-01 -1.599999999999992539e-01 1.200000000000009948e-01 1.900000000000010569e-01 7.890000000000025882e-01 -7.799999999999998046e-01 -2.399999999999993250e-01 -6.399999999999996803e-01 1.300000000000010036e-01 -1.209999999999983311e-01 7.100000000000015188e-01 2.300000000000010925e-01 -8.199999999999998401e-01 -7.299999999999997602e-01 4.400000000000012790e-01 -3.699999999999994404e-01 3.800000000000012257e-01 4.200000000000012612e-01 -8.099999999999998312e-01 7.900000000000015898e-01 1.620000000000019202e-01 -6.699999999999997069e-01 9.200000000000017053e-01 -2.899999999999993694e-01 1.700000000000010392e-01 -7.359999999999988773e-01 -3.799999999999994493e-01 8.500000000000016431e-01 7.000000000000015099e-01 -6.199999999999996625e-01 1.334000000000003849e+00 -1.449999999999982414e-01 1.400000000000010125e-01 -9.079999999999990301e-01 -5.899999999999996358e-01 -6.099999999999996536e-01 -9.699999999999999734e-01 6.900000000000015010e-01 9.000000000000016875e-01 6.800000000000183675e-02 -5.899999999999996358e-01 5.250000000000031308e-01 8.300000000000016254e-01 -3.099999999999993872e-01 3.900000000000012346e-01 -5.999999999999996447e-01 5.000000000000013323e-01 -2.499999999999993339e-01 8.100000000000016076e-01 -7.999999999999918288e-02 -3.779999999999985594e-01 -3.199999999999993960e-01 -7.999999999999998224e-01 4.700000000000013056e-01 9.600000000000017408e-01 3.800000000000012257e-01 -4.399999999999995026e-01 -4.999999999999915623e-02 1.230000000000017746e-01 7.400000000000015454e-01 -8.269999999999989582e-01 -3.499999999999994227e-01 -1.449999999999982414e-01 -7.399999999999997691e-01 -8.599999999999998757e-01 -5.699999999999996181e-01 7.900000000000015898e-01 4.300000000000012701e-01 -6.099999999999996536e-01 -1.359999999999983444e-01 5.970000000000030838e-01 8.600000000000016520e-01 -9.499999999999999556e-01 9.600000000000017408e-01 -9.499999999999999556e-01 -1.399999999999992362e-01 9.600000000000017408e-01 -7.299999999999997602e-01 8.650000000000035438e-01 -8.199999999999998401e-01 9.000000000000096811e-02 1.500000000000010214e-01 -7.909999999999988152e-01 -2.199999999999984190e-01 -4.099999999999994760e-01 7.300000000000015365e-01 -1.899999999999992806e-01 -9.599999999999999645e-01 7.800000000000015810e-01 -5.699999999999996181e-01 -6.999999999999997335e-01 1.400000000000010125e-01 -1.008999999999999009e+00 1.100000000000009859e-01 -4.799999999999995381e-01 -3.199999999999993960e-01 7.800000000000015810e-01 -1.399999999999992362e-01 9.000000000000016875e-01 4.600000000000012967e-01 3.600000000000012079e-01 6.800000000000014921e-01 1.650000000000003242e+00 -1.100999999999999091e+00 4.200000000000181366e-02 6.470000000000024620e-01 5.500000000000013767e-01 8.100000000000016076e-01 -4.099999999999994760e-01
8.200000000000016165e-01 -2.509999999999983356e-01 6.700000000000014833e-01 3.900000000000012346e-01 -1.699999999999992628e-01 5.000000000000093259e-02 3.500000000000011990e-01 -4.999999999999915623e-02 -1.758999999999999009e+00 6.000000000000094147e-02 8.300000000000016254e-01 -8.399999999999998579e-01 3.690000000000021041e-01 5.900000000000014122e-01 -9.699999999999999734e-01 9.100000000000016964e-01 1.100000000000009859e-01 4.800000000000013145e-01 -9.299999999999999378e-01 -2.919999999999984830e-01 5.940000000000023039e-01 8.600000000000016520e-01 -1.529999999999984706e-01 4.000000000000092371e-02 -5.699999999999996181e-01 9.000000000000016875e-01 -3.599999999999994316e-01 -3.099999999999993872e-01 -1.099999999999974332e-01 6.520000000000023554e-01 8.500000000000016431e-01 5.000000000000093259e-02 -4.099999999999994760e-01 -2.899999999999993694e-01 -2.999999999999913847e-02 -1.348999999999999311e+00 9.000000000000096811e-02 1.500000000000010214e-01 -7.599999999999997868e-01 2.400000000000011013e-01 -7.599999999999997868e-01 -5.599999999999996092e-01 1.770000000000019336e-01 -3.999999999999914735e-02 1.049000000000002597e+00 4.700000000000013056e-01 3.300000000000011813e-01 2.300000000000010925e-01 -4.599999999999995204e-01 -1.999999999999992895e-01 1.328000000000002956e+00 4.100000000000012523e-01 3.500000000000011990e-01 4.170000000000021467e-01 2.800000000000011369e-01 1.548000000000003151e+00 9.500000000000017319e-01 -1.308999999999999275e+00 7.000000000000095035e-02 -3.499999999999994227e-01 5.100000000000032285e-01 -9.899999999999831157e-02 -4.299999999999994937e-01 7.350000000000023181e-01 6.910000000000025011e-01 1.400000000000010125e-01 7.590000000000025615e-01 -5.299999999999995826e-01 5.100000000000013411e-01 1.000000000000009770e-01 3.600000000000012079e-01 -7.099999999999997424e-01 7.410000000000025455e-01 2.300000000000010925e-01 3.800000000000012257e-01 -1.999999999999992895e-01 8.600000000000016520e-01 4.800000000000013145e-01 5.700000000000013944e-01 -5.999999999999916511e-02 -7.259999999999988685e-01 6.000000000000014211e-01 -6.999999999999917399e-02 -1.001999999999998225e+00 -2.299999999999993161e-01 1.141000000000002901e+00 -8.199999999999998401e-01 -6.999999999999997335e-01 4.600000000000012967e-01 -5.999999999999996447e-01 3.800000000000012257e-01 6.800000000000014921e-01 8.600000000000016520e-01 5.800000000000014033e-01 6.700000000000014833e-01 3.100000000000011635e-01 -9.799999999999999822e-01 9.000000000000016875e-01 -9.099999999999999201e-01 6.700000000000014833e-01 -8.299999999999998490e-01 -9.999999999999120703e-03 -4.699999999999995293e-01 -2.699999999999993516e-01 -7.699999999999997957e-01 -3.699999999999994404e-01 -2.599999999999993427e-01 1.600000000000010303e-01 -1.542999999999999705e+00 4.100000000000012523e-01 -7.699999999999997957e-01 -9.999999999999920064e-02 -7.699999999999997957e-01 9.000000000000025757e-01 -9.459999999999990639e-01 5.500000000000013767e-01 -8.199999999999998401e-01 1.800000000000010481e-01 -3.999999999999914735e-02 7.300000000000015365e-01 -7.809999999999989173e-01 1.800000000000010481e-01 8.600000000000016520e-01 7.400000000000015454e-01 4.840000000000022062e-01 2.700000000000011280e-01 -1.520999999999999464e+00 -8.099999999999998312e-01 -7.299999999999997602e-01 3.500000000000011990e-01 -3.999999999999914735e-02 7.570000000000025597e-01 5.000000000000093259e-02 4.100000000000012523e-01 -4.899999999999995470e-01 -1.599999999999992539e-01 1.200000000000009948e-01 1.900000000000010569e-01 7.890000000000025882e-01 -7.799999999999998046e-01 -2.399999999999993250e-01 -6.399999999999996803e-01 1.300000000000010036e-01 -1.209999999999983311e-01 7.100000000000015188e-01 2.300000000000010925e-01 -8.199999999999998401e-01 -7.299999999999997602e-01 4.400000000000012790e-01 -3.699999999999994404e-01 9.340000000000026059e-01 4.200000000000012612e-01 -8.099999999999998312e-01 7.900000000000015898e-01 1.620000000000019202e-01 -6.699999999999997069e-01 9.200000000000017053e-01 -2.899999999999993694e-01 1.700000000000010392e-01 -7.359999999999988773e-01 -3.799999999999994493e-01 8.500000000000016431e-01 7.000000000000015099e-01 -6.199999999999996625e-01 1.219000000000002748e+00 -6.999999999999997335e-01 1.400000000000010125e-01 -1.035999999999998256e+00 -1.380999999999999339e+00 -6.099999999999996536e-01 -9.699999999999999734e-01 7.000000000001782574e-03 9.000000000000016875e-01 6.800000000000183675e-02 -5.899999999999996358e-01 -1.599999999999992539e-01 8.300000000000016254e-01 -3.099999999999993872e-01 3.900000000000012346e-01 -5.999999999999996447e-01 5.000000000000013323e-01 -2.499999999999993339e-01 8.100000000000016076e-01 -7.999999999999918288e-02 -3.779999999999985594e-01 -3.199999999999993960e-01 -7.999999999999998224e-01 1.900000000000019451e-01 9.600000000000017408e-01 3.800000000000012257e-01 -4.399999999999995026e-01 -4.999999999999915623e-02 1.230000000000017746e-01 7.400000000000015454e-01 -8.199999999999998401e-01 -3.499999999999994227e-01 -1.449999999999982414e-01 -7.399999999999997691e-01 -8.599999999999998757e-01 -5.699999999999996181e-01 7.900000000000015898e-01 4.300000000000012701e-01 -6.099999999999996536e-01 -1.359999999999983444e-01 -2.479999999999984439e-01 8.600000000000016520e-01 -9.499999999999999556e-01 9.600000000000017408e-01 -9.499999999999999556e-01 -1.399999999999992362e-01 9.600000000000017408e-01 -7.299999999999997602e-01 8.650000000000035438e-01 -8.199999999999998401e-01 9.000000000000096811e-02 1.500000000000010214e-01 -8.899999999999999023e-01 -2.199999999999984190e-01 -4.099999999999994760e-01 7.300000000000015365e-01 -1.899999999999992806e-01 -9.599999999999999645e-01 7.800000000000015810e-01 -5.699999999999996181e-01 -6.999999999999997335e-01 1.400000000000010125e-01 -1.008999999999999009e+00 1.100000000000009859e-01 -4.799999999999995381e-01 -3.199999999999993960e-01 7.800000000000015810e-01 -1.399999999999992362e-01 9.000000000000016875e-01 4.600000000000012967e-01 3.600000000000012079e-01 6.800000000000014921e-01 2.231000000000004313e+00 -8.099999999999998312e-01 4.200000000000181366e-02 6.470000000000024620e-01 5.500000000000013767e-01 8.100000000000016076e-01 -4.099999999999994760e-01
8.200000000000016165e-01 -2.509999999999983356e-01 6.700000000000014833e-01 3.900000000000012346e-01 -1.699999999999992628e-01 5.000000000000093259e-02 3.500000000000011990e-01 -4.999999999999915623e-02 -1.758999999999999009e+00 6.000000000000094147e-02 8.300000000000016254e-01 -8.399999999999998579e-01 3.690000000000021041e-01 5.900000000000014122e-01 -9.699999999999999734e-01 9.100000000000016964e-01 1.100000000000009859e-01 3.480000000000020854e-01 -9.299999999999999378e-01 -2.919999999999984830e-01 5.940000000000023039e-01 8.600000000000016520e-01 -1.529999999999984706e-01 4.000000000000092371e-02 -7.739999999999989111e-01 9.000000000000016875e-01 -3.599999999999994316e-01 -3.099999999999993872e-01 -4.539999999999986269e-01 6.520000000000023554e-01 8.500000000000016431e-01 5.000000000000093259e-02 -4.099999999999994760e-01 -2.899999999999993694e-01 -2.999999999999913847e-02 -9.699999999999999734e-01 9.000000000000096811e-02 1.500000000000010214e-01 -7.599999999999997868e-01 2.400000000000011013e-01 -7.599999999999997868e-01 -5.599999999999996092e-01 1.770000000000019336e-01 -3.999999999999914735e-02 1.049000000000002597e+00 4.700000000000013056e-01 3.300000000000011813e-01 2.300000000000010925e-01 -4.599999999999995204e-01 -1.999999999999992895e-01 1.328000000000002956e+00 4.100000000000012523e-01 3.500000000000011990e-01 8.000000000000015987e-01 2.800000000000011369e-01 8.900000000000016787e-01 9.500000000000017319e-01 -1.308999999999999275e+00 7.000000000000095035e-02 -3.499999999999994227e-01 5.100000000000032285e-01 -9.899999999999831157e-02 -4.299999999999994937e-01 7.350000000000023181e-01 1.000000000000009770e-01 1.400000000000010125e-01 7.590000000000025615e-01 -5.299999999999995826e-01 5.100000000000013411e-01 1.000000000000009770e-01 3.600000000000012079e-01 -7.309999999999988729e-01 7.410000000000025455e-01 2.300000000000010925e-01 3.800000000000012257e-01 -1.999999999999992895e-01 8.600000000000016520e-01 4.800000000000013145e-01 5.700000000000013944e-01 -5.999999999999916511e-02 -7.259999999999988685e-01 6.000000000000014211e-01 -6.999999999999917399e-02 -1.001999999999998225e+00 -2.299999999999993161e-01 1.141000000000002901e+00 -1.401999999999999469e+00 -6.999999999999997335e-01 4.600000000000012967e-01 -5.999999999999996447e-01 3.800000000000012257e-01 6.800000000000014921e-01 8.600000000000016520e-01 5.800000000000014033e-01 6.700000000000014833e-01 3.100000000000011635e-01 -9.799999999999999822e-01 9.000000000000016875e-01 -9.099999999999999201e-01 6.700000000000014833e-01 -8.299999999999998490e-01 -9.999999999999120703e-03 -4.699999999999995293e-01 -2.699999999999993516e-01 -7.699999999999997957e-01 -3.699999999999994404e-01 -2.599999999999993427e-01 1.600000000000010303e-01 -1.542999999999999705e+00 4.100000000000012523e-01 -7.699999999999997957e-01 -9.999999999999920064e-02 -7.699999999999997957e-01 5.300000000000013589e-01 -9.459999999999990639e-01 5.500000000000013767e-01 -8.199999999999998401e-01 1.800000000000010481e-01 -3.999999999999914735e-02 7.300000000000015365e-01 -7.809999999999989173e-01 4.370000000000020535e-01 8.600000000000016520e-01 7.400000000000015454e-01 4.840000000000022062e-01 2.700000000000011280e-01 -1.520999999999999464e+00 -8.099999999999998312e-01 -7.299999999999997602e-01 3.500000000000011990e-01 -3.999999999999914735e-02 3.000000000000091482e-02 5.000000000000093259e-02 4.100000000000012523e-01 -4.899999999999995470e-01 -1.599999999999992539e-01 1.200000000000009948e-01 1.900000000000010569e-01 7.890000000000025882e-01 -7.799999999999998046e-01 -2.399999999999993250e-01 -6.399999999999996803e-01 1.300000000000010036e-01 -1.209999999999983311e-01 7.100000000000015188e-01 2.300000000000010925e-01 -8.199999999999998401e-01 -7.299999999999997602e-01 4.400000000000012790e-01 -3.699999999999994404e-01 3.800000000000012257e-01 4.200000000000012612e-01 -8.099999999999998312e-01 7.900000000000015898e-01 1.620000000000019202e-01 -6.699999999999997069e-01 9.200000000000017053e-01 -2.899999999999993694e-01 1.700000000000010392e-01 -7.359999999999988773e-01 -3.799999999999994493e-01 8.500000000000016431e-01 7.000000000000015099e-01 -6.199999999999996625e-01 1.219000000000002748e+00 -6.999999999999997335e-01 1.400000000000010125e-01 -9.079999999999990301e-01 -5.899999999999996358e-01 -6.099999999999996536e-01 -9.699999999999999734e-01 7.000000000001782574e-03 9.000000000000016875e-01 6.800000000000183675e-02 -5.899999999999996358e-01 5.250000000000031308e-01 8.300000000000016254e-01 -3.099999999999993872e-01 3.900000000000012346e-01 -5.999999999999996447e-01 5.000000000000013323e-01 -2.499999999999993339e-01 8.100000000000016076e-01 -7.999999999999918288e-02 -3.779999999999985594e-01 -3.199999999999993960e-01 -7.999999999999998224e-01 4.700000000000013056e-01 9.600000000000017408e-01 3.800000000000012257e-01 -4.399999999999995026e-01 -4.999999999999915623e-02 1.230000000000017746e-01 7.400000000000015454e-01 -8.199999999999998401e-01 -3.499999999999994227e-01 -1.449999999999982414e-01 -7.399999999999997691e-01 -8.599999999999998757e-01 -5.699999999999996181e-01 7.900000000000015898e-01 4.300000000000012701e-01 -6.099999999999996536e-01 -1.359999999999983444e-01 -2.479999999999984439e-01 8.600000000000016520e-01 -9.499999999999999556e-01 9.600000000000017408e-01 -9.499999999999999556e-01 -1.399999999999992362e-01 9.600000000000017408e-01 -7.299999999999997602e-01 8.650000000000035438e-01 -8.199999999999998401e-01 9.000000000000096811e-02 1.500000000000010214e-01 -8.899999999999999023e-01 -2.199999999999984190e-01 -4.099999999999994760e-01 7.300000000000015365e-01 -1.899999999999992806e-01 -9.599999999999999645e-01 7.800000000000015810e-01 -5.699999999999996181e-01 -6.999999999999997335e-01 1.400000000000010125e-01 -1.008999999999999009e+00 7.050000000000025135e-01 -4.799999999999995381e-01 -3.199999999999993960e-01 7.800000000000015810e-01 -1.399999999999992362e-01 9.000000000000016875e-01 4.600000000000012967e-01 3.600000000000012079e-01 6.800000000000014921e-01 1.650000000000003242e+00 -8.099999999999998312e-01 4.200000000000181366e-02 1.529000000000004134e+00 5.500000000000013767e-01 8.100000000000016076e-01 -4.099999999999994760e-01
8.200000000000016165e-01 -2.509999999999983356e-01 6.700000000000014833e-01 3.900000000000012346e-01 -1.699999999999992628e-01 5.000000000000093259e-02 3.500000000000011990e-01 -4.999999999999915623e-02 -1.758999999999999009e+00 6.000000000000094147e-02 8.300000000000016254e-01 -8.399999999999998579e-01 3.690000000000021041e-01 5.900000000000014122e-01 -9.699999999999999734e-01 9.100000000000016964e-01 1.100000000000009859e-01 4.800000000000013145e-01 -9.299999999999999378e-01 -2.919999999999984830e-01 5.940000000000023039e-01 8.600000000000016520e-01 -1.529999999999984706e-01 4.000000000000092371e-02 -7.739999999999989111e-01 9.000000000000016875e-01 -3.599999999999994316e-01 -3.099999999999993872e-01 -4.539999999999986269e-01 6.520000000000023554e-01 8.500000000000016431e-01 5.000000000000093259e-02 -4.099999999999994760e-01 -2.899999999999993694e-01 -2.999999999999913847e-02 -9.699999999999999734e-01 9.000000000000096811e-02 1.500000000000010214e-01 -7.599999999999997868e-01 2.400000000000011013e-01 -7.599999999999997868e-01 -5.599999999999996092e-01 1.770000000000019336e-01 -3.999999999999914735e-02 1.049000000000002597e+00 4.700000000000013056e-01 3.300000000000011813e-01 2.300000000000010925e-01 -4.599999999999995204e-01 -1.999999999999992895e-01 1.328000000000002956e+00 2.080000000000019611e-01 3.000000000001779021e-03 8.000000000000015987e-01 2.800000000000011369e-01 8.900000000000016787e-01 9.500000000000017319e-01 -1.308999999999999275e+00 7.000000000000095035e-02 -3.499999999999994227e-01 5.100000000000032285e-01 -9.899999999999831157e-02 -4.299999999999994937e-01 7.350000000000023181e-01 6.910000000000025011e-01 1.400000000000010125e-01 7.590000000000025615e-01 -5.299999999999995826e-01 5.100000000000013411e-01 1.000000000000009770e-01 3.600000000000012079e-01 -7.099999999999997424e-01 7.410000000000025455e-01 2.300000000000010925e-01 3.800000000000012257e-01 -1.999999999999992895e-01 8.600000000000016520e-01 4.800000000000013145e-01 5.700000000000013944e-01 -5.999999999999916511e-02 -7.259999999999988685e-01 6.000000000000014211e-01 -6.999999999999917399e-02 -1.001999999999998225e+00 -2.299999999999993161e-01 1.141000000000002901e+00 -8.199999999999998401e-01 -6.999999999999997335e-01 4.600000000000012967e-01 -5.999999999999996447e-01 3.800000000000012257e-01 6.800000000000014921e-01 8.600000000000016520e-01 5.800000000000014033e-01 6.700000000000014833e-01 3.100000000000011635e-01 -9.799999999999999822e-01 9.000000000000016875e-01 -9.099999999999999201e-01 6.700000000000014833e-01 -8.299999999999998490e-01 -9.999999999999120703e-03 -4.699999999999995293e-01 -5.699999999999987299e-01 -7.699999999999997957e-01 -3.699999999999994404e-01 -2.599999999999993427e-01 1.600000000000010303e-01 -1.542999999999999705e+00 4.100000000000012523e-01 -7.699999999999997957e-01 -9.999999999999920064e-02 -7.699999999999997957e-01 5.300000000000013589e-01 -9.459999999999990639e-01 5.500000000000013767e-01 -8.199999999999998401e-01 1.800000000000010481e-01 -3.999999999999914735e-02 7.300000000000015365e-01 -7.809999999999989173e-01 4.370000000000020535e-01 8.600000000000016520e-01 7.400000000000015454e-01 4.840000000000022062e-01 2.700000000000011280e-01 -1.520999999999999464e+00 -8.099999999999998312e-01 -7.299999999999997602e-01 3.500000000000011990e-01 -3.999999999999914735e-02 7.570000000000025597e-01 5.000000000000093259e-02 4.100000000000012523e-01 -4.899999999999995470e-01 -1.599999999999992539e-01 1.200000000000009948e-01 1.900000000000010569e-01 7.890000000000025882e-01 -7.799999999999998046e-01 -2.399999999999993250e-01 -6.399999999999996803e-01 1.300000000000010036e-01 -1.209999999999983311e-01 7.100000000000015188e-01 2.300000000000010925e-01 -4.499999999999986233e-01 -7.299999999999997602e-01 4.400000000000012790e-01 2.580000000000020055e-01 3.800000000000012257e-01 4.200000000000012612e-01 -8.099999999999998312e-01 7.900000000000015898e-01 1.620000000000019202e-01 -6.699999999999997069e-01 9.200000000000017053e-01 -2.899999999999993694e-01 1.700000000000010392e-01 -7.359999999999988773e-01 -3.799999999999994493e-01 8.500000000000016431e-01 7.000000000000015099e-01 -6.199999999999996625e-01 1.219000000000002748e+00 -6.999999999999997335e-01 1.400000000000010125e-01 -1.035999999999998256e+00 -5.899999999999996358e-01 -6.099999999999996536e-01 -9.699999999999999734e-01 7.000000000001782574e-03 9.000000000000016875e-01 6.800000000000183675e-02 -5.899999999999996358e-01 5.250000000000031308e-01 8.300000000000016254e-01 -3.099999999999993872e-01 3.900000000000012346e-01 -5.999999999999996447e-01 5.000000000000013323e-01 -2.499999999999993339e-01 8.100000000000016076e-01 -7.999999999999918288e-02 -3.779999999999985594e-01 -3.199999999999993960e-01 -7.999999999999998224e-01 4.700000000000013056e-01 9.600000000000017408e-01 3.800000000000012257e-01 -4.399999999999995026e-01 -4.999999999999915623e-02 1.230000000000017746e-01 7.400000000000015454e-01 -8.199999999999998401e-01 -3.499999999999994227e-01 -1.449999999999982414e-01 -7.399999999999997691e-01 -8.599999999999998757e-01 -5.699999999999996181e-01 7.900000000000015898e-01 4.300000000000012701e-01 -6.099999999999996536e-01 -1.359999999999983444e-01 -2.479999999999984439e-01 8.600000000000016520e-01 -9.499999999999999556e-01 9.600000000000017408e-01 -9.499999999999999556e-01 -1.399999999999992362e-01 9.600000000000017408e-01 -7.299999999999997602e-01 8.650000000000035438e-01 -8.199999999999998401e-01 9.000000000000096811e-02 1.500000000000010214e-01 -8.899999999999999023e-01 -2.199999999999984190e-01 -4.099999999999994760e-01 7.300000000000015365e-01 -1.899999999999992806e-01 -9.599999999999999645e-01 7.800000000000015810e-01 -5.699999999999996181e-01 -6.999999999999997335e-01 1.400000000000010125e-01 -1.008999999999999009e+00 1.100000000000009859e-01 -4.799999999999995381e-01 -3.199999999999993960e-01 7.800000000000015810e-01 -1.399999999999992362e-01 9.000000000000016875e-01 4.600000000000012967e-01 3.600000000000012079e-01 6.800000000000014921e-01 1.650000000000003242e+00 -1.100999999999999091e+00 4.200000000000181366e-02 1.529000000000004134e+00 5.500000000000013767e-01 8.100000000000016076e-01 -4.099999999999994760e-01
