-5.059999999999943432e-01 9.000000000000069056e-01 -2.468999999999994088e+00 1.219000000000007855e+00 -6.839999999999943903e-01 -8.439999999999945324e-01 7.300000000000057554e-01 -2.159999999999949738e-01 -4.082999999999997520e+00 6.670000000000074758e-01 1.760000000000080389e-01 1.431000000000007599e+00 -1.289999999999958957e-01 -1.438999999999992507e+00 1.901000000000005130e+00 -1.901999999999998137e+00 -8.759999999999954490e-01 -2.238999999999994994e+00 1.946000000000006169e+00 4.090000000000062474e-01 3.450000000000118527e-01 -4.219999999999950457e-01 1.743000000000006988e+00 7.770000000000051310e-01 -1.924999999999998934e+00 8.500000000000440536e-02 -1.542999999999994154e+00 -1.110999999999995769e+00 2.663000000000009138e+00 -2.692999999999996508e+00 -1.706999999999993634e+00 -8.899999999999962386e-01 5.180000000000030136e-01 -2.309999999999949871e-01 7.590000000000043379e-01 -9.529999999999962945e-01 1.350000000000045608e-01 5.400000000000715339e-02 -3.147999999999993914e+00 -7.899999999999651745e-02 1.004000000000007109e+00 -1.309999999999996723e+00 2.507000000000006779e+00 1.923000000000007148e+00 2.770000000000037987e-01 1.289000000000007473e+00 -1.889999999999940616e-01 -1.610999999999995325e+00 3.000000000000635492e-02 -1.247999999999992893e+00 1.856000000000006311e+00 1.133000000000005336e+00 -1.540999999999991710e+00 1.279000000000005688e+00 -2.919999999999984830e-01 8.620000000000057616e-01 -2.272999999999997467e+00 4.130000000000030314e-01 9.760000000000044196e-01 -3.189999999999961755e-01 -4.799999999999969846e-01 1.700000000000010392e-01 -1.414999999999997815e+00 -1.322999999999997733e+00 1.032000000000006246e+00 1.120000000000003659e+00 -3.135999999999994348e+00 7.110000000000051834e-01 2.000000000006108003e-03 6.160000000000050990e-01 1.610000000000070264e-01 -1.202999999999992298e+00 -1.718999999999995421e+00 8.730000000000044391e-01 3.430000000000012150e+00 -1.594999999999994422e+00 -1.650999999999995804e+00 1.277000000000007240e+00 -3.462999999999996525e+00 -3.949999999999976863e-01 -4.929999999999959970e-01 4.350000000000038280e-01 1.823000000000010834e+00 1.267000000000006565e+00 1.196000000000007280e+00 1.206000000000007288e+00 7.290000000000058655e-01 2.460000000000047704e-01 6.890000000000083835e-01 -6.399999999999912426e-01 1.721000000000006747e+00 -1.629999999999994342e+00 -1.539999999999939195e-01 -1.071999999999995623e+00 7.030000000000031779e-01 -4.569999999999951878e-01 1.006000000000007999e+00 2.490000000000028857e-01 -1.095999999999997421e+00 -1.077999999999996517e+00 2.429000000000007820e+00 -5.529999999999960503e-01 -1.580999999999995076e+00 5.300000000000031353e-01 2.006000000000012218e+00 -8.159999999999956177e-01 -1.350999999999994872e+00 -3.619999999999934381e-01 -1.556999999999993500e+00 9.140000000000072511e-01 -1.353999999999998538e+00 4.520000000000041762e-01 -1.084999999999994857e+00 -4.829999999999934346e-01 1.436000000000007493e+00 7.250000000000040856e-01 1.150000000000072076e-01 9.860000000000089804e-01 9.140000000000088054e-01 -2.649999999999949063e-01 9.060000000000052456e-01 2.450000000000028821e-01 -1.387999999999994127e+00 -1.134999999999993125e+00 9.640000000000082947e-01 8.240000000000122782e-01 1.878000000000008995e+00 1.866000000000005432e+00 -1.599999999999224265e-02 7.000000000000450306e-02 -1.960999999999997412e+00 -4.829999999999968763e-01 -1.761999999999996458e+00 -2.011999999999988908e+00 1.550000000000075762e-01 -1.055999999999995831e+00 1.302000000000007596e+00 9.750000000000043077e-01 -1.346999999999992870e+00 8.800000000000062217e-01 -7.489999999999945590e-01 5.400000000000870770e-02 4.370000000000068274e-01 3.135000000000011333e+00 2.262000000000012001e+00 -3.899999999999941291e-01 -1.549999999999965850e-01 -4.299999999999969402e-01 1.392000000000006565e+00 -3.239999999999969571e-01 -1.436999999999995392e+00 1.354000000000003867e+00 8.490000000000069713e-01 6.550000000000067990e-01 1.432000000000005713e+00 7.210000000000041931e-01 -1.934999999999996501e+00 -2.863999999999990553e+00 3.560000000000058673e-01 2.306000000000006267e+00 3.333000000000013507e+00 -7.999999999999936051e-01 2.308000000000007823e+00 -1.200999999999997403e+00 -8.659999999999954401e-01 -1.812999999999995282e+00 -2.462999999999998746e+00 3.951000000000014722e+00 7.850000000000060263e-01 2.200000000000014833e+00 2.600000000000612932e-02 -1.085999999999994525e+00 -2.169999999999995932e+00 2.250000000000048628e-01 5.530000000000058202e-01 5.190000000000076774e-01 -2.369999999999959917e-01 2.059000000000006825e+00 -1.083999999999995634e+00 -3.234999999999994991e+00 -2.969999999999941576e-01 1.960000000000005294e+00 2.200000000000005507e+00 -1.968999999999996309e+00 1.789000000000006807e+00 8.270000000000041762e-01 -5.399999999999980371e-01 -1.047999999999996490e+00 1.518000000000007788e+00 -7.639999999999980140e-01 3.180000000000084981e-01 -8.959999999999925802e-01 2.470000000000047713e-01 3.940000000000059011e-01 1.136000000000004562e+00 -5.559999999999950537e-01 1.033000000000005025e+00 -1.034999999999992149e+00 -1.066999999999999282e+00 4.310000000000063780e-01 -1.160999999999996479e+00 -2.028999999999994586e+00 -7.839999999999918145e-01 1.110000000000008757e+00 3.150000000000064970e-01 -1.699999999999735056e-02 2.040000000000006253e+00 -1.963999999999996193e+00 7.440000000000032143e-01 1.060000000000053122e-01 -1.388999999999995794e+00 -9.699999999999742162e-02 1.403000000000004688e+00 3.838000000000008960e+00 1.403000000000006686e+00 -2.359999999999976561e-01 -1.675999999999997936e+00 1.520000000000043539e-01 9.750000000000061950e-01 -2.709999999999939124e-01 -1.073999999999995403e+00 3.670000000000037677e-01 -4.099999999999968114e-01 1.326000000000006507e+00 -1.788999999999993928e+00 6.930000000000059446e-01 2.093000000000008409e+00 -6.699999999999650679e-02 8.680000000000061000e-01 -1.955999999999997296e+00 -4.669999999999959739e-01 2.290000000000037561e-01 -1.497999999999994225e+00 5.880000000000048521e-01 -2.546999999999994380e+00 -2.001999999999994451e+00 -3.919999999999959073e-01 -1.079999999999948779e-01 7.160000000000067422e-01 1.227000000000005642e+00 9.210000000000034825e-01 -2.876999999999997559e+00 -1.445999999999995955e+00
-1.750999999999995449e+00 9.000000000000069056e-01 -2.468999999999994088e+00 1.219000000000007855e+00 -6.839999999999943903e-01 -8.439999999999945324e-01 7.300000000000057554e-01 -4.349999999999942801e-01 -4.082999999999997520e+00 6.670000000000074758e-01 1.760000000000080389e-01 1.899000000000008903e+00 -1.289999999999958957e-01 -1.438999999999992507e+00 1.901000000000005130e+00 -1.901999999999998137e+00 -8.759999999999954490e-01 -2.977999999999994873e+00 1.946000000000006169e+00 4.090000000000062474e-01 -6.199999999998950795e-02 3.170000000000066098e-01 2.416000000000008363e+00 7.770000000000051310e-01 -1.924999999999998934e+00 8.500000000000440536e-02 -1.045999999999992935e+00 -1.110999999999995769e+00 2.663000000000009138e+00 -2.024999999999995026e+00 -1.706999999999993634e+00 -4.999999999996340705e-03 5.180000000000030136e-01 -2.309999999999949871e-01 7.590000000000043379e-01 -9.529999999999962945e-01 1.350000000000045608e-01 2.004000000000011550e+00 -3.147999999999993914e+00 -7.899999999999651745e-02 1.004000000000007109e+00 -1.178999999999998494e+00 2.507000000000006779e+00 2.300000000000008260e+00 2.770000000000037987e-01 1.574000000000008503e+00 -4.629999999999925286e-01 -1.988999999999996549e+00 3.000000000000635492e-02 -1.373999999999996557e+00 9.100000000000063594e-01 1.133000000000005336e+00 -1.540999999999991710e+00 1.279000000000005688e+00 -2.919999999999984830e-01 8.620000000000057616e-01 -2.272999999999997467e+00 4.130000000000030314e-01 6.000000000003669065e-03 -3.189999999999961755e-01 -4.799999999999969846e-01 1.700000000000010392e-01 -1.414999999999997815e+00 -1.322999999999997733e+00 2.520000000000064411e-01 6.220000000000023288e-01 -3.135999999999994348e+00 1.070000000000065343e-01 2.000000000006108003e-03 1.201000000000006285e+00 -5.289999999999926983e-01 -1.131999999999991235e+00 -1.718999999999995421e+00 4.710000000000049702e-01 3.430000000000012150e+00 -1.594999999999994422e+00 -1.820999999999996177e+00 2.098000000000009635e+00 -3.462999999999996525e+00 3.300000000000524736e-02 -2.779999999999956950e-01 4.350000000000038280e-01 1.823000000000010834e+00 9.290000000000071534e-01 1.196000000000007280e+00 -9.659999999999961950e-01 7.290000000000058655e-01 6.100000000000549427e-02 5.750000000000091704e-01 -6.399999999999912426e-01 8.530000000000050875e-01 -1.629999999999994342e+00 -1.539999999999939195e-01 -8.639999999999962155e-01 -2.809999999999959197e-01 -4.569999999999951878e-01 1.006000000000007999e+00 8.430000000000043014e-01 -1.459999999999995968e+00 -1.077999999999996517e+00 2.013000000000008338e+00 -5.529999999999960503e-01 -1.242999999999993888e+00 5.300000000000031353e-01 1.007000000000010331e+00 -8.159999999999956177e-01 -1.350999999999994872e+00 -3.619999999999934381e-01 -1.556999999999993500e+00 -2.219999999999929807e-01 -1.353999999999998538e+00 3.160000000000058318e-01 -1.084999999999994857e+00 -4.829999999999934346e-01 6.670000000000076978e-01 7.250000000000040856e-01 1.150000000000072076e-01 9.860000000000089804e-01 -1.499999999999201972e-02 -2.649999999999949063e-01 -1.799999999999468692e-02 2.450000000000028821e-01 -1.959999999999904041e-01 -1.134999999999993125e+00 9.640000000000082947e-01 7.450000000000112088e-01 1.878000000000008995e+00 1.866000000000005432e+00 -1.599999999999224265e-02 -2.679999999999957971e-01 -1.369999999999995888e+00 -4.829999999999968763e-01 -1.564999999999995506e+00 -2.011999999999988908e+00 2.540000000000086633e-01 -1.055999999999995831e+00 1.302000000000007596e+00 9.750000000000043077e-01 6.860000000000051612e-01 8.800000000000062217e-01 -1.605999999999997208e+00 -3.499999999999214850e-02 4.370000000000068274e-01 3.135000000000011333e+00 2.262000000000012001e+00 -3.899999999999941291e-01 -1.549999999999965850e-01 -7.589999999999963443e-01 1.392000000000006565e+00 -3.239999999999969571e-01 -1.436999999999995392e+00 1.354000000000003867e+00 8.490000000000069713e-01 6.550000000000067990e-01 2.440000000000046576e-01 7.210000000000041931e-01 -7.479999999999944471e-01 -2.863999999999990553e+00 3.560000000000058673e-01 2.306000000000006267e+00 3.333000000000013507e+00 -1.198999999999993182e+00 2.308000000000007823e+00 -1.200999999999997403e+00 -8.659999999999954401e-01 -1.812999999999995282e+00 -2.462999999999998746e+00 3.951000000000014722e+00 7.850000000000060263e-01 2.200000000000014833e+00 2.600000000000612932e-02 -1.085999999999994525e+00 -1.340999999999993308e+00 2.250000000000048628e-01 5.640000000000068292e-01 5.190000000000076774e-01 -2.369999999999959917e-01 2.059000000000006825e+00 -1.685999999999995280e+00 -3.234999999999994991e+00 -2.969999999999941576e-01 1.960000000000005294e+00 1.223000000000005638e+00 -1.897999999999997023e+00 1.789000000000006807e+00 3.140000000000046088e-01 4.270000000000038209e-01 -1.047999999999996490e+00 1.518000000000007788e+00 -7.639999999999980140e-01 1.214000000000010182e+00 -8.959999999999925802e-01 2.470000000000047713e-01 3.940000000000059011e-01 1.972000000000006192e+00 -5.189999999999942437e-01 5.890000000000055191e-01 -5.839999999999917479e-01 -3.130999999999997563e+00 4.310000000000063780e-01 -1.160999999999996479e+00 -2.028999999999994586e+00 -7.839999999999918145e-01 1.110000000000008757e+00 3.150000000000064970e-01 -1.699999999999735056e-02 2.040000000000006253e+00 -1.963999999999996193e+00 7.440000000000032143e-01 -6.299999999999944533e-01 -1.388999999999995794e+00 -3.289999999999958513e-01 1.403000000000004688e+00 3.169000000000008477e+00 1.403000000000006686e+00 -2.359999999999976561e-01 -1.675999999999997936e+00 2.900000000000044764e-01 6.170000000000067653e-01 -7.829999999999954774e-01 3.750000000000058842e-01 3.670000000000037677e-01 -4.099999999999968114e-01 1.326000000000006507e+00 -4.499999999999935163e-01 6.930000000000059446e-01 2.093000000000008409e+00 -6.699999999999650679e-02 6.170000000000067653e-01 -1.955999999999997296e+00 -4.669999999999959739e-01 2.290000000000037561e-01 -1.497999999999994225e+00 5.880000000000048521e-01 -2.546999999999994380e+00 -2.001999999999994451e+00 -3.429999999999966409e-01 -1.079999999999948779e-01 7.160000000000067422e-01 1.227000000000005642e+00 9.210000000000034825e-01 -3.543999999999997375e+00 -1.297999999999994936e+00
-1.750999999999995449e+00 9.000000000000069056e-01 -2.468999999999994088e+00 -7.429999999999935545e-01 -4.399999999999932854e-01 -3.999999999999293010e-02 6.100000000000438405e-02 -8.369999999999946372e-01 -4.082999999999997520e+00 6.670000000000074758e-01 8.420000000000102958e-01 1.899000000000008903e+00 5.170000000000037899e-01 -2.075999999999993850e+00 1.901000000000005130e+00 -9.059999999999963638e-01 -8.759999999999954490e-01 -2.441999999999994841e+00 1.946000000000006169e+00 4.880000000000073168e-01 -6.199999999998950795e-02 3.170000000000066098e-01 1.743000000000006988e+00 7.770000000000051310e-01 -1.924999999999998934e+00 1.386000000000007448e+00 -1.458999999999994968e+00 -1.110999999999995769e+00 3.286000000000010690e+00 -2.024999999999995026e+00 -1.706999999999993634e+00 -4.999999999996340705e-03 5.180000000000030136e-01 -2.309999999999949871e-01 1.071000000000003727e+00 -5.239999999999951363e-01 1.350000000000045608e-01 2.150000000000090727e-01 -3.147999999999993914e+00 -7.899999999999651745e-02 1.004000000000007109e+00 4.240000000000054836e-01 2.507000000000006779e+00 1.923000000000007148e+00 2.770000000000037987e-01 1.574000000000008503e+00 -4.629999999999925286e-01 -1.988999999999996549e+00 -3.859999999999949027e-01 -1.373999999999996557e+00 1.856000000000006311e+00 1.758000000000006668e+00 -9.629999999999920846e-01 1.279000000000005688e+00 8.330000000000044036e-01 8.550000000000066436e-01 -1.365999999999995662e+00 4.130000000000030314e-01 6.000000000003669065e-03 -3.189999999999961755e-01 -4.799999999999969846e-01 1.700000000000010392e-01 -1.414999999999997815e+00 -1.322999999999997733e+00 1.032000000000006246e+00 1.322000000000004727e+00 -2.927999999999995051e+00 -1.759999999999947162e-01 -8.889999999999956826e-01 6.160000000000050990e-01 4.440000000000063896e-01 -1.202999999999992298e+00 -1.718999999999995421e+00 1.314000000000005608e+00 4.090000000000012292e+00 -1.594999999999994422e+00 -1.623999999999996779e+00 1.277000000000007240e+00 -2.930999999999996941e+00 9.970000000000052154e-01 -2.779999999999956950e-01 1.122000000000005437e+00 1.877000000000009994e+00 9.290000000000071534e-01 1.680000000000045901e-01 -9.659999999999961950e-01 7.290000000000058655e-01 6.100000000000549427e-02 6.890000000000083835e-01 -6.399999999999912426e-01 8.530000000000050875e-01 -1.629999999999994342e+00 4.990000000000074376e-01 -8.639999999999962155e-01 4.550000000000047340e-01 -4.569999999999951878e-01 1.006000000000007999e+00 8.430000000000043014e-01 -1.095999999999997421e+00 -1.077999999999996517e+00 2.429000000000007820e+00 -5.779999999999951843e-01 -9.559999999999937437e-01 5.300000000000031353e-01 2.646000000000013674e+00 -8.159999999999956177e-01 -1.350999999999994872e+00 -3.292999999999996152e+00 -1.556999999999993500e+00 -2.219999999999929807e-01 -3.779999999999985594e-01 3.160000000000058318e-01 -1.703999999999994408e+00 -4.829999999999934346e-01 1.074000000000008059e+00 1.051000000000005929e+00 1.150000000000072076e-01 -5.569999999999933893e-01 -1.499999999999201972e-02 -6.839999999999943903e-01 -1.799999999999468692e-02 1.107000000000004647e+00 -1.387999999999994127e+00 -1.134999999999993125e+00 9.640000000000082947e-01 1.170000000000012363e+00 1.878000000000008995e+00 2.058000000000004270e+00 1.460000000000087894e-01 -2.679999999999957971e-01 -1.369999999999995888e+00 -9.109999999999963682e-01 -1.564999999999995506e+00 -7.079999999999896376e-01 1.550000000000075762e-01 -2.839999999999942570e-01 7.760000000000080167e-01 9.750000000000043077e-01 6.860000000000051612e-01 4.800000000000042011e-01 -1.605999999999997208e+00 -3.499999999999214850e-02 -3.359999999999929710e-01 3.393000000000013117e+00 2.262000000000012001e+00 2.660000000000073417e-01 1.300000000000037792e-01 -9.289999999999964952e-01 1.392000000000006565e+00 -3.239999999999969571e-01 -9.789999999999965397e-01 1.796000000000005148e+00 1.670000000000009255e+00 6.550000000000067990e-01 2.440000000000046576e-01 1.200000000000445155e-02 4.070000000000065787e-01 -1.771999999999989583e+00 1.410000000000065645e-01 2.306000000000006267e+00 2.975000000000011635e+00 4.080000000000066906e-01 1.204000000000005510e+00 -1.200999999999997403e+00 5.360000000000040288e-01 -1.812999999999995282e+00 -1.549999999999998934e+00 4.830000000000016058e+00 7.850000000000060263e-01 2.200000000000014833e+00 9.890000000000069846e-01 -1.085999999999994525e+00 -1.402999999999994252e+00 8.300000000000562483e-02 1.117000000000007098e+00 1.551000000000010370e+00 -1.315999999999995174e+00 2.800000000000008260e+00 -1.083999999999995634e+00 -2.476999999999994984e+00 -1.011999999999996680e+00 1.960000000000005294e+00 2.596000000000006747e+00 -2.315999999999996284e+00 1.789000000000006807e+00 3.140000000000046088e-01 -5.399999999999980371e-01 -1.385999999999995902e+00 1.845000000000009077e+00 -7.639999999999980140e-01 1.214000000000010182e+00 1.063000000000009937e+00 5.890000000000059632e-01 5.590000000000078240e-01 1.136000000000004562e+00 -5.189999999999942437e-01 1.033000000000005025e+00 -8.469999999999929807e-01 -1.066999999999999282e+00 1.570000000000054685e-01 -1.160999999999996479e+00 -2.895999999999994579e+00 -7.839999999999918145e-01 -1.799999999999922773e-01 3.150000000000064970e-01 -7.799999999999651656e-02 2.040000000000006253e+00 -8.299999999999951861e-01 -1.429999999999966853e-01 1.019000000000006789e+00 -1.388999999999995794e+00 1.010000000000027542e-01 1.403000000000004688e+00 3.169000000000008477e+00 1.250000000000007550e+00 -1.609999999999974785e-01 -4.999999999999958922e-01 2.900000000000044764e-01 6.370000000000085594e-01 -5.299999999999571720e-02 1.090000000000047597e-01 3.670000000000037677e-01 -1.182999999999996721e+00 1.768000000000007788e+00 -4.499999999999935163e-01 3.680000000000065441e-01 2.093000000000008409e+00 -5.359999999999960352e-01 6.170000000000067653e-01 -1.955999999999997296e+00 -1.009999999999995568e+00 2.290000000000037561e-01 -1.497999999999994225e+00 5.880000000000048521e-01 -2.546999999999994380e+00 -2.001999999999994451e+00 -3.429999999999966409e-01 -1.079999999999948779e-01 1.081000000000007066e+00 1.839000000000007073e+00 9.210000000000034825e-01 -2.548999999999996380e+00 -1.445999999999995955e+00
-7.759999999999954712e-01 9.000000000000069056e-01 -2.468999999999994088e+00 -7.429999999999935545e-01 -6.699999999999928235e-01 -8.439999999999945324e-01 6.100000000000438405e-02 -8.199999999999296740e-02 -4.082999999999997520e+00 8.740000000000086589e-01 -6.699999999999128875e-02 1.899000000000008903e+00 5.170000000000037899e-01 -2.075999999999993850e+00 3.209000000000008068e+00 -1.901999999999998137e+00 -8.759999999999954490e-01 -2.155999999999995698e+00 1.946000000000006169e+00 4.880000000000073168e-01 -6.199999999998950795e-02 3.170000000000066098e-01 2.416000000000008363e+00 7.770000000000051310e-01 -1.924999999999998934e+00 8.500000000000440536e-02 -1.458999999999994968e+00 -1.110999999999995769e+00 2.663000000000009138e+00 -2.024999999999995026e+00 -1.706999999999993634e+00 -4.999999999996340705e-03 5.180000000000030136e-01 -2.309999999999949871e-01 7.590000000000043379e-01 -5.239999999999951363e-01 1.350000000000045608e-01 6.000000000000085265e-01 -3.147999999999993914e+00 -7.899999999999651745e-02 1.004000000000007109e+00 -1.178999999999998494e+00 2.507000000000006779e+00 2.300000000000008260e+00 2.770000000000037987e-01 1.574000000000008503e+00 -4.629999999999925286e-01 -1.988999999999996549e+00 3.000000000000635492e-02 -1.373999999999996557e+00 1.874000000000008104e+00 5.230000000000056826e-01 -9.629999999999920846e-01 1.279000000000005688e+00 -1.579999999999974758e-01 8.620000000000057616e-01 -2.272999999999997467e+00 4.130000000000030314e-01 6.000000000003669065e-03 -3.189999999999961755e-01 -4.799999999999969846e-01 1.700000000000010392e-01 -1.414999999999997815e+00 -1.322999999999997733e+00 1.676000000000007706e+00 6.610000000000041398e-01 -2.927999999999995051e+00 7.110000000000051834e-01 -8.889999999999956826e-01 1.201000000000006285e+00 1.610000000000070264e-01 -2.101999999999994984e+00 -1.718999999999995421e+00 4.710000000000049702e-01 4.414000000000012136e+00 -1.594999999999994422e+00 -1.623999999999996779e+00 1.566000000000008274e+00 -2.321999999999997399e+00 9.970000000000052154e-01 -2.779999999999956950e-01 4.350000000000038280e-01 2.090000000000010960e+00 1.267000000000006565e+00 5.410000000000056986e-01 -9.659999999999961950e-01 7.290000000000058655e-01 6.690000000000061453e-01 6.890000000000083835e-01 -6.399999999999912426e-01 8.530000000000050875e-01 -1.629999999999994342e+00 -1.539999999999939195e-01 -8.639999999999962155e-01 5.090000000000038938e-01 -4.569999999999951878e-01 1.006000000000007999e+00 2.490000000000028857e-01 -8.309999999999964082e-01 -1.077999999999996517e+00 2.013000000000008338e+00 -5.529999999999960503e-01 -1.580999999999995076e+00 5.300000000000031353e-01 1.742000000000011983e+00 -8.159999999999956177e-01 -1.350999999999994872e+00 -4.078999999999996184e+00 -1.556999999999993500e+00 -2.219999999999929807e-01 -1.353999999999998538e+00 3.160000000000058318e-01 -1.871999999999994557e+00 -4.829999999999934346e-01 6.670000000000076978e-01 7.250000000000040856e-01 1.150000000000072076e-01 -5.569999999999933893e-01 -1.499999999999201972e-02 -2.649999999999949063e-01 9.060000000000052456e-01 2.450000000000028821e-01 -1.387999999999994127e+00 -1.134999999999993125e+00 9.640000000000082947e-01 7.450000000000112088e-01 1.878000000000008995e+00 2.058000000000004270e+00 -1.599999999999224265e-02 3.980000000000039062e-01 -1.960999999999997412e+00 -9.109999999999963682e-01 -1.564999999999995506e+00 -7.079999999999896376e-01 2.540000000000086633e-01 -2.839999999999942570e-01 7.760000000000080167e-01 9.750000000000043077e-01 6.340000000000042268e-01 8.800000000000062217e-01 -1.605999999999997208e+00 -3.499999999999214850e-02 1.218000000000008409e+00 3.135000000000011333e+00 2.987000000000014310e+00 -3.899999999999941291e-01 -3.709999999999956666e-01 -9.289999999999964952e-01 1.392000000000006565e+00 -3.239999999999969571e-01 -9.789999999999965397e-01 1.354000000000003867e+00 1.670000000000009255e+00 -1.799999999999291056e-02 1.432000000000005713e+00 7.210000000000041931e-01 -7.479999999999944471e-01 -2.863999999999990553e+00 1.410000000000065645e-01 2.080000000000007176e+00 2.975000000000011635e+00 -7.999999999999936051e-01 1.204000000000005510e+00 -1.697999999999996845e+00 5.360000000000040288e-01 -1.812999999999995282e+00 -1.549999999999998934e+00 3.951000000000014722e+00 7.850000000000060263e-01 2.200000000000014833e+00 9.890000000000069846e-01 -1.085999999999994525e+00 -1.340999999999993308e+00 1.681000000000012484e+00 5.530000000000058202e-01 1.284000000000009134e+00 -2.369999999999959917e-01 2.059000000000006825e+00 -1.083999999999995634e+00 -2.476999999999994984e+00 -1.011999999999996680e+00 1.960000000000005294e+00 2.596000000000006747e+00 -1.897999999999997023e+00 1.789000000000006807e+00 3.140000000000046088e-01 -5.399999999999980371e-01 -1.385999999999995902e+00 1.518000000000007788e+00 -7.639999999999980140e-01 1.214000000000010182e+00 1.063000000000009937e+00 2.470000000000047713e-01 3.940000000000059011e-01 1.136000000000004562e+00 -5.559999999999950537e-01 1.033000000000005025e+00 -8.469999999999929807e-01 -1.971999999999998421e+00 6.810000000000050457e-01 -1.160999999999996479e+00 -2.104999999999992877e+00 -1.779999999999903881e-01 5.600000000000074918e-01 3.150000000000064970e-01 -1.699999999999735056e-02 2.118000000000007432e+00 -1.317999999999996508e+00 -1.429999999999966853e-01 1.019000000000006789e+00 -1.388999999999995794e+00 -9.699999999999742162e-02 1.403000000000004688e+00 3.169000000000008477e+00 1.403000000000006686e+00 -1.609999999999974785e-01 -1.244999999999998330e+00 2.900000000000044764e-01 2.210000000000073017e-01 -5.299999999999571720e-02 1.090000000000047597e-01 -5.329999999999961435e-01 -6.199999999999961098e-01 1.326000000000006507e+00 -4.499999999999935163e-01 6.930000000000059446e-01 2.297000000000009479e+00 -5.359999999999960352e-01 8.680000000000061000e-01 -1.955999999999997296e+00 -4.669999999999959739e-01 2.290000000000037561e-01 -1.497999999999994225e+00 5.880000000000048521e-01 -2.546999999999994380e+00 -2.001999999999994451e+00 -1.578999999999997739e+00 -1.079999999999948779e-01 7.160000000000067422e-01 1.227000000000005642e+00 9.210000000000034825e-01 -2.876999999999997559e+00 -1.445999999999995955e+00
-1.750999999999995449e+00 9.000000000000069056e-01 -2.468999999999994088e+00 1.219000000000007855e+00 -6.839999999999943903e-01 -8.439999999999945324e-01 7.300000000000057554e-01 -8.369999999999946372e-01 -4.082999999999997520e+00 6.670000000000074758e-01 -6.699999999999128875e-02 1.431000000000007599e+00 -3.969999999999952456e-01 -2.075999999999993850e+00 1.901000000000005130e+00 -9.059999999999963638e-01 -8.759999999999954490e-01 -2.238999999999994994e+00 1.946000000000006169e+00 4.090000000000062474e-01 3.450000000000118527e-01 3.170000000000066098e-01 2.416000000000008363e+00 1.699000000000006949e+00 -1.924999999999998934e+00 8.500000000000440536e-02 -1.458999999999994968e+00 -1.110999999999995769e+00 2.663000000000009138e+00 -2.024999999999995026e+00 -1.706999999999993634e+00 -8.899999999999962386e-01 5.180000000000030136e-01 -9.799999999999947642e-01 1.071000000000003727e+00 -9.529999999999962945e-01 1.350000000000045608e-01 2.004000000000011550e+00 -3.147999999999993914e+00 3.480000000000048610e-01 1.004000000000007109e+00 -1.309999999999996723e+00 2.507000000000006779e+00 1.923000000000007148e+00 2.770000000000037987e-01 1.574000000000008503e+00 -1.889999999999940616e-01 -1.610999999999995325e+00 3.000000000000635492e-02 -1.281999999999995588e+00 9.100000000000063594e-01 1.758000000000006668e+00 -1.540999999999991710e+00 1.685000000000006937e+00 -1.579999999999974758e-01 8.620000000000057616e-01 -2.272999999999997467e+00 4.130000000000030314e-01 3.690000000000047686e-01 -3.189999999999961755e-01 -4.799999999999969846e-01 1.700000000000010392e-01 -1.414999999999997815e+00 -1.322999999999997733e+00 1.032000000000006246e+00 1.120000000000003659e+00 -3.135999999999994348e+00 -1.759999999999947162e-01 -8.889999999999956826e-01 6.160000000000050990e-01 1.610000000000070264e-01 -2.101999999999994984e+00 -1.718999999999995421e+00 4.710000000000049702e-01 3.430000000000012150e+00 -1.778999999999993697e+00 -1.650999999999995804e+00 1.277000000000007240e+00 -3.462999999999996525e+00 3.300000000000524736e-02 -2.779999999999956950e-01 5.690000000000048352e-01 1.823000000000010834e+00 1.267000000000006565e+00 5.410000000000056986e-01 -9.659999999999961950e-01 7.290000000000058655e-01 6.100000000000549427e-02 3.790000000000089964e-01 -6.399999999999912426e-01 8.530000000000050875e-01 -2.628999999999994230e+00 -1.539999999999939195e-01 -1.071999999999995623e+00 -2.809999999999959197e-01 -4.569999999999951878e-01 1.570000000000081330e-01 2.490000000000028857e-01 -1.459999999999995968e+00 -4.719999999999950901e-01 2.013000000000008338e+00 -5.529999999999960503e-01 -1.580999999999995076e+00 5.300000000000031353e-01 1.007000000000010331e+00 -8.159999999999956177e-01 -1.350999999999994872e+00 -1.093999999999994976e+00 -1.556999999999993500e+00 9.140000000000072511e-01 -1.353999999999998538e+00 4.520000000000041762e-01 -1.084999999999994857e+00 -4.829999999999934346e-01 1.436000000000007493e+00 7.250000000000040856e-01 1.150000000000072076e-01 9.860000000000089804e-01 9.140000000000088054e-01 2.040000000000081748e-01 9.060000000000052456e-01 2.450000000000028821e-01 -3.899999999999914646e-01 -1.134999999999993125e+00 9.640000000000082947e-01 2.200000000001145484e-02 1.878000000000008995e+00 2.058000000000004270e+00 1.460000000000087894e-01 -2.679999999999957971e-01 -1.960999999999997412e+00 -9.109999999999963682e-01 -1.564999999999995506e+00 -7.079999999999896376e-01 2.540000000000086633e-01 -2.839999999999942570e-01 1.302000000000007596e+00 9.750000000000043077e-01 6.860000000000051612e-01 4.800000000000042011e-01 -7.489999999999945590e-01 -3.499999999999214850e-02 4.370000000000068274e-01 3.563000000000012601e+00 2.262000000000012001e+00 3.220000000000073914e-01 -1.549999999999965850e-01 -4.299999999999969402e-01 1.392000000000006565e+00 -3.239999999999969571e-01 -9.789999999999965397e-01 1.354000000000003867e+00 1.855000000000010196e+00 1.360000000000008313e+00 9.070000000000062457e-01 7.210000000000041931e-01 -7.479999999999944471e-01 -2.863999999999990553e+00 3.560000000000058673e-01 2.306000000000006267e+00 2.975000000000011635e+00 -1.198999999999993182e+00 2.308000000000007823e+00 -1.629999999999995897e+00 -2.379999999999957705e-01 -1.812999999999995282e+00 -1.549999999999998934e+00 3.951000000000014722e+00 7.850000000000060263e-01 2.200000000000014833e+00 9.890000000000069846e-01 -1.085999999999994525e+00 -2.169999999999995932e+00 -6.079999999999949889e-01 5.640000000000068292e-01 5.190000000000076774e-01 -2.369999999999959917e-01 2.059000000000006825e+00 -1.083999999999995634e+00 -2.476999999999994984e+00 -3.799999999999952305e-01 1.960000000000005294e+00 2.200000000000005507e+00 -1.968999999999996309e+00 9.050000000000069100e-01 8.270000000000041762e-01 -5.399999999999980371e-01 -1.047999999999996490e+00 1.518000000000007788e+00 -7.639999999999980140e-01 1.214000000000010182e+00 -5.299999999999271960e-02 2.470000000000047713e-01 3.940000000000059011e-01 1.136000000000004562e+00 -5.559999999999950537e-01 1.033000000000005025e+00 -1.477999999999992653e+00 -2.783999999999997144e+00 6.810000000000050457e-01 -1.160999999999996479e+00 -2.104999999999992877e+00 -7.839999999999918145e-01 1.110000000000008757e+00 3.150000000000064970e-01 -1.699999999999735056e-02 2.040000000000006253e+00 -1.963999999999996193e+00 -1.429999999999966853e-01 1.060000000000053122e-01 -1.125999999999994561e+00 -9.699999999999742162e-02 1.403000000000004688e+00 3.169000000000008477e+00 1.403000000000006686e+00 -1.609999999999974785e-01 -4.449999999999967315e-01 1.520000000000043539e-01 6.170000000000067653e-01 -7.829999999999954774e-01 -1.409999999999937970e-01 -5.329999999999961435e-01 -1.103999999999996540e+00 1.326000000000006507e+00 -1.788999999999993928e+00 1.139000000000007340e+00 2.093000000000008409e+00 -6.699999999999650679e-02 8.680000000000061000e-01 -1.955999999999997296e+00 -4.669999999999959739e-01 2.290000000000037561e-01 -1.497999999999994225e+00 -3.089999999999950564e-01 -2.455999999999993300e+00 -2.001999999999994451e+00 -3.429999999999966409e-01 -1.079999999999948779e-01 1.081000000000007066e+00 1.839000000000007073e+00 9.210000000000034825e-01 -2.876999999999997559e+00 -1.445999999999995955e+00
-8.329999999999962990e-01 2.038000000000009582e+00 -2.468999999999994088e+00 7.500000000000706102e-02 -8.899999999999153033e-02 -8.439999999999945324e-01 7.300000000000057554e-01 -2.159999999999949738e-01 -4.082999999999997520e+00 3.870000000000081153e-01 1.760000000000080389e-01 1.431000000000007599e+00 1.422000000000005482e+00 -1.438999999999992507e+00 1.901000000000005130e+00 -1.901999999999998137e+00 -8.759999999999954490e-01 -2.155999999999995698e+00 1.946000000000006169e+00 -1.119999999999933271e-01 -6.199999999998950795e-02 -4.219999999999950457e-01 1.743000000000006988e+00 7.770000000000051310e-01 -2.416999999999998483e+00 8.500000000000440536e-02 -1.458999999999994968e+00 -1.110999999999995769e+00 2.663000000000009138e+00 -2.692999999999996508e+00 -5.669999999999923990e-01 -8.899999999999962386e-01 5.180000000000030136e-01 -2.309999999999949871e-01 7.590000000000043379e-01 -2.569999999999947882e-01 1.350000000000045608e-01 5.400000000000715339e-02 -3.147999999999993914e+00 -1.369999999999997664e+00 1.793000000000008587e+00 -1.309999999999996723e+00 3.232000000000008200e+00 1.923000000000007148e+00 8.570000000000052021e-01 1.574000000000008503e+00 -1.889999999999940616e-01 -9.779999999999939853e-01 7.660000000000078968e-01 -1.431999999999995721e+00 1.626000000000006995e+00 -2.949999999999941558e-01 -9.629999999999920846e-01 1.279000000000005688e+00 4.020000000000030216e-01 8.620000000000057616e-01 -2.272999999999997467e+00 -5.529999999999969384e-01 6.000000000003669065e-03 -3.189999999999961755e-01 -4.799999999999969846e-01 1.700000000000010392e-01 -1.414999999999997815e+00 -1.436999999999996946e+00 1.032000000000006246e+00 1.692000000000005056e+00 -3.135999999999994348e+00 7.110000000000051834e-01 2.000000000006108003e-03 6.160000000000050990e-01 1.610000000000070264e-01 -2.500999999999993229e+00 -2.519999999999946727e-01 8.730000000000044391e-01 4.414000000000012136e+00 -1.594999999999994422e+00 -1.650999999999995804e+00 1.277000000000007240e+00 -2.994999999999996998e+00 -1.085999999999997412e+00 -7.369999999999971019e-01 4.350000000000038280e-01 1.877000000000009994e+00 1.014000000000007340e+00 4.990000000000058833e-01 6.060000000000076437e-01 7.290000000000058655e-01 -2.279999999999947624e-01 6.890000000000083835e-01 -6.399999999999912426e-01 1.721000000000006747e+00 -1.206999999999992967e+00 -1.539999999999939195e-01 -1.071999999999995623e+00 6.870000000000060503e-01 -4.569999999999951878e-01 1.006000000000007999e+00 2.490000000000028857e-01 -1.772999999999997023e+00 -1.077999999999996517e+00 2.429000000000007820e+00 -5.529999999999960503e-01 -1.580999999999995076e+00 1.074000000000004507e+00 2.006000000000012218e+00 -8.159999999999956177e-01 -1.350999999999994872e+00 -1.093999999999994976e+00 -1.556999999999993500e+00 9.140000000000072511e-01 -1.353999999999998538e+00 4.520000000000041762e-01 -1.084999999999994857e+00 -4.829999999999934346e-01 9.420000000000079421e-01 7.250000000000040856e-01 1.150000000000072076e-01 9.860000000000089804e-01 9.140000000000088054e-01 6.750000000000068168e-01 9.060000000000052456e-01 5.150000000000048983e-01 -1.387999999999994127e+00 -6.249999999999917843e-01 9.640000000000082947e-01 8.240000000000122782e-01 1.878000000000008995e+00 1.247000000000003883e+00 -1.599999999999224265e-02 -1.042999999999995708e+00 -1.960999999999997412e+00 4.760000000000049747e-01 -7.759999999999931397e-01 2.351000000000012413e+00 1.550000000000075762e-01 -1.055999999999995831e+00 3.090000000000076019e-01 9.750000000000043077e-01 -1.346999999999992870e+00 8.800000000000062217e-01 -7.489999999999945590e-01 5.400000000000870770e-02 4.370000000000068274e-01 3.135000000000011333e+00 3.245000000000013873e+00 7.540000000000086633e-01 -1.549999999999965850e-01 -1.276999999999995916e+00 2.228000000000006864e+00 6.310000000000040021e-01 -1.436999999999995392e+00 1.354000000000003867e+00 8.490000000000069713e-01 3.580000000000064242e-01 8.710000000000061027e-01 7.210000000000041931e-01 -1.934999999999996501e+00 -2.863999999999990553e+00 9.530000000000080629e-01 2.306000000000006267e+00 1.576000000000011170e+00 -7.999999999999936051e-01 2.308000000000007823e+00 -1.424999999999996714e+00 -8.659999999999954401e-01 -1.812999999999995282e+00 -2.462999999999998746e+00 3.663000000000014467e+00 7.850000000000060263e-01 2.689000000000016044e+00 -2.599999999999941247e-01 -1.085999999999994525e+00 -2.169999999999995932e+00 3.129000000000013770e+00 5.530000000000058202e-01 -6.499999999999195310e-02 -2.369999999999959917e-01 1.087000000000004185e+00 -1.083999999999995634e+00 -3.234999999999994991e+00 -2.969999999999941576e-01 1.960000000000005294e+00 3.190000000000007496e+00 -1.498999999999995003e+00 1.789000000000006807e+00 8.270000000000041762e-01 -5.399999999999980371e-01 -1.047999999999996490e+00 9.930000000000082094e-01 -7.639999999999980140e-01 3.180000000000084981e-01 8.900000000000097833e-01 2.470000000000047713e-01 3.940000000000059011e-01 1.136000000000004562e+00 -5.559999999999950537e-01 1.178000000000005931e+00 -1.034999999999992149e+00 -1.393999999999998796e+00 6.790000000000059321e-01 -1.923999999999996380e+00 -2.028999999999994586e+00 -7.839999999999918145e-01 1.440000000000009273e+00 3.150000000000064970e-01 -1.699999999999735056e-02 2.040000000000006253e+00 -2.146999999999996245e+00 7.440000000000032143e-01 5.550000000000082645e-01 -1.388999999999995794e+00 -9.699999999999742162e-02 1.403000000000004688e+00 3.838000000000008960e+00 1.403000000000006686e+00 -8.899999999999972378e-01 -1.838999999999997303e+00 1.520000000000043539e-01 9.750000000000061950e-01 -2.709999999999939124e-01 -1.459999999999964659e-01 3.670000000000037677e-01 -7.859999999999953690e-01 1.326000000000006507e+00 -2.564999999999993729e+00 5.990000000000077485e-01 2.091000000000009962e+00 -6.699999999999650679e-02 8.680000000000061000e-01 -1.955999999999997296e+00 9.880000000000069837e-01 2.290000000000037561e-01 -1.497999999999994225e+00 5.880000000000048521e-01 -1.769999999999992912e+00 -2.001999999999994451e+00 -1.288999999999998369e+00 -1.079999999999948779e-01 7.160000000000067422e-01 1.227000000000005642e+00 9.210000000000034825e-01 -2.876999999999997559e+00 -1.445999999999995955e+00
-8.999999999999463984e-02 9.000000000000069056e-01 -2.468999999999994088e+00 7.830000000000076898e-01 -4.399999999999932854e-01 -8.439999999999945324e-01 -6.719999999999953788e-01 2.260000000000055298e-01 -4.082999999999997520e+00 6.670000000000074758e-01 8.420000000000102958e-01 2.887000000000010669e+00 5.170000000000037899e-01 -2.075999999999993850e+00 2.031000000000007244e+00 -1.901999999999998137e+00 -8.759999999999954490e-01 -2.155999999999995698e+00 1.946000000000006169e+00 4.880000000000073168e-01 -6.199999999998950795e-02 3.170000000000066098e-01 1.743000000000006988e+00 7.770000000000051310e-01 -1.924999999999998934e+00 1.386000000000007448e+00 -1.458999999999994968e+00 -1.110999999999995769e+00 2.663000000000009138e+00 -2.259999999999996234e+00 -3.759999999999914522e-01 1.380000000000047855e-01 -3.699999999999968869e-01 -2.309999999999949871e-01 1.150000000000004796e+00 -5.239999999999951363e-01 -3.699999999999381561e-02 2.150000000000090727e-01 -2.155999999999993921e+00 -5.289999999999978053e-01 4.230000000000074811e-01 4.240000000000054836e-01 2.507000000000006779e+00 1.923000000000007148e+00 2.770000000000037987e-01 1.289000000000007473e+00 -4.629999999999925286e-01 -1.988999999999996549e+00 6.490000000000079039e-01 -1.373999999999996557e+00 1.856000000000006311e+00 5.230000000000056826e-01 -9.629999999999920846e-01 1.279000000000005688e+00 8.330000000000044036e-01 8.620000000000057616e-01 -1.671999999999996156e+00 4.130000000000030314e-01 6.000000000003669065e-03 -3.189999999999961755e-01 -4.799999999999969846e-01 1.700000000000010392e-01 -1.414999999999997815e+00 -1.322999999999997733e+00 1.676000000000007706e+00 6.610000000000041398e-01 -2.927999999999995051e+00 7.110000000000051834e-01 -8.889999999999956826e-01 6.160000000000050990e-01 4.440000000000063896e-01 -1.202999999999992298e+00 -1.098999999999994648e+00 4.710000000000049702e-01 4.414000000000012136e+00 -1.594999999999994422e+00 -1.623999999999996779e+00 1.566000000000008274e+00 -3.180999999999996497e+00 9.970000000000052154e-01 -2.779999999999956950e-01 4.350000000000038280e-01 9.730000000000081917e-01 1.267000000000006565e+00 1.680000000000045901e-01 -9.659999999999961950e-01 2.740000000000029079e-01 6.690000000000061453e-01 -3.329999999999916360e-01 -6.399999999999912426e-01 8.530000000000050875e-01 -1.629999999999994342e+00 1.100000000000054268e-01 -8.639999999999962155e-01 5.090000000000038938e-01 -4.569999999999951878e-01 1.006000000000007999e+00 6.720000000000032614e-01 -8.309999999999964082e-01 -1.077999999999996517e+00 2.429000000000007820e+00 -5.529999999999960503e-01 3.160000000000056097e-01 1.220000000000005524e+00 1.742000000000011983e+00 -8.159999999999956177e-01 -7.999999999999933831e-01 -4.078999999999996184e+00 -1.556999999999993500e+00 -2.219999999999929807e-01 -3.779999999999985594e-01 -2.619999999999955698e-01 -1.871999999999994557e+00 -4.829999999999934346e-01 6.670000000000076978e-01 7.250000000000040856e-01 1.150000000000072076e-01 -5.569999999999933893e-01 -9.689999999999919789e-01 -6.839999999999943903e-01 1.650000000000054756e-01 2.450000000000028821e-01 -1.387999999999994127e+00 -1.134999999999993125e+00 9.640000000000082947e-01 1.170000000000012363e+00 1.878000000000008995e+00 2.041000000000004810e+00 -1.599999999999224265e-02 4.350000000000056044e-01 -1.663999999999996371e+00 1.200000000000046585e-01 -1.564999999999995506e+00 -7.079999999999896376e-01 2.540000000000086633e-01 -2.839999999999942570e-01 7.760000000000080167e-01 9.750000000000043077e-01 -1.346999999999992870e+00 4.880000000000042082e-01 -1.605999999999997208e+00 -3.499999999999214850e-02 4.370000000000068274e-01 2.362000000000008981e+00 2.987000000000014310e+00 -3.899999999999941291e-01 4.820000000000058682e-01 -9.289999999999964952e-01 1.392000000000006565e+00 -3.239999999999969571e-01 -6.619999999999954809e-01 1.354000000000003867e+00 1.670000000000009255e+00 -1.799999999999291056e-02 1.432000000000005713e+00 1.200000000000445155e-02 -2.309999999999948761e-01 -2.863999999999990553e+00 1.410000000000065645e-01 2.080000000000007176e+00 2.975000000000011635e+00 -7.999999999999936051e-01 1.204000000000005510e+00 -1.697999999999996845e+00 5.360000000000040288e-01 -1.812999999999995282e+00 -1.549999999999998934e+00 3.663000000000014467e+00 7.850000000000060263e-01 2.200000000000014833e+00 9.890000000000069846e-01 -1.085999999999994525e+00 -1.340999999999993308e+00 2.250000000000048628e-01 5.530000000000058202e-01 1.551000000000010370e+00 -2.369999999999959917e-01 2.023000000000004128e+00 -1.083999999999995634e+00 -2.476999999999994984e+00 -1.011999999999996680e+00 2.804000000000007820e+00 2.596000000000006747e+00 -2.315999999999996284e+00 1.789000000000006807e+00 3.140000000000046088e-01 -8.879999999999964588e-01 -1.385999999999995902e+00 1.845000000000009077e+00 -8.489999999999972013e-01 3.180000000000084981e-01 1.063000000000009937e+00 2.470000000000047713e-01 5.590000000000078240e-01 1.136000000000004562e+00 -5.559999999999950537e-01 1.033000000000005025e+00 -8.469999999999929807e-01 -1.066999999999999282e+00 6.810000000000050457e-01 -1.160999999999996479e+00 -2.895999999999994579e+00 -1.779999999999903881e-01 -1.799999999999922773e-01 1.131000000000008221e+00 -6.939999999999970637e-01 2.118000000000007432e+00 -1.317999999999996508e+00 7.440000000000032143e-01 1.019000000000006789e+00 -1.388999999999995794e+00 1.010000000000027542e-01 1.403000000000004688e+00 3.169000000000008477e+00 7.940000000000060343e-01 -1.609999999999974785e-01 -4.449999999999967315e-01 2.900000000000044764e-01 2.210000000000073017e-01 -5.299999999999571720e-02 -1.459999999999964659e-01 -4.279999999999952731e-01 -1.182999999999996721e+00 1.326000000000006507e+00 -4.499999999999935163e-01 6.930000000000059446e-01 2.093000000000008409e+00 -5.359999999999960352e-01 8.680000000000061000e-01 -1.955999999999997296e+00 -4.669999999999959739e-01 2.290000000000037561e-01 -8.659999999999927756e-01 6.970000000000057261e-01 -2.546999999999994380e+00 -2.754999999999994120e+00 -1.288999999999998369e+00 -1.079999999999948779e-01 7.160000000000067422e-01 1.227000000000005642e+00 9.210000000000034825e-01 -2.876999999999997559e+00 -7.829999999999943672e-01
-4.679999999999951976e-01 9.000000000000069056e-01 -2.468999999999994088e+00 2.420000000000063212e-01 -8.899999999999153033e-02 -8.439999999999945324e-01 6.100000000000438405e-02 -2.159999999999949738e-01 -4.082999999999997520e+00 6.670000000000074758e-01 4.700000000000081890e-01 1.607000000000008422e+00 5.170000000000037899e-01 -1.632999999999992458e+00 2.312000000000006494e+00 -1.901999999999998137e+00 -6.049999999999942091e-01 -2.155999999999995698e+00 3.778000000000009351e+00 1.375000000000007994e+00 -6.199999999998950795e-02 3.170000000000066098e-01 2.316000000000008274e+00 7.770000000000051310e-01 -1.070999999999997288e+00 1.386000000000007448e+00 -1.458999999999994968e+00 -2.429999999999941096e-01 2.663000000000009138e+00 -1.772999999999994802e+00 -1.285999999999994037e+00 -8.899999999999962386e-01 5.180000000000030136e-01 -2.309999999999949871e-01 1.779000000000006132e+00 -9.529999999999962945e-01 -3.699999999999381561e-02 5.400000000000715339e-02 -2.572999999999993292e+00 -5.289999999999978053e-01 1.793000000000008587e+00 -1.178999999999998494e+00 3.232000000000008200e+00 1.923000000000007148e+00 8.570000000000052021e-01 1.574000000000008503e+00 -1.889999999999940616e-01 -9.779999999999939853e-01 1.613000000000009759e+00 -1.373999999999996557e+00 1.856000000000006311e+00 1.758000000000006668e+00 -9.629999999999920846e-01 1.279000000000005688e+00 4.020000000000030216e-01 2.650000000000068967e-01 -2.272999999999997467e+00 4.130000000000030314e-01 6.000000000003669065e-03 -3.189999999999961755e-01 -1.234999999999995879e+00 1.700000000000010392e-01 -1.414999999999997815e+00 -2.165999999999997705e+00 6.820000000000068230e-01 1.322000000000004727e+00 -7.969999999999941576e-01 7.110000000000051834e-01 -7.409999999999972164e-01 -8.099999999999563105e-02 4.440000000000063896e-01 -2.500999999999993229e+00 -2.519999999999946727e-01 8.730000000000044391e-01 3.433000000000012264e+00 -1.594999999999994422e+00 -1.623999999999996779e+00 1.277000000000007240e+00 -1.765999999999996017e+00 9.970000000000052154e-01 -1.619999999999996998e+00 4.350000000000038280e-01 1.877000000000009994e+00 7.560000000000078879e-01 1.680000000000045901e-01 9.900000000000064304e-01 7.290000000000058655e-01 2.460000000000047704e-01 6.890000000000083835e-01 -8.969999999999905826e-01 9.210000000000060361e-01 -1.206999999999992967e+00 -2.389999999999948832e-01 -8.689999999999953317e-01 5.090000000000038938e-01 -4.569999999999951878e-01 2.831000000000008399e+00 4.040000000000021352e-01 -2.626999999999997115e+00 -1.891999999999996351e+00 3.197000000000010722e+00 -5.529999999999960503e-01 3.160000000000056097e-01 1.074000000000004507e+00 1.742000000000011983e+00 -8.159999999999956177e-01 -1.350999999999994872e+00 -1.093999999999994976e+00 -1.556999999999993500e+00 9.140000000000072511e-01 -7.279999999999979821e-01 8.680000000000054339e-01 -1.871999999999994557e+00 -4.829999999999934346e-01 1.436000000000007493e+00 7.250000000000040856e-01 1.150000000000072076e-01 1.143000000000008232e+00 5.090000000000084457e-01 1.430000000000072324e-01 1.650000000000054756e-01 -6.099999999999472511e-02 -1.475999999999995094e+00 -1.134999999999993125e+00 3.540000000000086411e-01 7.450000000000112088e-01 1.878000000000008995e+00 1.247000000000003883e+00 -8.599999999999319300e-02 -2.679999999999957971e-01 -1.663999999999996371e+00 -4.829999999999968763e-01 -1.692999999999994731e+00 2.130000000000010552e+00 1.550000000000075762e-01 -1.055999999999995831e+00 7.760000000000080167e-01 1.497000000000005659e+00 -3.089999999999948344e-01 1.056000000000003824e+00 -1.605999999999997208e+00 -3.499999999999214850e-02 4.370000000000068274e-01 2.746000000000010210e+00 3.245000000000013873e+00 7.540000000000086633e-01 1.300000000000037792e-01 -1.276999999999995916e+00 1.009000000000007002e+00 6.310000000000040021e-01 -2.010999999999995680e+00 2.075000000000005507e+00 1.670000000000009255e+00 -1.799999999999291056e-02 8.710000000000061027e-01 3.558000000000009599e+00 6.900000000000059419e-01 -3.803999999999990500e+00 1.410000000000065645e-01 2.080000000000007176e+00 1.576000000000011170e+00 1.295000000000007478e+00 2.308000000000007823e+00 -6.479999999999961346e-01 -2.379999999999957705e-01 -7.189999999999953095e-01 -2.230999999999998540e+00 3.663000000000014467e+00 7.850000000000060263e-01 1.705000000000014948e+00 2.430000000000073213e-01 -1.085999999999994525e+00 -1.402999999999994252e+00 3.129000000000013770e+00 5.530000000000058202e-01 1.551000000000010370e+00 -2.369999999999959917e-01 1.087000000000004185e+00 -1.170999999999995822e+00 -3.621999999999994557e+00 -2.094999999999997531e+00 2.491000000000006764e+00 2.190000000000004388e+00 -2.589999999999994529e+00 2.737000000000009869e+00 8.270000000000041762e-01 -7.229999999999955351e-01 -1.047999999999996490e+00 9.600000000000081801e-01 -7.639999999999980140e-01 3.180000000000084981e-01 -5.299999999999271960e-02 2.470000000000047713e-01 3.940000000000059011e-01 1.136000000000004562e+00 -1.503999999999994230e+00 5.230000000000054605e-01 -8.469999999999929807e-01 -1.066999999999999282e+00 6.810000000000050457e-01 -1.160999999999996479e+00 -2.028999999999994586e+00 -7.839999999999918145e-01 1.440000000000009273e+00 3.150000000000064970e-01 5.940000000000041913e-01 2.040000000000006253e+00 -2.146999999999996245e+00 7.440000000000032143e-01 1.019000000000006789e+00 -1.388999999999995794e+00 -9.699999999999742162e-02 1.403000000000004688e+00 3.531000000000008576e+00 1.256000000000005556e+00 -2.359999999999976561e-01 -1.244999999999998330e+00 1.380000000000005445e+00 6.460000000000067910e-01 -5.299999999999571720e-02 -1.459999999999964659e-01 3.670000000000037677e-01 -4.099999999999968114e-01 1.326000000000006507e+00 -2.000999999999995005e+00 1.320000000000063345e-01 2.093000000000008409e+00 -5.989999999999952029e-01 7.530000000000096616e-01 -1.955999999999997296e+00 -4.669999999999959739e-01 2.290000000000037561e-01 -1.497999999999994225e+00 1.680000000000053673e-01 -1.769999999999992912e+00 -2.001999999999994451e+00 -1.288999999999998369e+00 -1.079999999999948779e-01 1.834000000000008512e+00 1.839000000000007073e+00 9.210000000000034825e-01 -2.876999999999997559e+00 -7.829999999999943672e-01
-8.329999999999962990e-01 1.054000000000007820e+00 -2.468999999999994088e+00 8.210000000000078346e-01 -8.899999999999153033e-02 -8.439999999999945324e-01 7.300000000000057554e-01 -2.159999999999949738e-01 -4.082999999999997520e+00 6.670000000000074758e-01 -1.989999999999931823e-01 1.607000000000008422e+00 5.170000000000037899e-01 -2.075999999999993850e+00 2.312000000000006494e+00 -1.502999999999996783e+00 -6.049999999999942091e-01 -1.796999999999994380e+00 1.946000000000006169e+00 -8.999999999993235633e-03 1.497000000000011877e+00 7.810000000000059117e-01 1.208000000000007290e+00 7.770000000000051310e-01 -1.924999999999998934e+00 5.680000000000058336e-01 -1.458999999999994968e+00 -1.110999999999995769e+00 2.554000000000010040e+00 -2.692999999999996508e+00 -1.285999999999994037e+00 -8.899999999999962386e-01 1.630000000000044746e-01 -2.309999999999949871e-01 1.071000000000003727e+00 -9.529999999999962945e-01 1.350000000000045608e-01 5.400000000000715339e-02 -2.155999999999993921e+00 -5.289999999999978053e-01 1.291000000000008363e+00 -1.679999999999997939e+00 2.614000000000007429e+00 1.923000000000007148e+00 8.570000000000052021e-01 1.574000000000008503e+00 -1.889999999999940616e-01 -9.779999999999939853e-01 7.660000000000078968e-01 -1.373999999999996557e+00 1.626000000000006995e+00 1.758000000000006668e+00 -9.629999999999920846e-01 1.279000000000005688e+00 -2.919999999999984830e-01 8.620000000000057616e-01 -2.272999999999997467e+00 4.130000000000030314e-01 1.846000000000006080e+00 -3.189999999999961755e-01 -4.799999999999969846e-01 -4.049999999999985834e-01 -2.018999999999997463e+00 -2.210999999999997634e+00 1.032000000000006246e+00 1.120000000000003659e+00 -7.969999999999941576e-01 1.575000000000005063e+00 -7.409999999999972164e-01 4.610000000000039622e-01 1.100000000000007860e+00 -2.500999999999993229e+00 -1.780999999999994587e+00 4.710000000000049702e-01 4.152000000000013458e+00 -1.594999999999994422e+00 -1.650999999999995804e+00 1.277000000000007240e+00 -2.994999999999996998e+00 -3.949999999999976863e-01 -7.369999999999971019e-01 -1.111999999999995881e+00 1.877000000000009994e+00 1.014000000000007340e+00 1.680000000000045901e-01 2.400000000000546141e-02 7.290000000000058655e-01 2.460000000000047704e-01 -3.329999999999916360e-01 -6.399999999999912426e-01 9.210000000000060361e-01 -1.206999999999992967e+00 -2.389999999999948832e-01 -1.953999999999995518e+00 6.870000000000060503e-01 -4.569999999999951878e-01 2.398000000000007237e+00 4.040000000000021352e-01 -1.095999999999997421e+00 -1.891999999999996351e+00 2.429000000000007820e+00 -5.529999999999960503e-01 -1.580999999999995076e+00 1.074000000000004507e+00 1.585000000000012843e+00 -8.159999999999956177e-01 -1.350999999999994872e+00 -1.093999999999994976e+00 -7.489999999999918945e-01 9.140000000000072511e-01 -2.579999999999975646e-01 8.680000000000054339e-01 -1.084999999999994857e+00 4.670000000000082974e-01 9.420000000000079421e-01 7.250000000000040856e-01 -6.669999999999925988e-01 -4.999999999999293898e-02 5.090000000000084457e-01 6.750000000000068168e-01 9.060000000000052456e-01 2.450000000000028821e-01 -1.387999999999994127e+00 -3.299999999999934097e-01 9.640000000000082947e-01 7.450000000000112088e-01 9.920000000000090967e-01 1.247000000000003883e+00 -4.159999999999917097e-01 3.980000000000039062e-01 -1.369999999999995888e+00 -4.829999999999968763e-01 -1.699999999999302069e-02 2.351000000000012413e+00 2.540000000000086633e-01 -1.055999999999995831e+00 3.090000000000076019e-01 9.750000000000043077e-01 -3.639999999999957714e-01 5.700000000000042810e-01 -1.318999999999995953e+00 5.400000000000870770e-02 4.370000000000068274e-01 2.362000000000008981e+00 3.245000000000013873e+00 7.540000000000086633e-01 -5.169999999999966844e-01 -1.276999999999995916e+00 2.228000000000006864e+00 1.100000000000004308e+00 -1.177999999999995939e+00 1.354000000000003867e+00 3.380000000000010107e+00 3.580000000000064242e-01 9.010000000000061293e-01 6.580000000000059135e-01 -1.042999999999997485e+00 -1.771999999999989583e+00 9.530000000000080629e-01 2.306000000000006267e+00 3.781000000000013017e+00 3.130000000000056071e-01 2.308000000000007823e+00 -1.200999999999997403e+00 -7.259999999999944276e-01 -5.319999999999960316e-01 -2.332999999999997520e+00 3.663000000000014467e+00 7.850000000000060263e-01 2.200000000000014833e+00 2.470000000000054374e-01 -1.085999999999994525e+00 -1.402999999999994252e+00 2.182000000000011930e+00 5.530000000000058202e-01 5.190000000000076774e-01 -2.369999999999959917e-01 1.087000000000004185e+00 -4.449999999999951772e-01 -3.234999999999994991e+00 -4.839999999999953229e-01 2.491000000000006764e+00 2.190000000000004388e+00 -1.399999999999995692e+00 2.003000000000008107e+00 8.270000000000041762e-01 -5.399999999999980371e-01 -1.047999999999996490e+00 1.518000000000007788e+00 8.520000000000051976e-01 3.180000000000084981e-01 8.900000000000097833e-01 3.960000000000066800e-01 3.940000000000059011e-01 1.136000000000004562e+00 -5.559999999999950537e-01 1.033000000000005025e+00 -8.469999999999929807e-01 -1.971999999999998421e+00 -3.369999999999959694e-01 -1.160999999999996479e+00 -2.028999999999994586e+00 -1.779999999999903881e-01 1.440000000000009273e+00 3.150000000000064970e-01 -1.699999999999735056e-02 1.478000000000007752e+00 -2.146999999999996245e+00 7.440000000000032143e-01 1.340000000000008740e+00 -1.388999999999995794e+00 -9.699999999999742162e-02 1.403000000000004688e+00 3.169000000000008477e+00 1.881000000000006889e+00 -2.359999999999976561e-01 -4.449999999999967315e-01 1.030000000000004245e+00 6.460000000000067910e-01 -4.029999999999949178e-01 -4.029999999999958060e-01 3.670000000000037677e-01 -7.859999999999953690e-01 1.326000000000006507e+00 -2.277999999999994252e+00 1.320000000000063345e-01 2.091000000000009962e+00 -5.989999999999952029e-01 7.530000000000096616e-01 -1.955999999999997296e+00 9.880000000000069837e-01 2.290000000000037561e-01 -1.497999999999994225e+00 5.880000000000048521e-01 -1.769999999999992912e+00 -2.001999999999994451e+00 -1.288999999999998369e+00 3.220000000000072804e-01 7.160000000000067422e-01 1.949000000000007171e+00 1.446000000000004615e+00 -2.876999999999997559e+00 -1.445999999999995955e+00
-8.329999999999962990e-01 1.985000000000009646e+00 -2.468999999999994088e+00 8.210000000000078346e-01 -8.899999999999153033e-02 -8.439999999999945324e-01 7.300000000000057554e-01 -2.159999999999949738e-01 -4.120999999999996888e+00 6.670000000000074758e-01 -6.699999999999128875e-02 1.431000000000007599e+00 5.170000000000037899e-01 -2.075999999999993850e+00 1.586000000000006738e+00 -1.502999999999996783e+00 -6.049999999999942091e-01 -1.796999999999994380e+00 2.418000000000007255e+00 1.375000000000007994e+00 -6.199999999998950795e-02 3.170000000000066098e-01 2.316000000000008274e+00 7.770000000000051310e-01 -1.924999999999998934e+00 5.680000000000058336e-01 -1.458999999999994968e+00 -1.110999999999995769e+00 2.554000000000010040e+00 -2.692999999999996508e+00 -1.285999999999994037e+00 3.260000000000049525e-01 5.180000000000030136e-01 -2.309999999999949871e-01 1.071000000000003727e+00 -9.529999999999962945e-01 -7.109999999999953024e-01 1.820000000000090434e-01 -2.155999999999993921e+00 -5.289999999999978053e-01 1.816000000000007830e+00 -1.679999999999997939e+00 2.507000000000006779e+00 1.923000000000007148e+00 2.770000000000037987e-01 1.574000000000008503e+00 -4.629999999999925286e-01 -9.779999999999939853e-01 5.430000000000075877e-01 -1.373999999999996557e+00 1.626000000000006995e+00 1.758000000000006668e+00 -2.019999999999906315e-01 1.279000000000005688e+00 -1.579999999999974758e-01 1.409000000000007358e+00 -2.272999999999997467e+00 4.130000000000030314e-01 1.244000000000006434e+00 -3.189999999999961755e-01 -4.799999999999969846e-01 9.500000000000274891e-02 -2.018999999999997463e+00 -6.019999999999963158e-01 -5.609999999999933928e-01 1.120000000000003659e+00 -7.969999999999941576e-01 1.575000000000005063e+00 -7.409999999999972164e-01 4.610000000000039622e-01 1.100000000000007860e+00 -1.788999999999992596e+00 -1.780999999999994587e+00 4.710000000000049702e-01 4.152000000000013458e+00 -9.599999999999928590e-01 -1.623999999999996779e+00 8.080000000000077121e-01 -2.994999999999996998e+00 1.560000000000006715e+00 -7.369999999999971019e-01 4.350000000000038280e-01 1.877000000000009994e+00 2.100000000000734612e-02 1.680000000000045901e-01 2.400000000000546141e-02 1.320000000000007390e+00 2.460000000000047704e-01 -3.329999999999916360e-01 1.190000000000104308e-01 9.210000000000060361e-01 -1.206999999999992967e+00 -1.539999999999939195e-01 -1.701999999999995072e+00 5.090000000000038938e-01 -4.569999999999951878e-01 3.044000000000008477e+00 4.040000000000021352e-01 -1.095999999999997421e+00 -1.077999999999996517e+00 3.197000000000010722e+00 -5.529999999999960503e-01 -1.414999999999994040e+00 1.074000000000004507e+00 1.585000000000012843e+00 -8.159999999999956177e-01 -1.350999999999994872e+00 -1.093999999999994976e+00 -1.556999999999993500e+00 2.070000000000056239e-01 -2.579999999999975646e-01 8.680000000000054339e-01 -1.763999999999994461e+00 4.670000000000082974e-01 9.420000000000079421e-01 7.250000000000040856e-01 -6.669999999999925988e-01 -4.999999999999293898e-02 -1.499999999999201972e-02 6.750000000000068168e-01 1.650000000000054756e-01 2.450000000000028821e-01 -1.387999999999994127e+00 -3.299999999999934097e-01 9.640000000000082947e-01 7.450000000000112088e-01 9.920000000000090967e-01 1.247000000000003883e+00 -1.599999999999224265e-02 -9.309999999999954978e-01 -1.960999999999997412e+00 -4.829999999999968763e-01 -1.001999999999993118e+00 2.130000000000010552e+00 2.540000000000086633e-01 7.120000000000075158e-01 3.090000000000076019e-01 5.960000000000048592e-01 6.340000000000042268e-01 4.800000000000042011e-01 -1.318999999999995953e+00 -3.499999999999214850e-02 4.370000000000068274e-01 3.135000000000011333e+00 2.987000000000014310e+00 7.540000000000086633e-01 -1.152999999999996472e+00 -1.276999999999995916e+00 1.855000000000007532e+00 1.100000000000004308e+00 -1.031999999999994921e+00 2.075000000000005507e+00 3.380000000000010107e+00 3.580000000000064242e-01 1.316000000000006498e+00 2.595000000000007745e+00 -1.042999999999997485e+00 -1.771999999999989583e+00 4.170000000000076978e-01 2.306000000000006267e+00 2.344000000000010075e+00 3.130000000000056071e-01 2.308000000000007823e+00 -1.678999999999995385e+00 -7.259999999999944276e-01 -5.319999999999960316e-01 -2.332999999999997520e+00 2.995000000000014762e+00 7.850000000000060263e-01 2.200000000000014833e+00 9.890000000000069846e-01 -1.085999999999994525e+00 -2.548999999999995492e+00 2.182000000000011930e+00 1.413000000000007361e+00 5.190000000000076774e-01 -2.369999999999959917e-01 2.637000000000005784e+00 -1.376999999999995117e+00 -2.476999999999994984e+00 -1.096999999999995978e+00 2.491000000000006764e+00 2.190000000000004388e+00 -3.046999999999995268e+00 1.521000000000008567e+00 8.270000000000041762e-01 -5.399999999999980371e-01 -1.278999999999994808e+00 9.600000000000081801e-01 8.520000000000051976e-01 3.180000000000084981e-01 -5.299999999999271960e-02 3.960000000000066800e-01 3.940000000000059011e-01 1.136000000000004562e+00 -5.559999999999950537e-01 4.330000000000046034e-01 -8.469999999999929807e-01 -1.066999999999999282e+00 -3.369999999999959694e-01 -1.160999999999996479e+00 -2.073999999999992294e+00 -7.839999999999918145e-01 1.440000000000009273e+00 -4.119999999999932605e-01 -1.699999999999735056e-02 1.478000000000007752e+00 -1.317999999999996508e+00 7.440000000000032143e-01 1.340000000000008740e+00 -2.058999999999995723e+00 -9.699999999999742162e-02 1.403000000000004688e+00 3.531000000000008576e+00 1.881000000000006889e+00 -2.359999999999976561e-01 -4.449999999999967315e-01 2.900000000000044764e-01 6.460000000000067910e-01 -4.029999999999949178e-01 1.090000000000047597e-01 3.670000000000037677e-01 -7.859999999999953690e-01 1.326000000000006507e+00 -3.196999999999994291e+00 8.980000000000052385e-01 2.091000000000009962e+00 2.570000000000054463e-01 7.530000000000096616e-01 -1.955999999999997296e+00 -4.669999999999959739e-01 7.680000000000061222e-01 -3.119999999999913953e-01 5.880000000000048521e-01 -1.769999999999992912e+00 -1.562999999999993062e+00 -1.288999999999998369e+00 -1.079999999999948779e-01 7.160000000000067422e-01 1.949000000000007171e+00 9.210000000000034825e-01 -2.876999999999997559e+00 -1.445999999999995955e+00
-1.750999999999995449e+00 9.000000000000069056e-01 -2.468999999999994088e+00 1.219000000000007855e+00 -6.839999999999943903e-01 -8.439999999999945324e-01 6.100000000000438405e-02 -4.349999999999942801e-01 -4.082999999999997520e+00 -1.189999999999923341e-01 1.760000000000080389e-01 1.899000000000008903e+00 5.170000000000037899e-01 -1.438999999999992507e+00 3.209000000000008068e+00 -1.901999999999998137e+00 -8.759999999999954490e-01 -2.977999999999994873e+00 1.678000000000006819e+00 4.880000000000073168e-01 -6.199999999998950795e-02 3.170000000000066098e-01 2.416000000000008363e+00 7.770000000000051310e-01 -1.924999999999998934e+00 8.500000000000440536e-02 -1.458999999999994968e+00 -1.110999999999995769e+00 2.663000000000009138e+00 -2.024999999999995026e+00 -1.706999999999993634e+00 -4.999999999996340705e-03 5.180000000000030136e-01 -2.309999999999949871e-01 7.590000000000043379e-01 -9.529999999999962945e-01 1.350000000000045608e-01 6.000000000000085265e-01 -3.147999999999993914e+00 -7.899999999999651745e-02 1.004000000000007109e+00 -1.178999999999998494e+00 2.507000000000006779e+00 2.985000000000009646e+00 2.770000000000037987e-01 1.574000000000008503e+00 -4.629999999999925286e-01 -1.988999999999996549e+00 3.000000000000635492e-02 -1.373999999999996557e+00 1.874000000000008104e+00 5.230000000000056826e-01 -1.540999999999991710e+00 1.156000000000006356e+00 -2.919999999999984830e-01 8.620000000000057616e-01 -2.272999999999997467e+00 4.130000000000030314e-01 6.000000000003669065e-03 -3.189999999999961755e-01 -4.799999999999969846e-01 1.700000000000010392e-01 -1.414999999999997815e+00 -1.322999999999997733e+00 2.520000000000064411e-01 6.220000000000023288e-01 -3.135999999999994348e+00 7.110000000000051834e-01 -8.889999999999956826e-01 1.201000000000006285e+00 1.610000000000070264e-01 -1.131999999999991235e+00 -1.718999999999995421e+00 -2.809999999999948095e-01 4.414000000000012136e+00 -1.594999999999994422e+00 -1.595999999999995200e+00 2.098000000000009635e+00 -3.462999999999996525e+00 3.300000000000524736e-02 -2.779999999999956950e-01 4.350000000000038280e-01 1.823000000000010834e+00 9.290000000000071534e-01 1.196000000000007280e+00 -9.659999999999961950e-01 7.290000000000058655e-01 6.100000000000549427e-02 6.890000000000083835e-01 -6.399999999999912426e-01 8.530000000000050875e-01 -1.629999999999994342e+00 -1.539999999999939195e-01 -8.639999999999962155e-01 -2.809999999999959197e-01 -4.569999999999951878e-01 1.006000000000007999e+00 2.490000000000028857e-01 -8.309999999999964082e-01 -1.077999999999996517e+00 2.013000000000008338e+00 -5.529999999999960503e-01 -1.580999999999995076e+00 5.300000000000031353e-01 1.742000000000011983e+00 -8.159999999999956177e-01 -1.350999999999994872e+00 -4.078999999999996184e+00 -1.556999999999993500e+00 -2.219999999999929807e-01 -1.353999999999998538e+00 3.160000000000058318e-01 -1.084999999999994857e+00 -4.829999999999934346e-01 6.670000000000076978e-01 7.250000000000040856e-01 1.150000000000072076e-01 9.860000000000089804e-01 -1.499999999999201972e-02 -2.649999999999949063e-01 9.060000000000052456e-01 2.450000000000028821e-01 7.850000000000112443e-01 -1.134999999999993125e+00 9.640000000000082947e-01 7.450000000000112088e-01 1.878000000000008995e+00 1.323000000000004395e+00 -1.599999999999224265e-02 -2.679999999999957971e-01 -1.960999999999997412e+00 -7.999999999999962697e-01 -1.564999999999995506e+00 -7.079999999999896376e-01 2.540000000000086633e-01 -2.839999999999942570e-01 1.302000000000007596e+00 9.750000000000043077e-01 6.340000000000042268e-01 8.800000000000062217e-01 -1.605999999999997208e+00 4.090000000000091340e-01 4.370000000000068274e-01 3.135000000000011333e+00 2.987000000000014310e+00 -3.899999999999941291e-01 -3.709999999999956666e-01 -7.589999999999963443e-01 1.392000000000006565e+00 -3.239999999999969571e-01 -1.436999999999995392e+00 1.354000000000003867e+00 1.670000000000009255e+00 -1.799999999999291056e-02 2.440000000000046576e-01 7.210000000000041931e-01 -7.479999999999944471e-01 -2.863999999999990553e+00 3.560000000000058673e-01 2.306000000000006267e+00 3.333000000000013507e+00 -7.999999999999936051e-01 2.308000000000007823e+00 -1.200999999999997403e+00 5.360000000000040288e-01 -1.812999999999995282e+00 -1.549999999999998934e+00 4.442000000000016158e+00 7.850000000000060263e-01 2.200000000000014833e+00 9.890000000000069846e-01 -1.553999999999994053e+00 -1.340999999999993308e+00 2.250000000000048628e-01 5.640000000000068292e-01 9.680000000000097415e-01 -2.369999999999959917e-01 2.059000000000006825e+00 -1.083999999999995634e+00 -2.476999999999994984e+00 -1.011999999999996680e+00 1.960000000000005294e+00 2.596000000000006747e+00 -1.897999999999997023e+00 1.157000000000007134e+00 3.140000000000046088e-01 4.270000000000038209e-01 -1.047999999999996490e+00 1.518000000000007788e+00 -7.639999999999980140e-01 1.214000000000010182e+00 -8.959999999999925802e-01 2.470000000000047713e-01 1.270000000000007567e+00 1.972000000000006192e+00 -5.559999999999950537e-01 1.033000000000005025e+00 -5.839999999999917479e-01 -3.130999999999997563e+00 6.810000000000050457e-01 -1.160999999999996479e+00 -2.028999999999994586e+00 -7.839999999999918145e-01 5.600000000000074918e-01 3.150000000000064970e-01 -1.699999999999735056e-02 1.743000000000006988e+00 -1.317999999999996508e+00 7.440000000000032143e-01 -6.299999999999944533e-01 -1.388999999999995794e+00 -9.699999999999742162e-02 1.403000000000004688e+00 3.169000000000008477e+00 1.403000000000006686e+00 -1.609999999999974785e-01 -1.675999999999997936e+00 2.900000000000044764e-01 6.170000000000067653e-01 -7.829999999999954774e-01 3.750000000000058842e-01 3.670000000000037677e-01 -4.099999999999968114e-01 3.780000000000065530e-01 -4.499999999999935163e-01 6.930000000000059446e-01 2.093000000000008409e+00 -5.359999999999960352e-01 8.680000000000061000e-01 -1.955999999999997296e+00 -4.669999999999959739e-01 -2.699999999999558309e-02 -7.649999999999927969e-01 5.880000000000048521e-01 -2.546999999999994380e+00 -2.001999999999994451e+00 -1.330999999999996630e+00 -1.079999999999948779e-01 7.160000000000067422e-01 1.752000000000006885e+00 9.210000000000034825e-01 -2.876999999999997559e+00 -1.445999999999995955e+00
-7.759999999999954712e-01 9.000000000000069056e-01 -2.468999999999994088e+00 7.830000000000076898e-01 -4.399999999999932854e-01 -8.439999999999945324e-01 -8.349999999999955236e-01 -8.199999999999296740e-02 -4.082999999999997520e+00 8.740000000000086589e-01 8.420000000000102958e-01 1.899000000000008903e+00 5.170000000000037899e-01 -2.075999999999993850e+00 3.209000000000008068e+00 -1.901999999999998137e+00 -8.759999999999954490e-01 -2.155999999999995698e+00 1.946000000000006169e+00 4.880000000000073168e-01 -6.199999999998950795e-02 3.170000000000066098e-01 2.416000000000008363e+00 7.770000000000051310e-01 -1.924999999999998934e+00 8.500000000000440536e-02 -1.458999999999994968e+00 -1.110999999999995769e+00 2.663000000000009138e+00 -2.024999999999995026e+00 -3.759999999999914522e-01 1.380000000000047855e-01 5.180000000000030136e-01 -2.309999999999949871e-01 1.150000000000004796e+00 1.000000000000063061e-01 -2.799999999999303046e-02 6.000000000000085265e-01 -3.147999999999993914e+00 -1.289999999999965619e-01 1.920000000000072760e-01 -1.178999999999998494e+00 2.507000000000006779e+00 1.923000000000007148e+00 2.770000000000037987e-01 1.289000000000007473e+00 -4.629999999999925286e-01 -1.988999999999996549e+00 6.490000000000079039e-01 -1.373999999999996557e+00 1.856000000000006311e+00 5.230000000000056826e-01 -9.629999999999920846e-01 1.279000000000005688e+00 8.330000000000044036e-01 8.620000000000057616e-01 -1.671999999999996156e+00 4.130000000000030314e-01 6.000000000003669065e-03 -3.189999999999961755e-01 4.070000000000048024e-01 1.700000000000010392e-01 -1.414999999999997815e+00 -1.322999999999997733e+00 1.676000000000007706e+00 -2.569999999999957874e-01 -2.927999999999995051e+00 7.110000000000051834e-01 -8.889999999999956826e-01 1.201000000000006285e+00 1.610000000000070264e-01 -2.101999999999994984e+00 -1.098999999999994648e+00 4.710000000000049702e-01 4.414000000000012136e+00 -1.594999999999994422e+00 -1.623999999999996779e+00 1.566000000000008274e+00 -2.321999999999997399e+00 9.970000000000052154e-01 -2.779999999999956950e-01 1.710000000000044817e-01 9.730000000000081917e-01 1.267000000000006565e+00 1.680000000000045901e-01 -1.612999999999995993e+00 2.740000000000029079e-01 6.690000000000061453e-01 -3.329999999999916360e-01 -6.399999999999912426e-01 8.530000000000050875e-01 -1.629999999999994342e+00 1.100000000000054268e-01 -2.529999999999946736e-01 5.090000000000038938e-01 -4.569999999999951878e-01 1.150000000000080957e-01 6.720000000000032614e-01 -8.309999999999964082e-01 -1.077999999999996517e+00 2.013000000000008338e+00 -5.529999999999960503e-01 3.160000000000056097e-01 5.300000000000031353e-01 1.742000000000011983e+00 -8.159999999999956177e-01 -1.350999999999994872e+00 -4.078999999999996184e+00 -1.556999999999993500e+00 -2.219999999999929807e-01 -1.353999999999998538e+00 1.102000000000007418e+00 -2.392999999999994021e+00 -4.829999999999934346e-01 6.670000000000076978e-01 5.320000000000048024e-01 1.150000000000072076e-01 -5.569999999999933893e-01 -9.689999999999919789e-01 -6.839999999999943903e-01 1.650000000000054756e-01 2.450000000000028821e-01 -1.387999999999994127e+00 -1.134999999999993125e+00 9.640000000000082947e-01 7.450000000000112088e-01 1.878000000000008995e+00 2.058000000000004270e+00 -1.599999999999224265e-02 3.980000000000039062e-01 -1.663999999999996371e+00 -4.579999999999949667e-01 -1.564999999999995506e+00 -7.079999999999896376e-01 2.540000000000086633e-01 -2.839999999999942570e-01 7.760000000000080167e-01 9.750000000000043077e-01 6.340000000000042268e-01 4.880000000000042082e-01 -1.605999999999997208e+00 -1.229999999999913385e-01 4.370000000000068274e-01 2.362000000000008981e+00 2.987000000000014310e+00 -3.899999999999941291e-01 -2.699999999999939115e-01 -9.289999999999964952e-01 1.392000000000006565e+00 3.540000000000045333e-01 -6.619999999999954809e-01 1.354000000000003867e+00 1.670000000000009255e+00 -1.799999999999291056e-02 1.432000000000005713e+00 1.200000000000445155e-02 -2.309999999999948761e-01 -2.863999999999990553e+00 1.410000000000065645e-01 2.080000000000007176e+00 2.975000000000011635e+00 -7.999999999999936051e-01 1.204000000000005510e+00 -1.697999999999996845e+00 5.360000000000040288e-01 -1.812999999999995282e+00 -1.549999999999998934e+00 3.937000000000015376e+00 7.850000000000060263e-01 2.200000000000014833e+00 9.890000000000069846e-01 -1.085999999999994525e+00 -1.340999999999993308e+00 2.250000000000048628e-01 5.530000000000058202e-01 1.284000000000009134e+00 -2.369999999999959917e-01 1.827000000000004842e+00 -1.083999999999995634e+00 -2.476999999999994984e+00 -1.011999999999996680e+00 1.081000000000005290e+00 2.596000000000006747e+00 -1.897999999999997023e+00 1.754000000000007553e+00 3.140000000000046088e-01 -8.879999999999964588e-01 -1.385999999999995902e+00 1.518000000000007788e+00 -8.489999999999972013e-01 4.340000000000103775e-01 1.063000000000009937e+00 2.470000000000047713e-01 3.940000000000059011e-01 1.136000000000004562e+00 -5.559999999999950537e-01 1.033000000000005025e+00 -8.469999999999929807e-01 -1.066999999999999282e+00 6.810000000000050457e-01 -1.160999999999996479e+00 -2.895999999999994579e+00 -1.779999999999903881e-01 5.600000000000074918e-01 1.131000000000008221e+00 3.970000000000039053e-01 2.118000000000007432e+00 -1.317999999999996508e+00 7.440000000000032143e-01 1.019000000000006789e+00 -1.388999999999995794e+00 1.010000000000027542e-01 1.403000000000004688e+00 3.169000000000008477e+00 1.403000000000006686e+00 -1.609999999999974785e-01 -4.449999999999967315e-01 2.900000000000044764e-01 2.210000000000073017e-01 -5.299999999999571720e-02 -1.459999999999964659e-01 -5.329999999999961435e-01 -6.199999999999961098e-01 1.946000000000007946e+00 -4.499999999999935163e-01 6.930000000000059446e-01 2.093000000000008409e+00 -5.359999999999960352e-01 8.680000000000061000e-01 -1.772999999999996135e+00 -4.669999999999959739e-01 2.290000000000037561e-01 -8.659999999999927756e-01 1.602000000000007418e+00 -2.546999999999994380e+00 -2.754999999999994120e+00 -1.578999999999997739e+00 -1.079999999999948779e-01 7.160000000000067422e-01 1.227000000000005642e+00 9.210000000000034825e-01 -2.876999999999997559e+00 -2.549999999999930100e-01
-8.329999999999962990e-01 1.985000000000009646e+00 -2.468999999999994088e+00 8.210000000000078346e-01 -1.577999999999992742e+00 -8.439999999999945324e-01 7.300000000000057554e-01 -8.199999999999296740e-02 -4.082999999999997520e+00 6.670000000000074758e-01 -6.699999999999128875e-02 1.899000000000008903e+00 5.170000000000037899e-01 -2.075999999999993850e+00 1.586000000000006738e+00 -1.502999999999996783e+00 -1.081999999999994744e+00 -2.155999999999995698e+00 1.946000000000006169e+00 4.880000000000073168e-01 -6.199999999998950795e-02 3.170000000000066098e-01 2.416000000000008363e+00 7.770000000000051310e-01 -1.924999999999998934e+00 1.051000000000007262e+00 -1.458999999999994968e+00 -1.110999999999995769e+00 2.554000000000010040e+00 -2.024999999999995026e+00 -1.706999999999993634e+00 3.010000000000058185e-01 5.180000000000030136e-01 -1.147999999999994802e+00 1.071000000000003727e+00 -9.529999999999962945e-01 -7.109999999999953024e-01 1.820000000000090434e-01 -2.155999999999993921e+00 -7.899999999999651745e-02 1.816000000000007830e+00 -1.178999999999998494e+00 2.507000000000006779e+00 2.300000000000008260e+00 2.770000000000037987e-01 1.574000000000008503e+00 -4.629999999999925286e-01 -1.988999999999996549e+00 3.000000000000635492e-02 -1.373999999999996557e+00 1.626000000000006995e+00 1.758000000000006668e+00 -2.019999999999906315e-01 1.279000000000005688e+00 -1.579999999999974758e-01 8.620000000000057616e-01 -2.272999999999997467e+00 4.130000000000030314e-01 6.000000000003669065e-03 -3.189999999999961755e-01 -4.799999999999969846e-01 1.700000000000010392e-01 -1.414999999999997815e+00 -6.019999999999963158e-01 -5.609999999999933928e-01 1.120000000000003659e+00 -2.927999999999995051e+00 7.110000000000051834e-01 -8.889999999999956826e-01 4.610000000000039622e-01 3.990000000000081259e-01 -1.788999999999992596e+00 -1.780999999999994587e+00 4.710000000000049702e-01 4.152000000000013458e+00 -9.599999999999928590e-01 -1.623999999999996779e+00 8.080000000000077121e-01 -2.321999999999997399e+00 9.970000000000052154e-01 -2.779999999999956950e-01 4.350000000000038280e-01 2.090000000000010960e+00 1.267000000000006565e+00 1.680000000000045901e-01 -1.419999999999937979e-01 7.290000000000058655e-01 9.150000000000072520e-01 6.890000000000083835e-01 1.190000000000104308e-01 8.530000000000050875e-01 -1.206999999999992967e+00 -1.539999999999939195e-01 -1.701999999999995072e+00 5.090000000000038938e-01 -4.569999999999951878e-01 1.006000000000007999e+00 2.490000000000028857e-01 -1.095999999999997421e+00 -1.077999999999996517e+00 2.013000000000008338e+00 -5.529999999999960503e-01 -1.414999999999994040e+00 5.300000000000031353e-01 1.585000000000012843e+00 -8.159999999999956177e-01 -1.350999999999994872e+00 -4.078999999999996184e+00 -1.556999999999993500e+00 -2.219999999999929807e-01 1.900000000000345857e-02 8.680000000000054339e-01 -1.763999999999994461e+00 -4.829999999999934346e-01 6.670000000000076978e-01 7.250000000000040856e-01 1.150000000000072076e-01 -6.529999999999925864e-01 4.940000000000092095e-01 6.750000000000068168e-01 1.650000000000054756e-01 2.450000000000028821e-01 -1.387999999999994127e+00 -1.134999999999993125e+00 9.640000000000082947e-01 7.450000000000112088e-01 9.920000000000090967e-01 2.058000000000004270e+00 -1.599999999999224265e-02 -9.309999999999954978e-01 -1.960999999999997412e+00 -9.109999999999963682e-01 -1.564999999999995506e+00 2.130000000000010552e+00 2.540000000000086633e-01 7.120000000000075158e-01 3.090000000000076019e-01 4.610000000000047393e-01 6.340000000000042268e-01 8.800000000000062217e-01 -1.605999999999997208e+00 -3.499999999999214850e-02 4.370000000000068274e-01 3.135000000000011333e+00 2.987000000000014310e+00 7.540000000000086633e-01 -3.709999999999956666e-01 -1.276999999999995916e+00 1.365000000000007319e+00 1.203000000000005398e+00 -9.789999999999965397e-01 2.075000000000005507e+00 3.380000000000010107e+00 3.580000000000064242e-01 1.316000000000006498e+00 2.595000000000007745e+00 -7.479999999999944471e-01 -2.863999999999990553e+00 1.410000000000065645e-01 2.080000000000007176e+00 2.344000000000010075e+00 -7.999999999999936051e-01 2.308000000000007823e+00 -1.697999999999996845e+00 5.360000000000040288e-01 -5.319999999999960316e-01 -2.332999999999997520e+00 3.951000000000014722e+00 7.850000000000060263e-01 2.200000000000014833e+00 1.168000000000008143e+00 -1.085999999999994525e+00 -1.340999999999993308e+00 1.681000000000012484e+00 1.413000000000007361e+00 1.284000000000009134e+00 -2.369999999999959917e-01 2.059000000000006825e+00 -1.083999999999995634e+00 -2.476999999999994984e+00 -1.096999999999995978e+00 1.960000000000005294e+00 2.596000000000006747e+00 -1.897999999999997023e+00 1.887000000000007782e+00 8.270000000000041762e-01 -5.399999999999980371e-01 -1.278999999999994808e+00 1.518000000000007788e+00 8.520000000000051976e-01 1.719000000000011408e+00 -5.299999999999271960e-02 2.470000000000047713e-01 3.940000000000059011e-01 1.136000000000004562e+00 -3.039999999999939417e-01 4.330000000000046034e-01 -8.469999999999929807e-01 -1.971999999999998421e+00 -3.369999999999959694e-01 -1.160999999999996479e+00 -2.810999999999991950e+00 -1.779999999999903881e-01 1.679000000000010484e+00 -4.119999999999932605e-01 -1.699999999999735056e-02 1.478000000000007752e+00 -1.317999999999996508e+00 7.440000000000032143e-01 1.019000000000006789e+00 -1.388999999999995794e+00 -9.699999999999742162e-02 1.403000000000004688e+00 3.531000000000008576e+00 1.403000000000006686e+00 -1.609999999999974785e-01 -4.449999999999967315e-01 2.900000000000044764e-01 6.460000000000067910e-01 -5.299999999999571720e-02 1.090000000000047597e-01 3.670000000000037677e-01 -5.189999999999952429e-01 1.326000000000006507e+00 -2.282999999999992369e+00 6.930000000000059446e-01 2.297000000000009479e+00 -5.359999999999960352e-01 7.530000000000096616e-01 -1.955999999999997296e+00 -4.669999999999959739e-01 2.290000000000037561e-01 6.840000000000103775e-01 5.880000000000048521e-01 -2.546999999999994380e+00 -2.001999999999994451e+00 -1.288999999999998369e+00 -1.079999999999948779e-01 7.160000000000067422e-01 1.227000000000005642e+00 9.210000000000034825e-01 -2.876999999999997559e+00 -1.445999999999995955e+00
-8.329999999999962990e-01 1.054000000000007820e+00 -2.468999999999994088e+00 1.219000000000007855e+00 -6.839999999999943903e-01 -8.069999999999937224e-01 7.300000000000057554e-01 -2.159999999999949738e-01 -4.082999999999997520e+00 6.670000000000074758e-01 1.760000000000080389e-01 1.607000000000008422e+00 -1.289999999999958957e-01 -1.438999999999992507e+00 1.901000000000005130e+00 -1.901999999999998137e+00 -8.759999999999954490e-01 -2.238999999999994994e+00 1.946000000000006169e+00 4.090000000000062474e-01 -2.999999999998759215e-02 7.810000000000059117e-01 1.743000000000006988e+00 7.770000000000051310e-01 -1.924999999999998934e+00 5.680000000000058336e-01 -1.458999999999994968e+00 -1.110999999999995769e+00 2.663000000000009138e+00 -2.692999999999996508e+00 -1.285999999999994037e+00 -8.899999999999962386e-01 5.180000000000030136e-01 -2.309999999999949871e-01 7.590000000000043379e-01 -1.440999999999995840e+00 1.350000000000045608e-01 5.400000000000715339e-02 -2.155999999999993921e+00 -5.289999999999978053e-01 1.004000000000007109e+00 -1.309999999999996723e+00 2.507000000000006779e+00 9.690000000000071889e-01 8.570000000000052021e-01 1.574000000000008503e+00 -1.889999999999940616e-01 -1.107999999999993879e+00 7.660000000000078968e-01 -1.247999999999992893e+00 1.626000000000006995e+00 1.758000000000006668e+00 -1.540999999999991710e+00 1.279000000000005688e+00 -2.919999999999984830e-01 8.620000000000057616e-01 -2.272999999999997467e+00 4.130000000000030314e-01 1.846000000000006080e+00 -3.189999999999961755e-01 -4.799999999999969846e-01 -4.049999999999985834e-01 -2.018999999999997463e+00 -2.210999999999997634e+00 3.020000000000064855e-01 1.120000000000003659e+00 -3.135999999999994348e+00 1.575000000000005063e+00 -7.409999999999972164e-01 4.610000000000039622e-01 1.100000000000007860e+00 -1.202999999999992298e+00 -1.780999999999994587e+00 8.730000000000044391e-01 4.152000000000013458e+00 -1.594999999999994422e+00 -1.650999999999995804e+00 1.277000000000007240e+00 -3.462999999999996525e+00 -3.949999999999976863e-01 -4.929999999999959970e-01 -1.111999999999995881e+00 1.877000000000009994e+00 1.267000000000006565e+00 1.196000000000007280e+00 2.400000000000546141e-02 7.290000000000058655e-01 2.460000000000047704e-01 6.890000000000083835e-01 -6.399999999999912426e-01 9.210000000000060361e-01 -1.629999999999994342e+00 -1.539999999999939195e-01 -1.953999999999995518e+00 7.030000000000031779e-01 -4.569999999999951878e-01 2.398000000000007237e+00 7.020000000000032880e-01 -1.095999999999997421e+00 -1.891999999999996351e+00 2.429000000000007820e+00 -5.529999999999960503e-01 -1.580999999999995076e+00 1.074000000000004507e+00 2.006000000000012218e+00 -8.159999999999956177e-01 -1.350999999999994872e+00 -1.093999999999994976e+00 -7.489999999999918945e-01 3.210000000000076126e-01 -1.353999999999998538e+00 4.520000000000041762e-01 -1.084999999999994857e+00 4.670000000000082974e-01 1.436000000000007493e+00 7.250000000000040856e-01 1.150000000000072076e-01 9.860000000000089804e-01 9.140000000000088054e-01 -2.649999999999949063e-01 9.060000000000052456e-01 2.450000000000028821e-01 -1.387999999999994127e+00 -1.134999999999993125e+00 1.943000000000010274e+00 9.540000000000132818e-01 9.920000000000090967e-01 1.866000000000005432e+00 -4.159999999999917097e-01 -1.949999999999957323e-01 -1.369999999999995888e+00 -4.829999999999968763e-01 -1.699999999999302069e-02 2.351000000000012413e+00 2.540000000000086633e-01 -1.055999999999995831e+00 3.090000000000076019e-01 9.750000000000043077e-01 -3.639999999999957714e-01 8.800000000000062217e-01 -1.049999999999994937e+00 5.400000000000870770e-02 4.370000000000068274e-01 3.135000000000011333e+00 2.262000000000012001e+00 7.540000000000086633e-01 -5.169999999999966844e-01 -1.276999999999995916e+00 1.392000000000006565e+00 -3.239999999999969571e-01 -2.081999999999995854e+00 1.354000000000003867e+00 3.380000000000010107e+00 6.550000000000067990e-01 9.010000000000061293e-01 6.580000000000059135e-01 -1.042999999999997485e+00 -1.771999999999989583e+00 9.530000000000080629e-01 2.306000000000006267e+00 3.781000000000013017e+00 3.130000000000056071e-01 2.308000000000007823e+00 -1.200999999999997403e+00 -7.259999999999944276e-01 -5.319999999999960316e-01 -2.332999999999997520e+00 3.951000000000014722e+00 7.850000000000060263e-01 2.200000000000014833e+00 2.600000000000612932e-02 -1.085999999999994525e+00 -1.402999999999994252e+00 2.182000000000011930e+00 5.530000000000058202e-01 5.190000000000076774e-01 -2.369999999999959917e-01 2.183000000000007823e+00 -1.083999999999995634e+00 -3.234999999999994991e+00 -4.839999999999953229e-01 1.960000000000005294e+00 2.190000000000004388e+00 -1.399999999999995692e+00 2.003000000000008107e+00 8.270000000000041762e-01 -5.399999999999980371e-01 -1.047999999999996490e+00 1.518000000000007788e+00 -7.639999999999980140e-01 8.170000000000099405e-01 -8.959999999999925802e-01 3.960000000000066800e-01 3.940000000000059011e-01 1.136000000000004562e+00 -5.559999999999950537e-01 1.033000000000005025e+00 -8.469999999999929807e-01 -1.066999999999999282e+00 -3.369999999999959694e-01 -1.160999999999996479e+00 -2.028999999999994586e+00 -1.779999999999903881e-01 1.110000000000008757e+00 3.150000000000064970e-01 -1.699999999999735056e-02 1.478000000000007752e+00 -1.963999999999996193e+00 7.440000000000032143e-01 1.060000000000053122e-01 -1.388999999999995794e+00 -1.089999999999965441e-01 1.403000000000004688e+00 3.838000000000008960e+00 1.881000000000006889e+00 -2.359999999999976561e-01 -1.675999999999997936e+00 1.520000000000043539e-01 6.460000000000067910e-01 -2.709999999999939124e-01 -4.029999999999958060e-01 3.670000000000037677e-01 -7.859999999999953690e-01 1.326000000000006507e+00 -2.370999999999993335e+00 1.320000000000063345e-01 2.091000000000009962e+00 -5.989999999999952029e-01 7.530000000000096616e-01 -1.955999999999997296e+00 -4.669999999999959739e-01 2.290000000000037561e-01 -1.497999999999994225e+00 8.360000000000059606e-01 -2.546999999999994380e+00 -2.001999999999994451e+00 -1.288999999999998369e+00 -1.079999999999948779e-01 7.160000000000067422e-01 1.227000000000005642e+00 9.210000000000034825e-01 -2.876999999999997559e+00 -1.445999999999995955e+00
4.740000000000074154e-01 9.000000000000069056e-01 -2.468999999999994088e+00 2.420000000000063212e-01 -8.899999999999153033e-02 -8.439999999999945324e-01 7.300000000000057554e-01 -2.159999999999949738e-01 -4.082999999999997520e+00 6.670000000000074758e-01 1.760000000000080389e-01 1.607000000000008422e+00 5.170000000000037899e-01 -1.438999999999992507e+00 1.901000000000005130e+00 -1.901999999999998137e+00 -8.759999999999954490e-01 -2.155999999999995698e+00 2.944000000000009720e+00 4.090000000000062474e-01 -6.199999999998950795e-02 -4.219999999999950457e-01 2.413000000000009138e+00 7.770000000000051310e-01 -1.070999999999997288e+00 8.500000000000440536e-02 -1.542999999999994154e+00 -1.110999999999995769e+00 2.663000000000009138e+00 -2.692999999999996508e+00 -1.285999999999994037e+00 -8.899999999999962386e-01 5.180000000000030136e-01 -2.309999999999949871e-01 1.779000000000006132e+00 -9.529999999999962945e-01 -3.699999999999381561e-02 5.400000000000715339e-02 -2.572999999999993292e+00 -5.289999999999978053e-01 1.793000000000008587e+00 -1.178999999999998494e+00 2.507000000000006779e+00 1.923000000000007148e+00 -3.899999999999559375e-02 1.289000000000007473e+00 -1.889999999999940616e-01 -9.779999999999939853e-01 3.000000000000635492e-02 -1.373999999999996557e+00 1.856000000000006311e+00 1.133000000000005336e+00 -1.540999999999991710e+00 1.279000000000005688e+00 -2.919999999999984830e-01 8.620000000000057616e-01 -2.272999999999997467e+00 4.130000000000030314e-01 9.760000000000044196e-01 -3.189999999999961755e-01 -4.799999999999969846e-01 1.700000000000010392e-01 -1.414999999999997815e+00 -2.165999999999997705e+00 6.820000000000068230e-01 1.120000000000003659e+00 -8.719999999999933360e-01 7.110000000000051834e-01 -4.279999999999933857e-01 6.160000000000050990e-01 6.340000000000082236e-01 -1.202999999999992298e+00 -1.718999999999995421e+00 8.730000000000044391e-01 3.430000000000012150e+00 -1.594999999999994422e+00 -1.623999999999996779e+00 1.277000000000007240e+00 -1.293999999999994710e+00 -3.949999999999976863e-01 4.540000000000058433e-01 4.350000000000038280e-01 2.119000000000011319e+00 7.560000000000078879e-01 1.680000000000045901e-01 1.206000000000007288e+00 7.290000000000058655e-01 2.460000000000047704e-01 1.490000000000087921e-01 -6.399999999999912426e-01 1.721000000000006747e+00 -1.206999999999992967e+00 -1.539999999999939195e-01 -8.689999999999953317e-01 1.178000000000004599e+00 -4.569999999999951878e-01 2.831000000000008399e+00 2.490000000000028857e-01 -1.095999999999997421e+00 -1.891999999999996351e+00 3.197000000000010722e+00 -5.529999999999960503e-01 -1.580999999999995076e+00 5.300000000000031353e-01 1.742000000000011983e+00 -8.159999999999956177e-01 -1.350999999999994872e+00 -1.093999999999994976e+00 -1.556999999999993500e+00 9.140000000000072511e-01 -1.353999999999998538e+00 8.680000000000054339e-01 -1.084999999999994857e+00 -4.829999999999934346e-01 1.436000000000007493e+00 7.250000000000040856e-01 1.150000000000072076e-01 9.860000000000089804e-01 9.140000000000088054e-01 1.430000000000072324e-01 1.650000000000054756e-01 2.450000000000028821e-01 -1.475999999999995094e+00 -1.134999999999993125e+00 3.540000000000086411e-01 8.240000000000122782e-01 1.878000000000008995e+00 1.866000000000005432e+00 -1.599999999999224265e-02 7.000000000000450306e-02 -1.960999999999997412e+00 -4.829999999999968763e-01 -1.761999999999996458e+00 -2.011999999999988908e+00 1.550000000000075762e-01 -1.055999999999995831e+00 7.760000000000080167e-01 2.105000000000007088e+00 -3.089999999999948344e-01 1.056000000000003824e+00 -1.605999999999997208e+00 5.400000000000870770e-02 4.370000000000068274e-01 2.746000000000010210e+00 2.262000000000012001e+00 -3.899999999999941291e-01 1.300000000000037792e-01 -4.299999999999969402e-01 1.009000000000007002e+00 6.310000000000040021e-01 -2.010999999999995680e+00 2.075000000000005507e+00 1.670000000000009255e+00 -1.799999999999291056e-02 1.432000000000005713e+00 7.210000000000041931e-01 6.900000000000059419e-01 -3.803999999999990500e+00 3.560000000000058673e-01 1.999000000000006771e+00 1.576000000000011170e+00 -7.999999999999936051e-01 2.308000000000007823e+00 -1.200999999999997403e+00 -2.379999999999957705e-01 -1.812999999999995282e+00 -1.731999999999997097e+00 3.951000000000014722e+00 4.130000000000065841e-01 2.200000000000014833e+00 2.600000000000612932e-02 -1.085999999999994525e+00 -1.402999999999994252e+00 2.250000000000048628e-01 5.530000000000058202e-01 5.190000000000076774e-01 -2.369999999999959917e-01 2.059000000000006825e+00 -1.969999999999995755e+00 -3.234999999999994991e+00 -2.969999999999941576e-01 1.960000000000005294e+00 2.200000000000005507e+00 -2.589999999999994529e+00 1.789000000000006807e+00 8.270000000000041762e-01 -7.229999999999955351e-01 -1.047999999999996490e+00 9.600000000000081801e-01 -7.639999999999980140e-01 3.180000000000084981e-01 -1.885999999999992571e+00 2.470000000000047713e-01 3.940000000000059011e-01 1.136000000000004562e+00 -1.503999999999994230e+00 5.230000000000054605e-01 -8.469999999999929807e-01 -1.066999999999999282e+00 4.310000000000063780e-01 -1.160999999999996479e+00 -2.028999999999994586e+00 -7.839999999999918145e-01 1.110000000000008757e+00 -3.869999999999932383e-01 5.940000000000041913e-01 2.040000000000006253e+00 -1.963999999999996193e+00 7.440000000000032143e-01 1.019000000000006789e+00 -1.805999999999995165e+00 -9.699999999999742162e-02 1.403000000000004688e+00 3.838000000000008960e+00 1.778000000000006908e+00 -2.359999999999976561e-01 -1.675999999999997936e+00 1.520000000000043539e-01 9.750000000000061950e-01 -5.299999999999571720e-02 -1.997999999999995335e+00 3.670000000000037677e-01 -4.099999999999968114e-01 1.326000000000006507e+00 -2.000999999999995005e+00 1.320000000000063345e-01 2.093000000000008409e+00 -5.989999999999952029e-01 8.680000000000061000e-01 -1.955999999999997296e+00 -4.669999999999959739e-01 2.290000000000037561e-01 -1.497999999999994225e+00 5.880000000000048521e-01 -1.769999999999992912e+00 -2.001999999999994451e+00 -3.919999999999959073e-01 6.560000000000066889e-01 7.160000000000067422e-01 1.227000000000005642e+00 9.210000000000034825e-01 -2.876999999999997559e+00 -7.829999999999943672e-01
-8.329999999999962990e-01 2.038000000000009582e+00 -2.468999999999994088e+00 7.500000000000706102e-02 -6.839999999999943903e-01 -8.439999999999945324e-01 7.300000000000057554e-01 -8.369999999999946372e-01 -4.082999999999997520e+00 6.670000000000074758e-01 -3.629999999999915516e-01 1.431000000000007599e+00 -3.969999999999952456e-01 -1.438999999999992507e+00 1.901000000000005130e+00 -9.059999999999963638e-01 -8.759999999999954490e-01 -2.238999999999994994e+00 1.946000000000006169e+00 -1.119999999999933271e-01 -6.199999999998950795e-02 3.470000000000064144e-01 1.743000000000006988e+00 7.770000000000051310e-01 -1.924999999999998934e+00 8.500000000000440536e-02 -1.458999999999994968e+00 -1.110999999999995769e+00 2.663000000000009138e+00 -2.024999999999995026e+00 -5.669999999999923990e-01 -8.899999999999962386e-01 5.180000000000030136e-01 -2.309999999999949871e-01 7.590000000000043379e-01 -2.569999999999947882e-01 1.350000000000045608e-01 2.004000000000011550e+00 -3.147999999999993914e+00 -1.369999999999997664e+00 1.004000000000007109e+00 -1.309999999999996723e+00 3.744000000000009543e+00 1.923000000000007148e+00 2.770000000000037987e-01 1.574000000000008503e+00 -1.889999999999940616e-01 -1.745999999999993779e+00 7.660000000000078968e-01 -1.431999999999995721e+00 1.626000000000006995e+00 2.400000000000008349e+00 -9.629999999999920846e-01 1.685000000000006937e+00 4.020000000000030216e-01 8.620000000000057616e-01 -2.272999999999997467e+00 4.130000000000030314e-01 6.000000000003669065e-03 -2.869999999999952589e-01 -4.799999999999969846e-01 1.700000000000010392e-01 -1.414999999999997815e+00 -1.436999999999996946e+00 1.032000000000006246e+00 1.120000000000003659e+00 -3.135999999999994348e+00 7.110000000000051834e-01 4.040000000000073532e-01 6.160000000000050990e-01 1.610000000000070264e-01 -2.101999999999994984e+00 -1.718999999999995421e+00 8.730000000000044391e-01 3.430000000000012150e+00 -1.594999999999994422e+00 -1.650999999999995804e+00 1.277000000000007240e+00 -2.994999999999996998e+00 -1.085999999999997412e+00 -5.399999999999950395e-01 4.350000000000038280e-01 1.877000000000009994e+00 1.014000000000007340e+00 4.990000000000058833e-01 -9.659999999999961950e-01 7.290000000000058655e-01 6.100000000000549427e-02 6.890000000000083835e-01 -6.399999999999912426e-01 8.530000000000050875e-01 -1.206999999999992967e+00 -1.539999999999939195e-01 -1.071999999999995623e+00 -2.809999999999959197e-01 -4.569999999999951878e-01 -7.829999999999918137e-01 2.490000000000028857e-01 -1.772999999999997023e+00 -4.719999999999950901e-01 2.429000000000007820e+00 -5.529999999999960503e-01 -1.580999999999995076e+00 1.074000000000004507e+00 2.006000000000012218e+00 -8.159999999999956177e-01 -1.350999999999994872e+00 -1.093999999999994976e+00 -1.556999999999993500e+00 9.140000000000072511e-01 -1.353999999999998538e+00 4.520000000000041762e-01 -1.084999999999994857e+00 -4.829999999999934346e-01 9.420000000000079421e-01 7.250000000000040856e-01 1.150000000000072076e-01 9.860000000000089804e-01 9.140000000000088054e-01 2.040000000000081748e-01 9.060000000000052456e-01 1.381000000000006445e+00 -3.899999999999914646e-01 -1.134999999999993125e+00 9.640000000000082947e-01 8.240000000000122782e-01 1.878000000000008995e+00 2.058000000000004270e+00 -1.599999999999224265e-02 -2.679999999999957971e-01 -1.960999999999997412e+00 -9.109999999999963682e-01 -1.564999999999995506e+00 -7.079999999999896376e-01 1.550000000000075762e-01 -1.055999999999995831e+00 3.090000000000076019e-01 9.750000000000043077e-01 -1.346999999999992870e+00 4.800000000000042011e-01 -7.489999999999945590e-01 -3.499999999999214850e-02 4.370000000000068274e-01 4.131000000000012662e+00 2.262000000000012001e+00 3.220000000000073914e-01 -1.549999999999965850e-01 -1.276999999999995916e+00 2.228000000000006864e+00 6.310000000000040021e-01 -1.436999999999995392e+00 1.354000000000003867e+00 1.855000000000010196e+00 1.360000000000008313e+00 8.710000000000061027e-01 7.210000000000041931e-01 -7.479999999999944471e-01 -2.863999999999990553e+00 3.560000000000058673e-01 2.306000000000006267e+00 1.576000000000011170e+00 -1.198999999999993182e+00 2.308000000000007823e+00 -1.629999999999995897e+00 -8.659999999999954401e-01 -1.812999999999995282e+00 -2.462999999999998746e+00 3.663000000000014467e+00 7.850000000000060263e-01 2.468000000000016847e+00 -2.599999999999941247e-01 -1.085999999999994525e+00 -1.734999999999994547e+00 -6.079999999999949889e-01 5.640000000000068292e-01 5.190000000000076774e-01 -2.369999999999959917e-01 1.087000000000004185e+00 -1.083999999999995634e+00 -3.234999999999994991e+00 -2.969999999999941576e-01 1.960000000000005294e+00 3.190000000000007496e+00 -1.498999999999995003e+00 1.789000000000006807e+00 8.270000000000041762e-01 -5.399999999999980371e-01 -1.047999999999996490e+00 1.518000000000007788e+00 -7.639999999999980140e-01 1.214000000000010182e+00 -5.299999999999271960e-02 2.470000000000047713e-01 3.940000000000059011e-01 1.136000000000004562e+00 -5.559999999999950537e-01 1.178000000000005931e+00 -1.477999999999992653e+00 -1.393999999999998796e+00 6.810000000000050457e-01 -1.923999999999996380e+00 -2.028999999999994586e+00 -7.839999999999918145e-01 1.110000000000008757e+00 -5.279999999999933635e-01 -1.699999999999735056e-02 2.040000000000006253e+00 -2.146999999999996245e+00 7.440000000000032143e-01 5.550000000000082645e-01 -1.125999999999994561e+00 -9.699999999999742162e-02 9.870000000000052065e-01 3.838000000000008960e+00 1.403000000000006686e+00 -1.609999999999974785e-01 -4.449999999999967315e-01 1.520000000000043539e-01 6.170000000000067653e-01 -7.829999999999954774e-01 -1.459999999999964659e-01 -5.329999999999961435e-01 -1.338999999999995083e+00 1.326000000000006507e+00 -1.788999999999993928e+00 1.139000000000007340e+00 2.093000000000008409e+00 -6.699999999999650679e-02 8.680000000000061000e-01 -1.955999999999997296e+00 -4.669999999999959739e-01 2.290000000000037561e-01 -1.497999999999994225e+00 5.880000000000048521e-01 -2.455999999999993300e+00 -2.001999999999994451e+00 -6.629999999999960369e-01 -1.079999999999948779e-01 7.160000000000067422e-01 1.839000000000007073e+00 9.210000000000034825e-01 -3.690999999999997172e+00 -1.445999999999995955e+00
