-6.469999999999979101e-01 5.280000000000032445e-01 -1.496999999999999442e+00 -3.999999999999994671e-01 2.130000000000028537e-01 -2.829999999999965876e-01 9.950000000000027711e-01 3.050000000000030465e-01 -5.919999999999978613e-01 1.530000000000037996e-01 -1.299999999999992273e-01 2.500000000000011102e-01 9.800000000000186340e-02 -2.079999999999984084e-01 -8.999999999999919176e-02 4.100000000000012523e-01 -1.169999999999975504e-01 -5.599999999999996092e-01 1.700000000000010392e-01 1.100000000000003642e+00 -5.799999999999996270e-01 -4.999999999999915623e-02 -1.515999999999998682e+00 -1.999999999999824141e-02 3.650000000000037659e-01 1.183000000000004714e+00 -1.013999999999999124e+00 -7.799999999999998046e-01 2.420000000000019913e-01 9.890000000000036540e-01 1.207000000000002959e+00 4.750000000000021982e-01 -4.799999999999995381e-01 -9.599999999999999645e-01 -7.269999999999988693e-01 7.900000000000015898e-01 -6.379999999999987903e-01 -1.626999999999998003e+00 -1.549999999999983613e-01 -3.579999999999985416e-01 -6.299999999999996714e-01 8.300000000000016254e-01 3.370000000000019647e-01 9.000000000000096811e-02 -4.199999999999994849e-01 3.520000000000020890e-01 -7.999999999999918288e-02 -8.089999999999989422e-01 6.000000000001781686e-03 1.343000000000002858e+00 1.901000000000006240e+00 -8.839999999999972324e-01 1.390000000000026770e-01 -1.799999999999992717e-01 7.510000000000025544e-01 -7.999999999999918288e-02 -1.640999999999998682e+00 2.340000000000027613e-01 -5.799999999999996270e-01 4.270000000000029328e-01 2.210000000000018616e-01 -4.699999999999995293e-01 5.900000000000014122e-01 -8.199999999999998401e-01 9.300000000000017142e-01 1.400000000000010125e-01 6.000000000000094147e-02 5.600000000000013856e-01 5.100000000000013411e-01 -2.499999999999993339e-01 -7.119999999999988560e-01 -6.969999999999979545e-01 -1.999999999999992895e-01 -8.699999999999981082e-01 1.800000000000010481e-01 -7.939999999999980407e-01 -1.040999999999999037e+00 -8.459999999999971987e-01 -1.399999999999992362e-01 8.290000000000024016e-01 3.400000000000180655e-02 1.413000000000002920e+00 -1.879999999999997229e+00 1.726000000000006196e+00 -8.099999999999998312e-01 -3.169999999999985052e-01 2.790000000000021352e-01 4.900000000000181988e-02 7.820000000000042473e-01 -1.779999999999999805e+00 2.390000000000018776e-01 1.674000000000004151e+00 -1.177999999999999270e+00 -1.049999999999983169e-01 9.840000000000026503e-01 -1.418999999999999595e+00 -6.899999999999997247e-01 2.799000000000005706e+00 -4.999999999998228084e-03 3.700000000000012168e-01 -8.199999999999998401e-01 6.500000000000014655e-01 7.760000000000034648e-01 7.500000000000015543e-01 7.110000000000022968e-01 6.990000000000023972e-01 8.500000000000016431e-01 1.988000000000004430e+00 1.900000000000010569e-01 -3.499999999999994227e-01 -3.859999999999977893e-01 2.700000000000020162e-01 -7.699999999999997957e-01 -9.499999999999999556e-01 7.100000000000015188e-01 2.101000000000005308e+00 -5.709999999999987308e-01 -2.379999999999975469e-01 -6.779999999999988258e-01 5.300000000000013589e-01 8.790000000000024460e-01 -1.399999999999964606e-01 4.690000000000037472e-01 -3.489999999999984226e-01 -3.799999999999994493e-01 -4.309999999999986064e-01 2.130000000000019655e-01 1.839000000000003521e+00 -5.629999999999977245e-01 -2.939999999999965974e-01 -1.198999999999999400e+00 1.430000000000004157e+00 -7.499999999999997780e-01 9.450000000000027267e-01 -8.399999999999998579e-01 -9.799999999999999822e-01 -9.699999999999731060e-02 -6.379999999999987903e-01 -9.499999999999999556e-01 8.000000000000015987e-01 7.000000000000015099e-01 7.400000000000015454e-01 2.610000000000020082e-01 -4.399999999999995026e-01 -4.099999999999994760e-01 6.900000000000350298e-02 -5.599999999999996092e-01 -7.199999999999997513e-01 1.058000000000003604e+00 1.191000000000002723e+00 -2.539999999999984492e-01 -9.699999999999999734e-01 -8.899999999999999023e-01 -2.069999999999975193e-01 -5.699999999999987299e-01 9.690000000000025260e-01 -8.999999999999999112e-01 1.870000000000028306e-01 4.900000000000013234e-01 -3.119999999999966134e-01 2.587000000000005073e+00 7.150000000000040767e-01 -5.419999999999980389e-01 4.210000000000047038e-01 4.830000000000022053e-01 -1.232999999999999208e+00 7.800000000000015810e-01 -6.399999999999996803e-01 -1.189999999999983293e-01 4.000000000000092371e-02 2.450000000000019940e-01 -1.649999999999983702e-01 2.000000000000010658e-01 -7.799999999999998046e-01 -6.999999999999997335e-01 1.802000000000004487e+00 -6.599999999999828226e-02 -3.269999999999976259e-01 2.900000000000011458e-01 -6.399999999999996803e-01 -3.499999999999836575e-02 -7.199999999999997513e-01 -7.599999999999997868e-01 -1.043999999999999151e+00 1.831000000000004180e+00 -2.999999999999993783e-01 -4.799999999999995381e-01 7.260000000000024212e-01 -1.999999999999992895e-01 -6.299999999999996714e-01 4.150000000000031442e-01 -1.163999999999998369e+00 2.300000000000010925e-01 2.700000000000011280e-01 -1.199999999999992184e-01 1.343000000000003968e+00 6.800000000000283595e-02 -4.699999999999995293e-01 -1.725999999999998202e+00 -3.069999999999984963e-01 -7.699999999999997957e-01 -3.799999999999994493e-01 1.290000000000036673e-01 3.130000000000020544e-01 -1.130999999999999339e+00 -1.157999999999999252e+00 7.800000000000015810e-01 -2.299999999999993161e-01 7.200000000000024158e-01 1.693000000000003391e+00 1.100000000000009859e-01 2.000000000000010658e-01 -6.799999999999997158e-01 -1.879999999999975024e-01 -9.209999999999989306e-01 4.700000000000013056e-01 -1.399999999999992362e-01 -6.029999999999988702e-01 1.300000000000010036e-01 6.460000000000023501e-01 9.800000000000017586e-01 -6.999999999999917399e-02 2.190000000000019709e-01 -7.519999999999988916e-01 1.455000000000004068e+00 -6.969999999999988427e-01 6.700000000000014833e-01 6.500000000000014655e-01 -1.772999999999999687e+00 -9.499999999999999556e-01 3.440000000000020819e-01 -7.699999999999997957e-01 -9.599999999999999645e-01 8.700000000000185363e-02 1.276000000000003798e+00 7.200000000000015277e-01 -9.799999999999999822e-01 -7.479999999999979998e-01 1.500000000000010214e-01 -5.599999999999996092e-01 -1.140999999999998238e+00 7.000000000000015099e-01 7.400000000000059863e-01
1.160000000000018794e-01 5.280000000000032445e-01 -1.496999999999999442e+00 -3.999999999999994671e-01 2.130000000000028537e-01 -2.829999999999965876e-01 9.950000000000027711e-01 3.050000000000030465e-01 -5.919999999999978613e-01 1.530000000000037996e-01 -1.299999999999992273e-01 2.500000000000011102e-01 9.800000000000186340e-02 -2.079999999999984084e-01 -8.999999999999919176e-02 4.100000000000012523e-01 -1.169999999999975504e-01 -5.599999999999996092e-01 1.700000000000010392e-01 1.100000000000003642e+00 -5.799999999999996270e-01 -4.999999999999915623e-02 -1.515999999999998682e+00 -1.999999999999824141e-02 3.650000000000037659e-01 1.183000000000004714e+00 -1.013999999999999124e+00 -7.799999999999998046e-01 -2.429999999999975513e-01 9.890000000000036540e-01 1.207000000000002959e+00 4.750000000000021982e-01 -4.799999999999995381e-01 -9.599999999999999645e-01 -7.269999999999988693e-01 7.900000000000015898e-01 -2.899999999999993694e-01 -1.626999999999998003e+00 -1.549999999999983613e-01 -3.579999999999985416e-01 -6.299999999999996714e-01 8.300000000000016254e-01 3.370000000000019647e-01 9.000000000000096811e-02 -4.199999999999994849e-01 3.520000000000020890e-01 -7.999999999999918288e-02 -8.089999999999989422e-01 6.000000000001781686e-03 -9.399999999999664180e-02 1.901000000000006240e+00 -8.839999999999972324e-01 1.390000000000026770e-01 -1.799999999999992717e-01 7.510000000000025544e-01 -7.999999999999918288e-02 -1.640999999999998682e+00 1.410000000000043441e-01 -5.799999999999996270e-01 1.001000000000003443e+00 1.600000000000010303e-01 -4.699999999999995293e-01 5.900000000000014122e-01 -8.199999999999998401e-01 9.300000000000017142e-01 1.400000000000010125e-01 6.000000000000094147e-02 5.600000000000013856e-01 5.100000000000013411e-01 -2.499999999999993339e-01 -2.389999999999976588e-01 -6.969999999999979545e-01 -1.999999999999992895e-01 -8.699999999999981082e-01 1.800000000000010481e-01 -7.939999999999980407e-01 -1.040999999999999037e+00 -8.459999999999971987e-01 -1.399999999999992362e-01 1.096000000000003638e+00 3.400000000000180655e-02 1.413000000000002920e+00 -1.879999999999997229e+00 1.726000000000006196e+00 -1.796999999999999709e+00 -3.169999999999985052e-01 2.790000000000021352e-01 2.300000000000010925e-01 5.230000000000030180e-01 -1.779999999999999805e+00 2.390000000000018776e-01 1.674000000000004151e+00 -1.177999999999999270e+00 -1.049999999999983169e-01 9.840000000000026503e-01 -1.418999999999999595e+00 -6.899999999999997247e-01 2.799000000000005706e+00 -4.999999999998228084e-03 3.700000000000012168e-01 9.900000000000197531e-02 6.500000000000014655e-01 7.760000000000034648e-01 1.597000000000003306e+00 -2.589999999999976765e-01 6.990000000000023972e-01 1.580000000000019167e-01 1.988000000000004430e+00 1.900000000000010569e-01 -3.499999999999994227e-01 -3.859999999999977893e-01 2.700000000000020162e-01 -7.699999999999997957e-01 -9.499999999999999556e-01 7.100000000000015188e-01 2.101000000000005308e+00 -5.709999999999987308e-01 -2.379999999999975469e-01 -9.719999999999981988e-01 5.300000000000013589e-01 8.790000000000024460e-01 -1.399999999999964606e-01 4.690000000000037472e-01 -3.489999999999984226e-01 -3.799999999999994493e-01 -4.309999999999986064e-01 2.130000000000019655e-01 1.839000000000003521e+00 -5.629999999999977245e-01 5.890000000000032987e-01 -6.799999999999997158e-01 1.430000000000004157e+00 -7.499999999999997780e-01 9.450000000000027267e-01 -8.399999999999998579e-01 -9.799999999999999822e-01 -9.699999999999731060e-02 -6.379999999999987903e-01 -9.499999999999999556e-01 8.000000000000015987e-01 7.000000000000015099e-01 7.400000000000015454e-01 2.610000000000020082e-01 -4.399999999999995026e-01 -4.099999999999994760e-01 6.900000000000350298e-02 -5.599999999999996092e-01 -7.199999999999997513e-01 1.058000000000003604e+00 1.191000000000002723e+00 -2.539999999999984492e-01 -9.699999999999999734e-01 -8.899999999999999023e-01 6.780000000000023785e-01 -5.699999999999987299e-01 8.800000000000016698e-01 -8.999999999999999112e-01 1.870000000000028306e-01 4.900000000000013234e-01 -3.119999999999966134e-01 2.587000000000005073e+00 7.150000000000040767e-01 -5.419999999999980389e-01 -2.599999999999480504e-02 4.830000000000022053e-01 -1.232999999999999208e+00 7.800000000000015810e-01 -6.399999999999996803e-01 -1.189999999999983293e-01 4.000000000000092371e-02 2.450000000000019940e-01 -1.649999999999983702e-01 2.000000000000010658e-01 -7.799999999999998046e-01 -6.999999999999997335e-01 1.291000000000003034e+00 -6.599999999999828226e-02 6.660000000000023679e-01 2.900000000000011458e-01 -6.399999999999996803e-01 -3.499999999999836575e-02 -7.199999999999997513e-01 -7.599999999999997868e-01 -1.043999999999999151e+00 1.831000000000004180e+00 -2.999999999999993783e-01 -4.799999999999995381e-01 7.260000000000024212e-01 -1.999999999999992895e-01 -1.178999999999999382e+00 4.150000000000031442e-01 -3.299999999999967404e-01 -9.999999999998232525e-03 2.700000000000011280e-01 -1.199999999999992184e-01 1.343000000000003968e+00 6.800000000000283595e-02 -4.699999999999995293e-01 -1.456999999999997186e+00 -3.069999999999984963e-01 -7.699999999999997957e-01 -3.799999999999994493e-01 1.290000000000036673e-01 3.130000000000020544e-01 -1.130999999999999339e+00 -1.157999999999999252e+00 7.800000000000015810e-01 -2.299999999999993161e-01 7.200000000000024158e-01 1.693000000000003391e+00 1.100000000000009859e-01 2.000000000000010658e-01 -6.799999999999997158e-01 -1.879999999999975024e-01 -9.209999999999989306e-01 4.700000000000013056e-01 -1.399999999999992362e-01 -6.029999999999988702e-01 1.300000000000010036e-01 6.460000000000023501e-01 9.800000000000017586e-01 -6.999999999999917399e-02 2.190000000000019709e-01 -7.519999999999988916e-01 6.000000000000041966e-01 -6.969999999999988427e-01 6.700000000000014833e-01 6.500000000000014655e-01 -1.772999999999999687e+00 -9.499999999999999556e-01 3.440000000000020819e-01 -7.699999999999997957e-01 -9.599999999999999645e-01 8.700000000000185363e-02 1.276000000000003798e+00 7.200000000000015277e-01 -9.799999999999999822e-01 -7.479999999999979998e-01 1.500000000000010214e-01 -5.599999999999996092e-01 -1.140999999999998238e+00 7.000000000000015099e-01 7.400000000000059863e-01
-7.259999999999979803e-01 5.280000000000032445e-01 -1.496999999999999442e+00 -3.999999999999994671e-01 2.130000000000028537e-01 -2.829999999999965876e-01 9.950000000000027711e-01 3.050000000000030465e-01 -5.919999999999978613e-01 1.530000000000037996e-01 -1.299999999999992273e-01 2.500000000000011102e-01 9.800000000000186340e-02 -2.079999999999984084e-01 -8.999999999999919176e-02 4.100000000000012523e-01 -1.169999999999975504e-01 -5.599999999999996092e-01 1.700000000000010392e-01 1.100000000000003642e+00 -5.799999999999996270e-01 -4.999999999999915623e-02 -1.226999999999999424e+00 -1.999999999999824141e-02 3.650000000000037659e-01 1.183000000000004714e+00 -1.013999999999999124e+00 -7.799999999999998046e-01 -2.429999999999975513e-01 9.890000000000036540e-01 1.207000000000002959e+00 4.750000000000021982e-01 -4.799999999999995381e-01 -9.599999999999999645e-01 -7.269999999999988693e-01 7.900000000000015898e-01 -2.899999999999993694e-01 -1.626999999999998003e+00 -1.549999999999983613e-01 -3.579999999999985416e-01 -6.299999999999996714e-01 8.300000000000016254e-01 3.370000000000019647e-01 9.000000000000096811e-02 -4.199999999999994849e-01 3.520000000000020890e-01 -7.999999999999918288e-02 -8.089999999999989422e-01 6.000000000001781686e-03 1.343000000000002858e+00 1.901000000000006240e+00 -8.839999999999972324e-01 1.390000000000026770e-01 -1.799999999999992717e-01 7.510000000000025544e-01 -7.999999999999918288e-02 -1.640999999999998682e+00 1.410000000000043441e-01 -5.799999999999996270e-01 1.001000000000003443e+00 2.210000000000018616e-01 -4.699999999999995293e-01 5.900000000000014122e-01 -8.199999999999998401e-01 9.300000000000017142e-01 1.400000000000010125e-01 6.000000000000094147e-02 5.600000000000013856e-01 5.100000000000013411e-01 -2.499999999999993339e-01 -2.389999999999976588e-01 -6.969999999999979545e-01 -1.999999999999992895e-01 -8.699999999999981082e-01 1.800000000000010481e-01 -7.939999999999980407e-01 -1.040999999999999037e+00 -8.459999999999971987e-01 -1.399999999999992362e-01 8.290000000000024016e-01 3.400000000000180655e-02 1.413000000000002920e+00 -1.879999999999997229e+00 1.726000000000006196e+00 -8.099999999999998312e-01 -3.169999999999985052e-01 2.790000000000021352e-01 2.300000000000010925e-01 7.820000000000042473e-01 -1.779999999999999805e+00 2.390000000000018776e-01 1.674000000000004151e+00 -1.177999999999999270e+00 -1.049999999999983169e-01 9.840000000000026503e-01 -1.418999999999999595e+00 -6.899999999999997247e-01 2.799000000000005706e+00 -4.999999999998228084e-03 3.700000000000012168e-01 -8.199999999999998401e-01 6.500000000000014655e-01 7.760000000000034648e-01 4.310000000000021592e-01 -2.589999999999976765e-01 6.990000000000023972e-01 1.580000000000019167e-01 1.988000000000004430e+00 1.900000000000010569e-01 -3.499999999999994227e-01 -3.859999999999977893e-01 2.700000000000020162e-01 -7.699999999999997957e-01 -9.499999999999999556e-01 1.441000000000003167e+00 2.101000000000005308e+00 -5.709999999999987308e-01 -2.379999999999975469e-01 -6.779999999999988258e-01 5.300000000000013589e-01 8.790000000000024460e-01 -1.399999999999964606e-01 4.690000000000037472e-01 -3.489999999999984226e-01 -3.799999999999994493e-01 -4.309999999999986064e-01 2.130000000000019655e-01 1.839000000000003521e+00 -5.629999999999977245e-01 5.890000000000032987e-01 -1.198999999999999400e+00 1.430000000000004157e+00 -7.499999999999997780e-01 9.450000000000027267e-01 -8.399999999999998579e-01 -9.799999999999999822e-01 -9.699999999999731060e-02 -6.379999999999987903e-01 -9.499999999999999556e-01 8.000000000000015987e-01 7.000000000000015099e-01 7.400000000000015454e-01 2.610000000000020082e-01 -4.399999999999995026e-01 -4.099999999999994760e-01 6.900000000000350298e-02 -5.599999999999996092e-01 -7.199999999999997513e-01 1.058000000000003604e+00 1.191000000000002723e+00 -2.539999999999984492e-01 -9.699999999999999734e-01 -8.899999999999999023e-01 6.780000000000023785e-01 -5.699999999999987299e-01 9.690000000000025260e-01 -8.999999999999999112e-01 1.870000000000028306e-01 4.900000000000013234e-01 -3.119999999999966134e-01 2.587000000000005073e+00 7.150000000000040767e-01 -5.419999999999980389e-01 -2.599999999999480504e-02 4.830000000000022053e-01 -1.232999999999999208e+00 7.800000000000015810e-01 -6.399999999999996803e-01 -1.189999999999983293e-01 4.000000000000092371e-02 2.450000000000019940e-01 -1.649999999999983702e-01 2.000000000000010658e-01 -7.799999999999998046e-01 -6.999999999999997335e-01 1.291000000000003034e+00 -6.599999999999828226e-02 6.660000000000023679e-01 2.900000000000011458e-01 -6.399999999999996803e-01 -3.499999999999836575e-02 -1.238999999999999435e+00 -7.599999999999997868e-01 -1.043999999999999151e+00 1.831000000000004180e+00 -2.999999999999993783e-01 -4.799999999999995381e-01 7.260000000000024212e-01 3.510000000000021991e-01 -6.299999999999996714e-01 4.150000000000031442e-01 -1.163999999999998369e+00 2.300000000000010925e-01 2.700000000000011280e-01 -1.199999999999992184e-01 1.343000000000003968e+00 6.800000000000283595e-02 -4.699999999999995293e-01 -1.456999999999997186e+00 -3.069999999999984963e-01 -7.699999999999997957e-01 -3.799999999999994493e-01 1.290000000000036673e-01 3.130000000000020544e-01 -1.130999999999999339e+00 -1.157999999999999252e+00 7.800000000000015810e-01 -2.299999999999993161e-01 7.200000000000024158e-01 1.693000000000003391e+00 1.100000000000009859e-01 2.000000000000010658e-01 -6.799999999999997158e-01 -1.879999999999975024e-01 -9.209999999999989306e-01 4.700000000000013056e-01 -1.399999999999992362e-01 -6.029999999999988702e-01 1.300000000000010036e-01 6.460000000000023501e-01 9.800000000000017586e-01 -6.999999999999917399e-02 4.850000000000030953e-01 -7.519999999999988916e-01 6.000000000000041966e-01 -6.969999999999988427e-01 6.700000000000014833e-01 6.500000000000014655e-01 -1.772999999999999687e+00 -9.499999999999999556e-01 3.440000000000020819e-01 -7.699999999999997957e-01 -9.599999999999999645e-01 8.700000000000185363e-02 1.276000000000003798e+00 7.200000000000015277e-01 -9.799999999999999822e-01 -7.479999999999979998e-01 5.100000000000182165e-02 -5.599999999999996092e-01 -1.140999999999998238e+00 7.000000000000015099e-01 7.400000000000059863e-01
1.160000000000018794e-01 5.280000000000032445e-01 -1.496999999999999442e+00 -3.999999999999994671e-01 2.130000000000028537e-01 -2.829999999999965876e-01 9.950000000000027711e-01 3.050000000000030465e-01 -5.919999999999978613e-01 1.530000000000037996e-01 -1.299999999999992273e-01 2.500000000000011102e-01 9.800000000000186340e-02 -2.079999999999984084e-01 -8.999999999999919176e-02 4.100000000000012523e-01 -1.169999999999975504e-01 -5.599999999999996092e-01 1.700000000000010392e-01 1.100000000000003642e+00 -5.799999999999996270e-01 -4.999999999999915623e-02 -1.515999999999998682e+00 -1.999999999999824141e-02 3.650000000000037659e-01 1.183000000000004714e+00 -1.013999999999999124e+00 -7.799999999999998046e-01 2.420000000000019913e-01 9.890000000000036540e-01 4.120000000000031415e-01 4.750000000000021982e-01 -4.799999999999995381e-01 -9.599999999999999645e-01 -7.269999999999988693e-01 7.900000000000015898e-01 -2.899999999999993694e-01 -1.626999999999998003e+00 -1.549999999999983613e-01 -3.579999999999985416e-01 -6.299999999999996714e-01 8.300000000000016254e-01 3.370000000000019647e-01 9.000000000000096811e-02 -4.199999999999994849e-01 3.520000000000020890e-01 -7.999999999999918288e-02 -8.089999999999989422e-01 6.000000000001781686e-03 1.343000000000002858e+00 1.901000000000006240e+00 -8.839999999999972324e-01 1.390000000000026770e-01 -1.799999999999992717e-01 7.510000000000025544e-01 -7.109999999999988551e-01 -1.640999999999998682e+00 2.340000000000027613e-01 -5.799999999999996270e-01 1.001000000000003443e+00 2.210000000000018616e-01 -4.699999999999995293e-01 5.900000000000014122e-01 -8.199999999999998401e-01 9.300000000000017142e-01 1.400000000000010125e-01 6.000000000000094147e-02 5.600000000000013856e-01 5.100000000000013411e-01 -2.499999999999993339e-01 -7.119999999999988560e-01 -6.969999999999979545e-01 -1.999999999999992895e-01 -8.699999999999981082e-01 1.800000000000010481e-01 -7.939999999999980407e-01 -1.040999999999999037e+00 -8.459999999999971987e-01 -1.399999999999992362e-01 8.290000000000024016e-01 3.400000000000180655e-02 1.413000000000002920e+00 -1.879999999999997229e+00 1.726000000000006196e+00 -8.099999999999998312e-01 -3.169999999999985052e-01 2.790000000000021352e-01 2.300000000000010925e-01 5.230000000000030180e-01 -1.779999999999999805e+00 2.390000000000018776e-01 1.674000000000004151e+00 -1.177999999999999270e+00 -1.049999999999983169e-01 9.840000000000026503e-01 -1.418999999999999595e+00 -6.899999999999997247e-01 2.799000000000005706e+00 -4.999999999998228084e-03 3.700000000000012168e-01 -8.199999999999998401e-01 6.500000000000014655e-01 7.760000000000034648e-01 7.500000000000015543e-01 7.110000000000022968e-01 6.990000000000023972e-01 8.500000000000016431e-01 1.988000000000004430e+00 1.900000000000010569e-01 -3.499999999999994227e-01 -3.859999999999977893e-01 2.700000000000020162e-01 -7.699999999999997957e-01 -9.499999999999999556e-01 1.441000000000003167e+00 2.101000000000005308e+00 -5.709999999999987308e-01 -2.379999999999975469e-01 -6.779999999999988258e-01 5.300000000000013589e-01 8.790000000000024460e-01 -1.399999999999964606e-01 4.690000000000037472e-01 -3.489999999999984226e-01 -3.799999999999994493e-01 -4.309999999999986064e-01 2.130000000000019655e-01 1.839000000000003521e+00 -5.629999999999977245e-01 5.890000000000032987e-01 -1.198999999999999400e+00 1.430000000000004157e+00 -7.499999999999997780e-01 9.450000000000027267e-01 -8.399999999999998579e-01 -9.799999999999999822e-01 -9.699999999999731060e-02 -6.379999999999987903e-01 -9.499999999999999556e-01 8.000000000000015987e-01 7.000000000000015099e-01 7.400000000000015454e-01 2.610000000000020082e-01 -4.399999999999995026e-01 -4.099999999999994760e-01 6.900000000000350298e-02 -5.599999999999996092e-01 -7.199999999999997513e-01 1.058000000000003604e+00 8.270000000000032880e-01 -2.539999999999984492e-01 -9.699999999999999734e-01 -8.899999999999999023e-01 -2.069999999999975193e-01 -5.699999999999987299e-01 9.690000000000025260e-01 -8.999999999999999112e-01 1.870000000000028306e-01 4.900000000000013234e-01 -3.119999999999966134e-01 2.587000000000005073e+00 7.150000000000040767e-01 -5.419999999999980389e-01 4.210000000000047038e-01 4.830000000000022053e-01 -1.232999999999999208e+00 7.800000000000015810e-01 -6.399999999999996803e-01 -1.189999999999983293e-01 4.000000000000092371e-02 2.450000000000019940e-01 -1.649999999999983702e-01 2.000000000000010658e-01 -7.799999999999998046e-01 -6.999999999999997335e-01 1.291000000000003034e+00 -6.599999999999828226e-02 6.660000000000023679e-01 2.900000000000011458e-01 -6.399999999999996803e-01 -3.499999999999836575e-02 -7.199999999999997513e-01 -7.599999999999997868e-01 -1.043999999999999151e+00 1.831000000000004180e+00 -2.999999999999993783e-01 -4.799999999999995381e-01 7.260000000000024212e-01 -1.999999999999992895e-01 -6.299999999999996714e-01 4.150000000000031442e-01 -1.163999999999998369e+00 9.680000000000026361e-01 2.700000000000011280e-01 -1.199999999999992184e-01 1.343000000000003968e+00 6.800000000000283595e-02 -4.699999999999995293e-01 -1.456999999999997186e+00 -3.069999999999984963e-01 -7.699999999999997957e-01 -3.799999999999994493e-01 1.290000000000036673e-01 3.130000000000020544e-01 -1.130999999999999339e+00 -1.157999999999999252e+00 7.800000000000015810e-01 -2.299999999999993161e-01 7.200000000000024158e-01 1.693000000000003391e+00 1.100000000000009859e-01 2.000000000000010658e-01 -6.799999999999997158e-01 -1.879999999999975024e-01 -9.209999999999989306e-01 4.700000000000013056e-01 -1.399999999999992362e-01 -6.029999999999988702e-01 1.300000000000010036e-01 6.970000000000033946e-01 9.800000000000017586e-01 -6.999999999999917399e-02 4.850000000000030953e-01 -7.519999999999988916e-01 1.455000000000004068e+00 -6.969999999999988427e-01 6.700000000000014833e-01 6.500000000000014655e-01 -1.772999999999999687e+00 -9.499999999999999556e-01 3.440000000000020819e-01 -7.699999999999997957e-01 -9.599999999999999645e-01 8.700000000000185363e-02 1.276000000000003798e+00 7.200000000000015277e-01 -9.799999999999999822e-01 -7.479999999999979998e-01 1.500000000000010214e-01 -5.599999999999996092e-01 -1.140999999999998238e+00 7.000000000000015099e-01 7.400000000000059863e-01
-6.469999999999979101e-01 5.280000000000032445e-01 -1.496999999999999442e+00 -3.999999999999994671e-01 2.130000000000028537e-01 -2.829999999999965876e-01 9.950000000000027711e-01 3.050000000000030465e-01 -5.919999999999978613e-01 1.530000000000037996e-01 -1.299999999999992273e-01 2.500000000000011102e-01 9.800000000000186340e-02 -2.079999999999984084e-01 -8.999999999999919176e-02 4.100000000000012523e-01 -1.169999999999975504e-01 -5.599999999999996092e-01 1.700000000000010392e-01 1.100000000000003642e+00 -5.799999999999996270e-01 -4.999999999999915623e-02 -1.226999999999999424e+00 -1.999999999999824141e-02 3.650000000000037659e-01 1.183000000000004714e+00 -1.013999999999999124e+00 -7.799999999999998046e-01 2.420000000000019913e-01 9.890000000000036540e-01 1.207000000000002959e+00 4.750000000000021982e-01 -4.799999999999995381e-01 -9.599999999999999645e-01 -7.269999999999988693e-01 7.890000000000024771e-01 -2.899999999999993694e-01 -1.626999999999998003e+00 -1.549999999999983613e-01 -3.579999999999985416e-01 -6.299999999999996714e-01 8.300000000000016254e-01 3.370000000000019647e-01 9.000000000000096811e-02 -4.199999999999994849e-01 3.520000000000020890e-01 -7.999999999999918288e-02 -8.089999999999989422e-01 6.000000000001781686e-03 4.690000000000029701e-01 1.901000000000006240e+00 -8.839999999999972324e-01 1.390000000000026770e-01 -1.799999999999992717e-01 7.510000000000025544e-01 -7.999999999999918288e-02 -1.640999999999998682e+00 2.340000000000027613e-01 -5.799999999999996270e-01 1.001000000000003443e+00 1.600000000000010303e-01 -4.699999999999995293e-01 5.900000000000014122e-01 -8.199999999999998401e-01 9.300000000000017142e-01 1.400000000000010125e-01 6.000000000000094147e-02 5.600000000000013856e-01 5.100000000000013411e-01 -2.499999999999993339e-01 -7.119999999999988560e-01 -1.691999999999997950e+00 -1.999999999999992895e-01 -8.699999999999981082e-01 -4.109999999999985887e-01 -7.939999999999980407e-01 -1.040999999999999037e+00 -8.459999999999971987e-01 -1.399999999999992362e-01 8.290000000000024016e-01 3.400000000000180655e-02 1.413000000000002920e+00 -1.879999999999997229e+00 1.726000000000006196e+00 -8.099999999999998312e-01 -3.169999999999985052e-01 1.052000000000003599e+00 2.300000000000010925e-01 7.820000000000042473e-01 -1.779999999999999805e+00 2.390000000000018776e-01 1.674000000000004151e+00 -1.177999999999999270e+00 -1.049999999999983169e-01 9.840000000000026503e-01 -1.418999999999999595e+00 -6.899999999999997247e-01 2.799000000000005706e+00 -4.999999999998228084e-03 3.700000000000012168e-01 -8.199999999999998401e-01 6.500000000000014655e-01 7.760000000000034648e-01 7.500000000000015543e-01 7.110000000000022968e-01 6.990000000000023972e-01 8.500000000000016431e-01 1.988000000000004430e+00 1.900000000000010569e-01 -3.499999999999994227e-01 -3.859999999999977893e-01 2.700000000000020162e-01 -7.699999999999997957e-01 -9.499999999999999556e-01 7.100000000000015188e-01 2.101000000000005308e+00 -5.709999999999987308e-01 -2.379999999999975469e-01 -6.779999999999988258e-01 5.300000000000013589e-01 8.790000000000024460e-01 -1.599999999999723865e-02 4.690000000000037472e-01 -3.489999999999984226e-01 -3.799999999999994493e-01 -4.309999999999986064e-01 2.130000000000019655e-01 1.839000000000003521e+00 -5.629999999999977245e-01 5.890000000000032987e-01 -1.198999999999999400e+00 1.430000000000004157e+00 -7.499999999999997780e-01 9.450000000000027267e-01 -8.399999999999998579e-01 -9.799999999999999822e-01 -9.699999999999731060e-02 -6.379999999999987903e-01 -9.499999999999999556e-01 8.000000000000015987e-01 7.000000000000015099e-01 7.400000000000015454e-01 2.610000000000020082e-01 -4.399999999999995026e-01 -4.099999999999994760e-01 6.900000000000350298e-02 -5.599999999999996092e-01 -7.199999999999997513e-01 1.058000000000003604e+00 1.191000000000002723e+00 -2.539999999999984492e-01 -9.699999999999999734e-01 -1.140999999999999126e+00 6.780000000000023785e-01 -5.699999999999987299e-01 9.690000000000025260e-01 -8.999999999999999112e-01 1.870000000000028306e-01 4.900000000000013234e-01 -3.119999999999966134e-01 3.311000000000006604e+00 7.150000000000040767e-01 -5.419999999999980389e-01 4.210000000000047038e-01 4.830000000000022053e-01 -1.232999999999999208e+00 7.800000000000015810e-01 -6.399999999999996803e-01 -1.189999999999983293e-01 4.000000000000092371e-02 2.450000000000019940e-01 -1.649999999999983702e-01 2.000000000000010658e-01 -7.799999999999998046e-01 -6.999999999999997335e-01 1.291000000000003034e+00 -6.599999999999828226e-02 6.660000000000023679e-01 2.900000000000011458e-01 -6.399999999999996803e-01 -3.499999999999836575e-02 -7.199999999999997513e-01 -7.599999999999997868e-01 -1.043999999999999151e+00 1.831000000000004180e+00 -2.999999999999993783e-01 -4.799999999999995381e-01 7.260000000000024212e-01 -1.999999999999992895e-01 -6.299999999999996714e-01 4.150000000000031442e-01 -1.163999999999998369e+00 2.300000000000010925e-01 2.700000000000011280e-01 -1.199999999999992184e-01 1.343000000000003968e+00 7.010000000000025100e-01 -4.699999999999995293e-01 -1.012999999999996792e+00 -3.069999999999984963e-01 -7.699999999999997957e-01 -3.799999999999994493e-01 1.290000000000036673e-01 3.130000000000020544e-01 -1.130999999999999339e+00 -1.157999999999999252e+00 7.800000000000015810e-01 -2.299999999999993161e-01 7.200000000000024158e-01 1.693000000000003391e+00 1.100000000000009859e-01 2.000000000000010658e-01 -5.299999999999815969e-02 -1.879999999999975024e-01 -9.209999999999989306e-01 4.700000000000013056e-01 -1.399999999999992362e-01 -6.029999999999988702e-01 1.300000000000010036e-01 6.460000000000023501e-01 9.800000000000017586e-01 -6.999999999999917399e-02 2.190000000000019709e-01 -7.519999999999988916e-01 1.455000000000004068e+00 -6.969999999999988427e-01 6.700000000000014833e-01 6.500000000000014655e-01 -1.772999999999999687e+00 -9.499999999999999556e-01 3.440000000000020819e-01 -7.699999999999997957e-01 -9.599999999999999645e-01 8.700000000000185363e-02 1.276000000000003798e+00 7.200000000000015277e-01 -9.799999999999999822e-01 -7.479999999999979998e-01 1.500000000000010214e-01 -5.599999999999996092e-01 -1.140999999999998238e+00 7.000000000000015099e-01 7.400000000000059863e-01
-7.259999999999979803e-01 5.280000000000032445e-01 -1.496999999999999442e+00 -3.999999999999994671e-01 2.130000000000028537e-01 -2.829999999999965876e-01 2.710000000000030163e-01 3.050000000000030465e-01 -5.919999999999978613e-01 1.530000000000037996e-01 -1.299999999999992273e-01 2.500000000000011102e-01 9.800000000000186340e-02 -2.079999999999984084e-01 -8.999999999999919176e-02 4.100000000000012523e-01 -1.169999999999975504e-01 -5.599999999999996092e-01 1.700000000000010392e-01 8.670000000000043228e-01 -5.799999999999996270e-01 -4.999999999999915623e-02 -1.226999999999999424e+00 -1.999999999999824141e-02 3.650000000000037659e-01 1.183000000000004714e+00 -1.013999999999999124e+00 -7.799999999999998046e-01 2.420000000000019913e-01 9.890000000000036540e-01 1.207000000000002959e+00 4.750000000000021982e-01 -4.799999999999995381e-01 -9.599999999999999645e-01 -7.269999999999988693e-01 7.900000000000015898e-01 -2.899999999999993694e-01 -1.626999999999998003e+00 -1.549999999999983613e-01 -3.579999999999985416e-01 -6.299999999999996714e-01 8.300000000000016254e-01 3.370000000000019647e-01 9.000000000000096811e-02 -4.199999999999994849e-01 3.520000000000020890e-01 -7.999999999999918288e-02 -8.089999999999989422e-01 6.000000000001781686e-03 1.343000000000002858e+00 2.596000000000008079e+00 -8.839999999999972324e-01 1.390000000000026770e-01 -1.799999999999992717e-01 7.510000000000025544e-01 -7.999999999999918288e-02 -1.640999999999998682e+00 1.410000000000043441e-01 -5.799999999999996270e-01 4.270000000000029328e-01 2.210000000000018616e-01 -4.699999999999995293e-01 5.900000000000014122e-01 -8.199999999999998401e-01 9.300000000000017142e-01 1.400000000000010125e-01 6.000000000000094147e-02 5.600000000000013856e-01 5.100000000000013411e-01 -2.499999999999993339e-01 -2.389999999999976588e-01 -6.969999999999979545e-01 -1.999999999999992895e-01 -8.699999999999981082e-01 1.800000000000010481e-01 -7.939999999999980407e-01 -1.040999999999999037e+00 -8.459999999999971987e-01 -1.399999999999992362e-01 8.290000000000024016e-01 3.400000000000180655e-02 1.413000000000002920e+00 -1.879999999999997229e+00 1.726000000000006196e+00 -8.099999999999998312e-01 -3.169999999999985052e-01 2.790000000000021352e-01 2.300000000000010925e-01 5.230000000000030180e-01 -1.779999999999999805e+00 2.390000000000018776e-01 1.674000000000004151e+00 -1.177999999999999270e+00 -1.049999999999983169e-01 9.840000000000026503e-01 -1.418999999999999595e+00 -6.899999999999997247e-01 2.799000000000005706e+00 -1.819999999999974971e-01 3.700000000000012168e-01 -8.199999999999998401e-01 6.500000000000014655e-01 7.760000000000034648e-01 7.500000000000015543e-01 -2.589999999999976765e-01 6.990000000000023972e-01 1.580000000000019167e-01 1.988000000000004430e+00 1.900000000000010569e-01 -3.499999999999994227e-01 -3.859999999999977893e-01 2.700000000000020162e-01 -7.699999999999997957e-01 -9.499999999999999556e-01 7.100000000000015188e-01 2.101000000000005308e+00 -5.709999999999987308e-01 -2.379999999999975469e-01 -6.779999999999988258e-01 5.300000000000013589e-01 8.790000000000024460e-01 -1.399999999999964606e-01 4.690000000000037472e-01 -3.489999999999984226e-01 -3.799999999999994493e-01 -4.309999999999986064e-01 2.130000000000019655e-01 1.839000000000003521e+00 -5.629999999999977245e-01 5.890000000000032987e-01 -1.198999999999999400e+00 1.430000000000004157e+00 -7.499999999999997780e-01 9.450000000000027267e-01 -8.399999999999998579e-01 -9.799999999999999822e-01 -9.699999999999731060e-02 -6.379999999999987903e-01 -9.499999999999999556e-01 8.000000000000015987e-01 7.000000000000015099e-01 7.400000000000015454e-01 2.610000000000020082e-01 -4.399999999999995026e-01 -4.099999999999994760e-01 6.900000000000350298e-02 -5.599999999999996092e-01 -7.199999999999997513e-01 1.058000000000003604e+00 1.191000000000002723e+00 -2.539999999999984492e-01 -9.699999999999999734e-01 -1.140999999999999126e+00 6.780000000000023785e-01 -5.699999999999987299e-01 9.690000000000025260e-01 -8.999999999999999112e-01 1.870000000000028306e-01 4.900000000000013234e-01 -3.119999999999966134e-01 2.587000000000005073e+00 7.150000000000040767e-01 -5.419999999999980389e-01 -2.599999999999480504e-02 4.830000000000022053e-01 -1.232999999999999208e+00 7.800000000000015810e-01 -6.399999999999996803e-01 -1.189999999999983293e-01 4.000000000000092371e-02 2.450000000000019940e-01 -1.649999999999983702e-01 2.000000000000010658e-01 -7.799999999999998046e-01 -6.999999999999997335e-01 1.291000000000003034e+00 -6.599999999999828226e-02 6.660000000000023679e-01 2.900000000000011458e-01 -6.399999999999996803e-01 -3.499999999999836575e-02 -7.199999999999997513e-01 -7.599999999999997868e-01 -1.043999999999999151e+00 1.831000000000004180e+00 -2.999999999999993783e-01 -4.799999999999995381e-01 7.260000000000024212e-01 3.510000000000021991e-01 -6.299999999999996714e-01 4.150000000000031442e-01 -1.163999999999998369e+00 2.300000000000010925e-01 2.700000000000011280e-01 -1.199999999999992184e-01 1.343000000000003968e+00 6.800000000000283595e-02 -4.699999999999995293e-01 -1.456999999999997186e+00 -3.069999999999984963e-01 -7.699999999999997957e-01 -3.799999999999994493e-01 1.290000000000036673e-01 3.130000000000020544e-01 -1.130999999999999339e+00 -1.157999999999999252e+00 7.800000000000015810e-01 -2.299999999999993161e-01 7.200000000000024158e-01 1.693000000000003391e+00 1.100000000000009859e-01 2.000000000000010658e-01 -6.799999999999997158e-01 -1.879999999999975024e-01 -9.209999999999989306e-01 4.700000000000013056e-01 -1.399999999999992362e-01 -6.029999999999988702e-01 1.300000000000010036e-01 6.460000000000023501e-01 9.800000000000017586e-01 -6.999999999999917399e-02 2.190000000000019709e-01 -7.519999999999988916e-01 1.953000000000006953e+00 -6.969999999999988427e-01 6.700000000000014833e-01 6.500000000000014655e-01 -1.772999999999999687e+00 -9.499999999999999556e-01 3.440000000000020819e-01 -7.699999999999997957e-01 -9.599999999999999645e-01 8.700000000000185363e-02 1.276000000000003798e+00 7.200000000000015277e-01 -9.799999999999999822e-01 -7.479999999999979998e-01 5.100000000000182165e-02 -5.599999999999996092e-01 -1.140999999999998238e+00 7.000000000000015099e-01 7.400000000000059863e-01
-6.469999999999979101e-01 5.280000000000032445e-01 -1.496999999999999442e+00 -3.999999999999994671e-01 2.130000000000028537e-01 -2.829999999999965876e-01 9.950000000000027711e-01 3.050000000000030465e-01 -5.919999999999978613e-01 1.530000000000037996e-01 -1.299999999999992273e-01 2.500000000000011102e-01 9.800000000000186340e-02 -2.079999999999984084e-01 -8.999999999999919176e-02 4.100000000000012523e-01 -1.169999999999975504e-01 -5.599999999999996092e-01 1.700000000000010392e-01 1.100000000000003642e+00 -5.799999999999996270e-01 -4.999999999999915623e-02 -1.515999999999998682e+00 -1.999999999999824141e-02 3.650000000000037659e-01 1.183000000000004714e+00 -1.013999999999999124e+00 -7.049999999999987388e-01 2.420000000000019913e-01 9.890000000000036540e-01 1.207000000000002959e+00 4.750000000000021982e-01 -4.799999999999995381e-01 -9.599999999999999645e-01 -7.269999999999988693e-01 7.900000000000015898e-01 -2.899999999999993694e-01 -1.626999999999998003e+00 -1.599999999999974776e-01 -3.579999999999985416e-01 -6.299999999999996714e-01 8.300000000000016254e-01 3.370000000000019647e-01 9.000000000000096811e-02 -4.199999999999994849e-01 3.520000000000020890e-01 -7.999999999999918288e-02 -8.089999999999989422e-01 6.000000000001781686e-03 1.343000000000002858e+00 1.901000000000006240e+00 -8.839999999999972324e-01 1.390000000000026770e-01 -1.799999999999992717e-01 7.510000000000025544e-01 -7.999999999999918288e-02 -1.640999999999998682e+00 2.340000000000027613e-01 -5.799999999999996270e-01 4.270000000000029328e-01 2.210000000000018616e-01 -4.699999999999995293e-01 5.440000000000022595e-01 -8.199999999999998401e-01 9.300000000000017142e-01 1.400000000000010125e-01 6.000000000000094147e-02 5.600000000000013856e-01 5.100000000000013411e-01 -2.499999999999993339e-01 -2.389999999999976588e-01 -6.969999999999979545e-01 -1.999999999999992895e-01 -8.699999999999981082e-01 1.800000000000010481e-01 -7.939999999999980407e-01 -1.040999999999999037e+00 -8.459999999999971987e-01 -1.399999999999992362e-01 8.290000000000024016e-01 3.400000000000180655e-02 1.413000000000002920e+00 -1.075999999999995627e+00 1.726000000000006196e+00 -8.099999999999998312e-01 -3.169999999999985052e-01 2.790000000000021352e-01 2.300000000000010925e-01 5.230000000000030180e-01 -1.779999999999999805e+00 2.390000000000018776e-01 1.674000000000004151e+00 -1.177999999999999270e+00 -1.049999999999983169e-01 9.840000000000026503e-01 -1.418999999999999595e+00 -6.899999999999997247e-01 2.799000000000005706e+00 -4.999999999998228084e-03 3.700000000000012168e-01 -8.199999999999998401e-01 6.500000000000014655e-01 7.760000000000034648e-01 7.500000000000015543e-01 7.110000000000022968e-01 6.990000000000023972e-01 8.500000000000016431e-01 1.988000000000004430e+00 1.900000000000010569e-01 -3.499999999999994227e-01 -3.859999999999977893e-01 2.700000000000020162e-01 -4.799999999999986500e-01 -9.499999999999999556e-01 7.100000000000015188e-01 2.101000000000005308e+00 -5.709999999999987308e-01 -2.379999999999975469e-01 -6.779999999999988258e-01 5.300000000000013589e-01 8.790000000000024460e-01 -1.399999999999964606e-01 4.690000000000037472e-01 -3.489999999999984226e-01 -3.799999999999994493e-01 -4.309999999999986064e-01 2.130000000000019655e-01 1.839000000000003521e+00 -5.629999999999977245e-01 5.890000000000032987e-01 -1.198999999999999400e+00 1.430000000000004157e+00 -7.499999999999997780e-01 9.450000000000027267e-01 -8.399999999999998579e-01 -9.799999999999999822e-01 -9.699999999999731060e-02 -6.379999999999987903e-01 -9.499999999999999556e-01 8.000000000000015987e-01 7.000000000000015099e-01 7.400000000000015454e-01 2.610000000000020082e-01 -4.399999999999995026e-01 -4.099999999999994760e-01 6.900000000000350298e-02 -5.599999999999996092e-01 -7.199999999999997513e-01 1.058000000000003604e+00 1.191000000000002723e+00 -2.539999999999984492e-01 -9.699999999999999734e-01 -8.899999999999999023e-01 6.780000000000023785e-01 -5.699999999999987299e-01 9.690000000000025260e-01 -8.999999999999999112e-01 -1.969999999999966223e-01 4.900000000000013234e-01 -3.119999999999966134e-01 2.587000000000005073e+00 7.150000000000040767e-01 -5.419999999999980389e-01 4.210000000000047038e-01 4.830000000000022053e-01 -1.232999999999999208e+00 7.800000000000015810e-01 -6.399999999999996803e-01 -1.189999999999983293e-01 4.000000000000092371e-02 2.450000000000019940e-01 -1.649999999999983702e-01 2.000000000000010658e-01 -7.799999999999998046e-01 -6.999999999999997335e-01 1.291000000000003034e+00 -6.599999999999828226e-02 6.660000000000023679e-01 2.900000000000011458e-01 -6.399999999999996803e-01 -3.499999999999836575e-02 -7.199999999999997513e-01 -7.599999999999997868e-01 -1.043999999999999151e+00 1.831000000000004180e+00 -2.999999999999993783e-01 -4.799999999999995381e-01 7.200000000000272848e-02 -1.999999999999992895e-01 -6.299999999999996714e-01 4.150000000000031442e-01 -1.163999999999998369e+00 2.300000000000010925e-01 2.700000000000011280e-01 -1.199999999999992184e-01 1.343000000000003968e+00 6.800000000000283595e-02 -4.699999999999995293e-01 -1.725999999999998202e+00 -3.069999999999984963e-01 -7.699999999999997957e-01 -3.799999999999994493e-01 1.290000000000036673e-01 3.130000000000020544e-01 -1.130999999999999339e+00 -1.157999999999999252e+00 7.800000000000015810e-01 -2.299999999999993161e-01 7.200000000000024158e-01 1.693000000000003391e+00 1.100000000000009859e-01 2.000000000000010658e-01 -6.799999999999997158e-01 -3.799999999999967848e-01 -9.209999999999989306e-01 4.700000000000013056e-01 -1.399999999999992362e-01 -6.029999999999988702e-01 1.300000000000010036e-01 6.460000000000023501e-01 9.800000000000017586e-01 -6.999999999999917399e-02 2.190000000000019709e-01 -7.519999999999988916e-01 1.455000000000004068e+00 -6.969999999999988427e-01 6.700000000000014833e-01 6.500000000000014655e-01 -1.772999999999999687e+00 -9.499999999999999556e-01 3.440000000000020819e-01 -7.699999999999997957e-01 -9.599999999999999645e-01 8.700000000000185363e-02 1.276000000000003798e+00 7.200000000000015277e-01 -9.799999999999999822e-01 -2.389999999999967706e-01 1.500000000000010214e-01 -5.599999999999996092e-01 -1.140999999999998238e+00 7.000000000000015099e-01 7.400000000000059863e-01
-6.469999999999979101e-01 5.280000000000032445e-01 -1.496999999999999442e+00 -3.999999999999994671e-01 2.130000000000028537e-01 -2.829999999999965876e-01 9.950000000000027711e-01 3.050000000000030465e-01 -5.919999999999978613e-01 1.530000000000037996e-01 -1.299999999999992273e-01 2.500000000000011102e-01 9.800000000000186340e-02 -2.079999999999984084e-01 -8.999999999999919176e-02 4.100000000000012523e-01 -1.169999999999975504e-01 -5.599999999999996092e-01 1.700000000000010392e-01 1.100000000000003642e+00 -5.799999999999996270e-01 -4.999999999999915623e-02 -1.515999999999998682e+00 -1.999999999999824141e-02 3.650000000000037659e-01 1.183000000000004714e+00 -1.013999999999999124e+00 -7.049999999999987388e-01 2.420000000000019913e-01 9.890000000000036540e-01 1.207000000000002959e+00 4.750000000000021982e-01 -4.799999999999995381e-01 -9.599999999999999645e-01 -7.269999999999988693e-01 7.900000000000015898e-01 1.900000000000168221e-02 -1.626999999999998003e+00 -1.599999999999974776e-01 -3.579999999999985416e-01 -6.299999999999996714e-01 8.300000000000016254e-01 3.370000000000019647e-01 9.000000000000096811e-02 -4.199999999999994849e-01 3.520000000000020890e-01 -7.999999999999918288e-02 -8.089999999999989422e-01 6.000000000001781686e-03 4.690000000000029701e-01 1.901000000000006240e+00 -8.839999999999972324e-01 1.390000000000026770e-01 -1.799999999999992717e-01 7.510000000000025544e-01 -7.999999999999918288e-02 -1.640999999999998682e+00 1.410000000000043441e-01 -5.799999999999996270e-01 4.270000000000029328e-01 2.210000000000018616e-01 -4.699999999999995293e-01 5.900000000000014122e-01 -8.199999999999998401e-01 9.300000000000017142e-01 -5.929999999999987503e-01 6.000000000000094147e-02 5.600000000000013856e-01 5.100000000000013411e-01 -2.499999999999993339e-01 -7.119999999999988560e-01 -6.969999999999979545e-01 -1.999999999999992895e-01 -8.699999999999981082e-01 1.800000000000010481e-01 -7.939999999999980407e-01 -1.040999999999999037e+00 -8.459999999999971987e-01 -1.399999999999992362e-01 8.290000000000024016e-01 3.400000000000180655e-02 1.413000000000002920e+00 -1.879999999999997229e+00 1.726000000000006196e+00 -8.099999999999998312e-01 -3.169999999999985052e-01 2.790000000000021352e-01 2.300000000000010925e-01 5.230000000000030180e-01 -1.779999999999999805e+00 2.390000000000018776e-01 1.674000000000004151e+00 -1.177999999999999270e+00 -1.049999999999983169e-01 9.840000000000026503e-01 -1.418999999999999595e+00 -6.899999999999997247e-01 2.799000000000005706e+00 -1.819999999999974971e-01 3.700000000000012168e-01 -8.199999999999998401e-01 6.500000000000014655e-01 7.760000000000034648e-01 7.500000000000015543e-01 7.110000000000022968e-01 6.990000000000023972e-01 8.500000000000016431e-01 1.988000000000004430e+00 1.900000000000010569e-01 -3.499999999999994227e-01 -3.859999999999977893e-01 2.700000000000020162e-01 -7.699999999999997957e-01 -9.499999999999999556e-01 7.100000000000015188e-01 2.101000000000005308e+00 -5.709999999999987308e-01 -2.379999999999975469e-01 -6.779999999999988258e-01 5.300000000000013589e-01 8.790000000000024460e-01 -1.399999999999964606e-01 4.690000000000037472e-01 -3.489999999999984226e-01 -3.799999999999994493e-01 -4.309999999999986064e-01 2.130000000000019655e-01 1.839000000000003521e+00 -5.629999999999977245e-01 5.890000000000032987e-01 -1.198999999999999400e+00 1.430000000000004157e+00 -7.499999999999997780e-01 9.450000000000027267e-01 -8.399999999999998579e-01 -9.799999999999999822e-01 -9.699999999999731060e-02 -6.379999999999987903e-01 -9.499999999999999556e-01 8.000000000000015987e-01 7.000000000000015099e-01 7.400000000000015454e-01 2.610000000000020082e-01 -4.399999999999995026e-01 -4.099999999999994760e-01 6.900000000000350298e-02 -5.599999999999996092e-01 -7.199999999999997513e-01 1.058000000000003604e+00 1.191000000000002723e+00 -2.539999999999984492e-01 -9.699999999999999734e-01 -1.140999999999999126e+00 6.780000000000023785e-01 -5.699999999999987299e-01 9.690000000000025260e-01 -8.999999999999999112e-01 1.870000000000028306e-01 4.900000000000013234e-01 -3.119999999999966134e-01 2.587000000000005073e+00 7.150000000000040767e-01 -5.419999999999980389e-01 4.210000000000047038e-01 4.830000000000022053e-01 -1.232999999999999208e+00 7.800000000000015810e-01 -6.399999999999996803e-01 -1.189999999999983293e-01 4.000000000000092371e-02 2.450000000000019940e-01 -1.649999999999983702e-01 2.000000000000010658e-01 -7.799999999999998046e-01 -6.999999999999997335e-01 1.291000000000003034e+00 -6.599999999999828226e-02 6.660000000000023679e-01 2.900000000000011458e-01 -6.399999999999996803e-01 -3.499999999999836575e-02 -7.199999999999997513e-01 -7.599999999999997868e-01 -1.043999999999999151e+00 1.831000000000004180e+00 -2.999999999999993783e-01 -4.799999999999995381e-01 7.260000000000024212e-01 -1.999999999999992895e-01 -1.178999999999999382e+00 4.150000000000031442e-01 -1.163999999999998369e+00 2.300000000000010925e-01 2.700000000000011280e-01 -1.199999999999992184e-01 1.343000000000003968e+00 6.800000000000283595e-02 -4.699999999999995293e-01 -1.012999999999996792e+00 -3.069999999999984963e-01 -7.699999999999997957e-01 -3.799999999999994493e-01 1.290000000000036673e-01 3.130000000000020544e-01 -1.130999999999999339e+00 -1.157999999999999252e+00 7.800000000000015810e-01 -2.299999999999993161e-01 7.200000000000024158e-01 1.693000000000003391e+00 1.100000000000009859e-01 2.000000000000010658e-01 -6.799999999999997158e-01 -1.879999999999975024e-01 -9.209999999999989306e-01 4.700000000000013056e-01 -1.399999999999992362e-01 -6.029999999999988702e-01 1.300000000000010036e-01 6.460000000000023501e-01 9.800000000000017586e-01 -6.999999999999917399e-02 2.190000000000019709e-01 -7.519999999999988916e-01 1.455000000000004068e+00 -6.969999999999988427e-01 6.700000000000014833e-01 6.500000000000014655e-01 -1.772999999999999687e+00 -9.499999999999999556e-01 3.440000000000020819e-01 -7.699999999999997957e-01 -1.359999999999983444e-01 8.700000000000185363e-02 1.276000000000003798e+00 7.200000000000015277e-01 -9.799999999999999822e-01 -2.389999999999967706e-01 -3.369999999999985230e-01 -5.599999999999996092e-01 -1.140999999999998238e+00 7.000000000000015099e-01 7.400000000000059863e-01
-7.259999999999979803e-01 5.280000000000032445e-01 -1.496999999999999442e+00 -3.999999999999994671e-01 2.130000000000028537e-01 -2.829999999999965876e-01 9.950000000000027711e-01 3.050000000000030465e-01 -5.919999999999978613e-01 1.530000000000037996e-01 -1.299999999999992273e-01 2.500000000000011102e-01 9.800000000000186340e-02 -2.079999999999984084e-01 -8.999999999999919176e-02 4.100000000000012523e-01 -1.169999999999975504e-01 -5.599999999999996092e-01 1.700000000000010392e-01 1.100000000000003642e+00 -5.799999999999996270e-01 -4.999999999999915623e-02 -1.515999999999998682e+00 -1.999999999999824141e-02 3.650000000000037659e-01 1.136000000000005450e+00 -1.013999999999999124e+00 -7.799999999999998046e-01 2.420000000000019913e-01 9.890000000000036540e-01 1.207000000000002959e+00 4.750000000000021982e-01 -4.799999999999995381e-01 -9.599999999999999645e-01 -7.269999999999988693e-01 7.900000000000015898e-01 -2.899999999999993694e-01 -1.626999999999998003e+00 -1.549999999999983613e-01 -3.579999999999985416e-01 -6.299999999999996714e-01 8.300000000000016254e-01 3.370000000000019647e-01 9.000000000000096811e-02 -4.199999999999994849e-01 3.520000000000020890e-01 -7.999999999999918288e-02 -8.089999999999989422e-01 6.000000000001781686e-03 1.343000000000002858e+00 1.901000000000006240e+00 -8.839999999999972324e-01 1.390000000000026770e-01 -1.799999999999992717e-01 7.510000000000025544e-01 -7.999999999999918288e-02 -1.640999999999998682e+00 2.340000000000027613e-01 -5.799999999999996270e-01 1.001000000000003443e+00 2.210000000000018616e-01 -4.699999999999995293e-01 5.900000000000014122e-01 -8.199999999999998401e-01 9.300000000000017142e-01 1.400000000000010125e-01 6.000000000000094147e-02 5.600000000000013856e-01 5.100000000000013411e-01 -2.499999999999993339e-01 -7.119999999999988560e-01 -6.969999999999979545e-01 -1.999999999999992895e-01 -8.699999999999981082e-01 1.800000000000010481e-01 -7.939999999999980407e-01 -1.040999999999999037e+00 -8.459999999999971987e-01 -1.399999999999992362e-01 8.290000000000024016e-01 3.400000000000180655e-02 1.413000000000002920e+00 -1.879999999999997229e+00 1.726000000000006196e+00 -8.099999999999998312e-01 -3.169999999999985052e-01 2.790000000000021352e-01 2.300000000000010925e-01 8.920000000000034568e-01 -1.779999999999999805e+00 2.390000000000018776e-01 1.674000000000004151e+00 -1.177999999999999270e+00 -1.049999999999983169e-01 9.840000000000026503e-01 -1.418999999999999595e+00 -6.899999999999997247e-01 2.799000000000005706e+00 -4.999999999998228084e-03 3.700000000000012168e-01 -8.199999999999998401e-01 6.500000000000014655e-01 7.760000000000034648e-01 7.500000000000015543e-01 7.110000000000022968e-01 6.990000000000023972e-01 8.500000000000016431e-01 1.988000000000004430e+00 1.900000000000010569e-01 -3.499999999999994227e-01 -3.859999999999977893e-01 2.700000000000020162e-01 -7.699999999999997957e-01 -9.499999999999999556e-01 7.100000000000015188e-01 2.101000000000005308e+00 -5.709999999999987308e-01 -2.379999999999975469e-01 -6.779999999999988258e-01 5.300000000000013589e-01 8.790000000000024460e-01 -1.599999999999723865e-02 4.690000000000037472e-01 -3.489999999999984226e-01 -3.799999999999994493e-01 -4.309999999999986064e-01 2.130000000000019655e-01 1.839000000000003521e+00 -5.629999999999977245e-01 5.890000000000032987e-01 -1.198999999999999400e+00 1.430000000000004157e+00 -7.499999999999997780e-01 9.450000000000027267e-01 -8.399999999999998579e-01 -9.799999999999999822e-01 -9.699999999999731060e-02 -6.379999999999987903e-01 -9.499999999999999556e-01 8.000000000000015987e-01 7.000000000000015099e-01 7.400000000000015454e-01 2.610000000000020082e-01 -4.399999999999995026e-01 -4.099999999999994760e-01 6.900000000000350298e-02 -5.599999999999996092e-01 -7.199999999999997513e-01 1.058000000000003604e+00 1.191000000000002723e+00 5.070000000000040030e-01 -9.699999999999999734e-01 -8.899999999999999023e-01 6.780000000000023785e-01 -5.699999999999987299e-01 9.690000000000025260e-01 -8.999999999999999112e-01 1.870000000000028306e-01 4.900000000000013234e-01 -3.119999999999966134e-01 3.311000000000006604e+00 7.150000000000040767e-01 -5.419999999999980389e-01 4.210000000000047038e-01 4.830000000000022053e-01 -1.232999999999999208e+00 7.800000000000015810e-01 -6.399999999999996803e-01 -1.189999999999983293e-01 4.000000000000092371e-02 2.450000000000019940e-01 -1.649999999999983702e-01 2.000000000000010658e-01 -7.799999999999998046e-01 -6.999999999999997335e-01 1.291000000000003034e+00 -6.599999999999828226e-02 6.660000000000023679e-01 2.900000000000011458e-01 -6.399999999999996803e-01 -3.499999999999836575e-02 -7.199999999999997513e-01 -7.599999999999997868e-01 -1.043999999999999151e+00 1.831000000000004180e+00 -2.999999999999993783e-01 -4.799999999999995381e-01 7.260000000000024212e-01 -1.999999999999992895e-01 -6.299999999999996714e-01 4.150000000000031442e-01 -1.163999999999998369e+00 2.300000000000010925e-01 2.700000000000011280e-01 -1.199999999999992184e-01 1.343000000000003968e+00 6.800000000000283595e-02 -3.699999999999985523e-01 -1.725999999999998202e+00 -3.069999999999984963e-01 -7.699999999999997957e-01 -3.799999999999994493e-01 1.290000000000036673e-01 3.130000000000020544e-01 -1.130999999999999339e+00 -1.157999999999999252e+00 7.800000000000015810e-01 -2.299999999999993161e-01 7.200000000000024158e-01 1.693000000000003391e+00 1.100000000000009859e-01 2.000000000000010658e-01 -6.799999999999997158e-01 -1.879999999999975024e-01 -9.209999999999989306e-01 4.700000000000013056e-01 -1.399999999999992362e-01 -6.029999999999988702e-01 1.300000000000010036e-01 6.460000000000023501e-01 9.800000000000017586e-01 -6.999999999999917399e-02 2.190000000000019709e-01 -7.519999999999988916e-01 6.000000000000041966e-01 -6.969999999999988427e-01 6.700000000000014833e-01 6.500000000000014655e-01 -1.772999999999999687e+00 -9.499999999999999556e-01 -2.599999999999735856e-02 -7.699999999999997957e-01 -9.599999999999999645e-01 8.700000000000185363e-02 1.276000000000003798e+00 7.200000000000015277e-01 -9.799999999999999822e-01 -7.479999999999979998e-01 1.500000000000010214e-01 -5.599999999999996092e-01 -1.140999999999998238e+00 7.000000000000015099e-01 7.400000000000059863e-01
-6.469999999999979101e-01 5.280000000000032445e-01 -1.496999999999999442e+00 -3.999999999999994671e-01 2.130000000000028537e-01 -2.829999999999965876e-01 9.950000000000027711e-01 3.050000000000030465e-01 -5.919999999999978613e-01 1.530000000000037996e-01 -1.299999999999992273e-01 2.500000000000011102e-01 9.800000000000186340e-02 -2.079999999999984084e-01 -8.999999999999919176e-02 4.100000000000012523e-01 -1.169999999999975504e-01 -5.599999999999996092e-01 1.700000000000010392e-01 1.100000000000003642e+00 -5.799999999999996270e-01 -4.999999999999915623e-02 -1.226999999999999424e+00 -1.999999999999824141e-02 3.650000000000037659e-01 1.183000000000004714e+00 -1.013999999999999124e+00 -7.799999999999998046e-01 2.420000000000019913e-01 9.890000000000036540e-01 1.207000000000002959e+00 4.750000000000021982e-01 -4.799999999999995381e-01 -9.599999999999999645e-01 -7.269999999999988693e-01 7.900000000000015898e-01 -2.899999999999993694e-01 -1.626999999999998003e+00 -1.549999999999983613e-01 -3.579999999999985416e-01 -6.299999999999996714e-01 8.300000000000016254e-01 3.370000000000019647e-01 9.000000000000096811e-02 -4.199999999999994849e-01 3.520000000000020890e-01 -7.999999999999918288e-02 -8.089999999999989422e-01 6.000000000001781686e-03 4.690000000000029701e-01 1.901000000000006240e+00 -8.839999999999972324e-01 1.390000000000026770e-01 -1.799999999999992717e-01 7.510000000000025544e-01 -7.999999999999918288e-02 -1.640999999999998682e+00 1.410000000000043441e-01 -5.799999999999996270e-01 8.900000000000043432e-01 1.600000000000010303e-01 -4.699999999999995293e-01 5.900000000000014122e-01 -8.199999999999998401e-01 9.300000000000017142e-01 1.400000000000010125e-01 6.000000000000094147e-02 5.600000000000013856e-01 5.100000000000013411e-01 -2.499999999999993339e-01 -7.119999999999988560e-01 -6.969999999999979545e-01 -1.999999999999992895e-01 -8.699999999999981082e-01 -4.109999999999985887e-01 -7.939999999999980407e-01 -1.040999999999999037e+00 -8.459999999999971987e-01 -1.399999999999992362e-01 8.290000000000024016e-01 3.400000000000180655e-02 1.413000000000002920e+00 -1.879999999999997229e+00 1.726000000000006196e+00 -8.099999999999998312e-01 -3.169999999999985052e-01 2.790000000000021352e-01 2.300000000000010925e-01 5.230000000000030180e-01 -1.359999999999998543e+00 2.390000000000018776e-01 1.674000000000004151e+00 -1.177999999999999270e+00 -1.049999999999983169e-01 9.840000000000026503e-01 -1.418999999999999595e+00 -6.899999999999997247e-01 2.799000000000005706e+00 -4.999999999998228084e-03 3.700000000000012168e-01 -8.199999999999998401e-01 6.500000000000014655e-01 7.760000000000034648e-01 7.500000000000015543e-01 7.110000000000022968e-01 6.990000000000023972e-01 8.500000000000016431e-01 1.988000000000004430e+00 1.900000000000010569e-01 -3.499999999999994227e-01 -3.859999999999977893e-01 2.700000000000020162e-01 -7.699999999999997957e-01 -9.499999999999999556e-01 7.100000000000015188e-01 2.101000000000005308e+00 -5.709999999999987308e-01 -2.379999999999975469e-01 -6.779999999999988258e-01 5.300000000000013589e-01 8.790000000000024460e-01 -1.599999999999723865e-02 4.690000000000037472e-01 -3.489999999999984226e-01 -3.799999999999994493e-01 -4.309999999999986064e-01 2.130000000000019655e-01 1.839000000000003521e+00 -5.629999999999977245e-01 5.890000000000032987e-01 -1.198999999999999400e+00 1.430000000000004157e+00 -7.499999999999997780e-01 9.450000000000027267e-01 -8.399999999999998579e-01 -9.799999999999999822e-01 -9.699999999999731060e-02 -6.379999999999987903e-01 -9.499999999999999556e-01 8.000000000000015987e-01 7.000000000000015099e-01 7.400000000000015454e-01 2.610000000000020082e-01 -4.399999999999995026e-01 -4.099999999999994760e-01 6.900000000000350298e-02 -5.599999999999996092e-01 -7.199999999999997513e-01 1.058000000000003604e+00 1.191000000000002723e+00 -2.539999999999984492e-01 -9.699999999999999734e-01 -8.899999999999999023e-01 6.780000000000023785e-01 -5.699999999999987299e-01 9.690000000000025260e-01 -8.999999999999999112e-01 1.870000000000028306e-01 4.900000000000013234e-01 -3.119999999999966134e-01 2.587000000000005073e+00 7.150000000000040767e-01 -5.419999999999980389e-01 4.210000000000047038e-01 4.830000000000022053e-01 -1.232999999999999208e+00 7.800000000000015810e-01 -6.399999999999996803e-01 -1.189999999999983293e-01 4.000000000000092371e-02 2.450000000000019940e-01 -1.649999999999983702e-01 2.000000000000010658e-01 -7.799999999999998046e-01 -6.999999999999997335e-01 1.291000000000003034e+00 -6.599999999999828226e-02 6.660000000000023679e-01 2.900000000000011458e-01 -6.399999999999996803e-01 -3.499999999999836575e-02 -7.199999999999997513e-01 -7.599999999999997868e-01 -1.043999999999999151e+00 1.831000000000004180e+00 -2.999999999999993783e-01 -4.799999999999995381e-01 7.200000000000272848e-02 5.710000000000023945e-01 -6.299999999999996714e-01 4.150000000000031442e-01 -1.163999999999998369e+00 9.680000000000026361e-01 2.700000000000011280e-01 -1.199999999999992184e-01 1.343000000000003968e+00 6.800000000000283595e-02 -4.699999999999995293e-01 -1.012999999999996792e+00 -3.069999999999984963e-01 -7.699999999999997957e-01 -3.799999999999994493e-01 1.290000000000036673e-01 3.130000000000020544e-01 -1.130999999999999339e+00 -1.157999999999999252e+00 7.800000000000015810e-01 -2.299999999999993161e-01 7.200000000000024158e-01 1.693000000000003391e+00 1.100000000000009859e-01 2.000000000000010658e-01 -5.299999999999815969e-02 -1.879999999999975024e-01 -9.209999999999989306e-01 4.700000000000013056e-01 -1.399999999999992362e-01 -6.029999999999988702e-01 1.300000000000010036e-01 6.460000000000023501e-01 9.800000000000017586e-01 -6.999999999999917399e-02 4.850000000000030953e-01 -7.519999999999988916e-01 1.455000000000004068e+00 -6.969999999999988427e-01 6.700000000000014833e-01 6.500000000000014655e-01 -1.772999999999999687e+00 -9.499999999999999556e-01 3.440000000000020819e-01 -7.699999999999997957e-01 -9.599999999999999645e-01 8.700000000000185363e-02 1.276000000000003798e+00 7.200000000000015277e-01 -9.799999999999999822e-01 -7.479999999999979998e-01 1.500000000000010214e-01 -5.599999999999996092e-01 -1.140999999999998238e+00 7.000000000000015099e-01 7.400000000000059863e-01
-6.469999999999979101e-01 5.280000000000032445e-01 -1.496999999999999442e+00 -3.999999999999994671e-01 2.130000000000028537e-01 -2.829999999999965876e-01 9.950000000000027711e-01 3.050000000000030465e-01 -5.919999999999978613e-01 1.530000000000037996e-01 -1.299999999999992273e-01 2.500000000000011102e-01 9.800000000000186340e-02 -2.079999999999984084e-01 -8.999999999999919176e-02 4.100000000000012523e-01 -1.169999999999975504e-01 -5.599999999999996092e-01 1.700000000000010392e-01 1.100000000000003642e+00 -5.799999999999996270e-01 -4.999999999999915623e-02 -1.226999999999999424e+00 -1.999999999999824141e-02 3.650000000000037659e-01 1.183000000000004714e+00 -1.013999999999999124e+00 -7.799999999999998046e-01 2.420000000000019913e-01 9.890000000000036540e-01 1.207000000000002959e+00 4.750000000000021982e-01 -4.799999999999995381e-01 -9.599999999999999645e-01 -7.269999999999988693e-01 7.900000000000015898e-01 -2.899999999999993694e-01 -1.626999999999998003e+00 -1.549999999999983613e-01 -3.579999999999985416e-01 -6.299999999999996714e-01 8.300000000000016254e-01 3.370000000000019647e-01 9.000000000000096811e-02 -4.199999999999994849e-01 3.520000000000020890e-01 -7.999999999999918288e-02 -8.089999999999989422e-01 6.000000000001781686e-03 1.343000000000002858e+00 1.901000000000006240e+00 -8.839999999999972324e-01 1.390000000000026770e-01 -1.799999999999992717e-01 7.510000000000025544e-01 -7.999999999999918288e-02 -1.640999999999998682e+00 2.340000000000027613e-01 -5.799999999999996270e-01 1.001000000000003443e+00 2.210000000000018616e-01 -4.699999999999995293e-01 5.900000000000014122e-01 -8.199999999999998401e-01 9.300000000000017142e-01 1.400000000000010125e-01 6.000000000000094147e-02 5.600000000000013856e-01 5.100000000000013411e-01 -2.499999999999993339e-01 -2.389999999999976588e-01 -6.969999999999979545e-01 -1.999999999999992895e-01 -8.699999999999981082e-01 1.800000000000010481e-01 -7.939999999999980407e-01 -1.040999999999999037e+00 -8.459999999999971987e-01 -1.399999999999992362e-01 8.290000000000024016e-01 3.400000000000180655e-02 1.413000000000002920e+00 -1.879999999999997229e+00 1.726000000000006196e+00 -8.099999999999998312e-01 -3.169999999999985052e-01 1.052000000000003599e+00 2.300000000000010925e-01 7.820000000000042473e-01 -1.779999999999999805e+00 2.390000000000018776e-01 1.674000000000004151e+00 -1.177999999999999270e+00 -1.049999999999983169e-01 9.840000000000026503e-01 -1.418999999999999595e+00 -6.899999999999997247e-01 2.799000000000005706e+00 -4.999999999998228084e-03 3.700000000000012168e-01 -8.199999999999998401e-01 6.500000000000014655e-01 7.760000000000034648e-01 7.500000000000015543e-01 7.110000000000022968e-01 6.990000000000023972e-01 8.500000000000016431e-01 1.988000000000004430e+00 1.900000000000010569e-01 -3.499999999999994227e-01 -3.859999999999977893e-01 2.700000000000020162e-01 -7.699999999999997957e-01 -9.499999999999999556e-01 7.100000000000015188e-01 2.101000000000005308e+00 -5.709999999999987308e-01 -2.379999999999975469e-01 -6.779999999999988258e-01 5.300000000000013589e-01 8.790000000000024460e-01 -1.399999999999964606e-01 4.690000000000037472e-01 -3.489999999999984226e-01 -3.799999999999994493e-01 -4.309999999999986064e-01 2.130000000000019655e-01 1.839000000000003521e+00 -5.629999999999977245e-01 5.890000000000032987e-01 -1.198999999999999400e+00 1.430000000000004157e+00 -7.499999999999997780e-01 9.450000000000027267e-01 -8.399999999999998579e-01 -9.799999999999999822e-01 -9.699999999999731060e-02 -6.379999999999987903e-01 -9.499999999999999556e-01 8.000000000000015987e-01 7.000000000000015099e-01 7.400000000000015454e-01 2.610000000000020082e-01 -4.399999999999995026e-01 -4.099999999999994760e-01 6.900000000000350298e-02 -5.599999999999996092e-01 -7.199999999999997513e-01 1.058000000000003604e+00 1.191000000000002723e+00 -2.539999999999984492e-01 -9.699999999999999734e-01 -8.899999999999999023e-01 6.780000000000023785e-01 -5.699999999999987299e-01 9.690000000000025260e-01 -8.999999999999999112e-01 1.870000000000028306e-01 4.900000000000013234e-01 -3.119999999999966134e-01 3.311000000000006604e+00 7.150000000000040767e-01 -5.419999999999980389e-01 4.210000000000047038e-01 4.830000000000022053e-01 -1.232999999999999208e+00 7.800000000000015810e-01 -6.399999999999996803e-01 -1.189999999999983293e-01 4.000000000000092371e-02 2.450000000000019940e-01 -1.649999999999983702e-01 2.000000000000010658e-01 -7.799999999999998046e-01 -6.999999999999997335e-01 1.802000000000004487e+00 -6.599999999999828226e-02 6.660000000000023679e-01 2.900000000000011458e-01 -6.399999999999996803e-01 -3.499999999999836575e-02 -7.199999999999997513e-01 -7.599999999999997868e-01 -1.043999999999999151e+00 1.831000000000004180e+00 -2.999999999999993783e-01 -4.799999999999995381e-01 7.260000000000024212e-01 -1.999999999999992895e-01 -6.299999999999996714e-01 4.150000000000031442e-01 -1.163999999999998369e+00 2.300000000000010925e-01 2.700000000000011280e-01 -1.199999999999992184e-01 1.343000000000003968e+00 6.800000000000283595e-02 -4.699999999999995293e-01 -1.725999999999998202e+00 -3.069999999999984963e-01 -7.699999999999997957e-01 -3.799999999999994493e-01 1.290000000000036673e-01 3.130000000000020544e-01 -1.130999999999999339e+00 -1.157999999999999252e+00 7.800000000000015810e-01 -2.299999999999993161e-01 7.200000000000024158e-01 1.693000000000003391e+00 1.100000000000009859e-01 2.000000000000010658e-01 -6.799999999999997158e-01 -1.879999999999975024e-01 -9.209999999999989306e-01 4.700000000000013056e-01 -1.399999999999992362e-01 -6.029999999999988702e-01 1.300000000000010036e-01 6.460000000000023501e-01 9.800000000000017586e-01 -6.999999999999917399e-02 2.190000000000019709e-01 -7.519999999999988916e-01 1.455000000000004068e+00 -6.969999999999988427e-01 6.700000000000014833e-01 6.500000000000014655e-01 -1.772999999999999687e+00 -9.499999999999999556e-01 3.440000000000020819e-01 -7.699999999999997957e-01 -9.599999999999999645e-01 8.700000000000185363e-02 1.276000000000003798e+00 7.200000000000015277e-01 -9.799999999999999822e-01 -7.479999999999979998e-01 1.500000000000010214e-01 -5.599999999999996092e-01 -1.140999999999998238e+00 7.000000000000015099e-01 7.400000000000059863e-01
-6.469999999999979101e-01 5.280000000000032445e-01 -1.496999999999999442e+00 -3.999999999999994671e-01 2.130000000000028537e-01 -2.829999999999965876e-01 9.950000000000027711e-01 2.050000000000038458e-01 -5.919999999999978613e-01 1.530000000000037996e-01 -1.299999999999992273e-01 2.500000000000011102e-01 9.800000000000186340e-02 -2.079999999999984084e-01 -8.999999999999919176e-02 4.100000000000012523e-01 -1.169999999999975504e-01 -5.599999999999996092e-01 1.700000000000010392e-01 1.100000000000003642e+00 -5.799999999999996270e-01 -4.999999999999915623e-02 -1.515999999999998682e+00 -1.999999999999824141e-02 3.650000000000037659e-01 1.183000000000004714e+00 -1.013999999999999124e+00 -7.049999999999987388e-01 2.420000000000019913e-01 9.890000000000036540e-01 1.207000000000002959e+00 4.750000000000021982e-01 -4.799999999999995381e-01 -9.599999999999999645e-01 -7.269999999999988693e-01 7.900000000000015898e-01 -2.899999999999993694e-01 -1.626999999999998003e+00 -1.599999999999974776e-01 -3.579999999999985416e-01 -6.299999999999996714e-01 8.300000000000016254e-01 3.370000000000019647e-01 9.000000000000096811e-02 -4.199999999999994849e-01 3.520000000000020890e-01 -7.999999999999918288e-02 -8.089999999999989422e-01 6.000000000001781686e-03 1.343000000000002858e+00 1.901000000000006240e+00 -8.839999999999972324e-01 1.390000000000026770e-01 -1.799999999999992717e-01 7.510000000000025544e-01 -7.999999999999918288e-02 -1.640999999999998682e+00 2.340000000000027613e-01 -5.799999999999996270e-01 4.270000000000029328e-01 2.210000000000018616e-01 -4.699999999999995293e-01 5.900000000000014122e-01 -8.199999999999998401e-01 9.300000000000017142e-01 1.400000000000010125e-01 6.000000000000094147e-02 5.600000000000013856e-01 5.100000000000013411e-01 -2.499999999999993339e-01 -7.119999999999988560e-01 -6.969999999999979545e-01 -1.999999999999992895e-01 -8.699999999999981082e-01 1.800000000000010481e-01 -7.939999999999980407e-01 -1.040999999999999037e+00 -8.459999999999971987e-01 -1.399999999999992362e-01 8.290000000000024016e-01 3.400000000000180655e-02 2.090000000000004299e+00 -1.879999999999997229e+00 1.726000000000006196e+00 -8.099999999999998312e-01 -3.169999999999985052e-01 2.790000000000021352e-01 2.300000000000010925e-01 8.920000000000034568e-01 -1.779999999999999805e+00 2.390000000000018776e-01 1.674000000000004151e+00 -1.177999999999999270e+00 -1.049999999999983169e-01 9.840000000000026503e-01 -1.418999999999999595e+00 -6.899999999999997247e-01 2.799000000000005706e+00 -4.999999999998228084e-03 3.700000000000012168e-01 -8.199999999999998401e-01 6.500000000000014655e-01 7.760000000000034648e-01 4.310000000000021592e-01 -2.589999999999976765e-01 7.400000000000015454e-01 8.500000000000016431e-01 1.988000000000004430e+00 1.900000000000010569e-01 -3.499999999999994227e-01 -3.859999999999977893e-01 2.700000000000020162e-01 -4.799999999999986500e-01 -9.499999999999999556e-01 7.100000000000015188e-01 2.101000000000005308e+00 -5.709999999999987308e-01 -2.379999999999975469e-01 -6.779999999999988258e-01 5.300000000000013589e-01 8.790000000000024460e-01 -1.599999999999723865e-02 4.690000000000037472e-01 -3.489999999999984226e-01 -3.799999999999994493e-01 -4.309999999999986064e-01 2.130000000000019655e-01 1.839000000000003521e+00 -5.629999999999977245e-01 5.890000000000032987e-01 -1.198999999999999400e+00 1.430000000000004157e+00 -7.499999999999997780e-01 9.450000000000027267e-01 -8.399999999999998579e-01 -9.799999999999999822e-01 -9.699999999999731060e-02 -6.379999999999987903e-01 -9.499999999999999556e-01 8.000000000000015987e-01 7.000000000000015099e-01 7.400000000000015454e-01 2.610000000000020082e-01 -4.399999999999995026e-01 -4.099999999999994760e-01 6.900000000000350298e-02 -5.599999999999996092e-01 -7.199999999999997513e-01 1.058000000000003604e+00 1.191000000000002723e+00 -2.539999999999984492e-01 -9.699999999999999734e-01 -8.899999999999999023e-01 6.780000000000023785e-01 -5.699999999999987299e-01 9.690000000000025260e-01 -8.999999999999999112e-01 -1.269999999999965601e-01 4.900000000000013234e-01 -3.119999999999966134e-01 2.587000000000005073e+00 7.150000000000040767e-01 -5.419999999999980389e-01 4.210000000000047038e-01 4.830000000000022053e-01 -1.232999999999999208e+00 7.800000000000015810e-01 -6.399999999999996803e-01 -1.189999999999983293e-01 4.000000000000092371e-02 2.450000000000019940e-01 -1.649999999999983702e-01 2.000000000000010658e-01 -7.799999999999998046e-01 -6.999999999999997335e-01 1.291000000000003034e+00 -6.599999999999828226e-02 6.660000000000023679e-01 2.900000000000011458e-01 -6.399999999999996803e-01 -3.499999999999836575e-02 -7.199999999999997513e-01 -7.599999999999997868e-01 -1.043999999999999151e+00 1.831000000000004180e+00 -2.999999999999993783e-01 -4.799999999999995381e-01 7.200000000000272848e-02 -1.999999999999992895e-01 -6.299999999999996714e-01 4.150000000000031442e-01 -1.163999999999998369e+00 2.300000000000010925e-01 2.700000000000011280e-01 -1.199999999999992184e-01 1.343000000000003968e+00 6.800000000000283595e-02 -4.699999999999995293e-01 -1.725999999999998202e+00 -3.069999999999984963e-01 -7.699999999999997957e-01 -3.799999999999994493e-01 1.290000000000036673e-01 3.130000000000020544e-01 -1.130999999999999339e+00 -1.157999999999999252e+00 -1.359999999999983444e-01 -2.299999999999993161e-01 7.200000000000024158e-01 1.693000000000003391e+00 1.100000000000009859e-01 2.000000000000010658e-01 -6.799999999999997158e-01 -1.879999999999975024e-01 -9.209999999999989306e-01 4.700000000000013056e-01 -1.399999999999992362e-01 -6.029999999999988702e-01 1.300000000000010036e-01 6.460000000000023501e-01 9.800000000000017586e-01 -6.999999999999917399e-02 2.190000000000019709e-01 -7.519999999999988916e-01 1.455000000000004068e+00 -6.969999999999988427e-01 6.700000000000014833e-01 6.500000000000014655e-01 -1.772999999999999687e+00 -9.499999999999999556e-01 3.440000000000020819e-01 -7.699999999999997957e-01 -9.599999999999999645e-01 8.700000000000185363e-02 1.276000000000003798e+00 7.200000000000015277e-01 -9.799999999999999822e-01 -2.389999999999967706e-01 1.500000000000010214e-01 -5.599999999999996092e-01 -1.140999999999998238e+00 7.000000000000015099e-01 7.400000000000059863e-01
-6.469999999999979101e-01 5.280000000000032445e-01 -1.496999999999999442e+00 -3.999999999999994671e-01 2.130000000000028537e-01 -2.829999999999965876e-01 9.950000000000027711e-01 3.050000000000030465e-01 -5.919999999999978613e-01 1.530000000000037996e-01 -1.299999999999992273e-01 2.500000000000011102e-01 9.800000000000186340e-02 -2.079999999999984084e-01 -8.999999999999919176e-02 4.100000000000012523e-01 -1.169999999999975504e-01 -5.599999999999996092e-01 1.700000000000010392e-01 1.100000000000003642e+00 -5.799999999999996270e-01 -4.999999999999915623e-02 -1.226999999999999424e+00 -1.999999999999824141e-02 3.650000000000037659e-01 1.183000000000004714e+00 -1.013999999999999124e+00 -7.799999999999998046e-01 2.420000000000019913e-01 9.890000000000036540e-01 1.207000000000002959e+00 4.750000000000021982e-01 -4.799999999999995381e-01 -9.599999999999999645e-01 -7.269999999999988693e-01 7.900000000000015898e-01 -2.899999999999993694e-01 -1.626999999999998003e+00 -1.549999999999983613e-01 -3.579999999999985416e-01 -6.299999999999996714e-01 8.300000000000016254e-01 3.370000000000019647e-01 9.000000000000096811e-02 -4.199999999999994849e-01 3.520000000000020890e-01 -7.999999999999918288e-02 -8.089999999999989422e-01 6.000000000001781686e-03 4.690000000000029701e-01 1.901000000000006240e+00 -8.839999999999972324e-01 1.390000000000026770e-01 -1.799999999999992717e-01 7.510000000000025544e-01 -7.999999999999918288e-02 -1.640999999999998682e+00 1.410000000000043441e-01 -5.799999999999996270e-01 8.900000000000043432e-01 1.600000000000010303e-01 -4.699999999999995293e-01 5.900000000000014122e-01 -8.199999999999998401e-01 9.300000000000017142e-01 1.400000000000010125e-01 6.000000000000094147e-02 5.600000000000013856e-01 5.100000000000013411e-01 -2.499999999999993339e-01 -7.119999999999988560e-01 -6.969999999999979545e-01 -1.999999999999992895e-01 -8.699999999999981082e-01 -4.109999999999985887e-01 -7.939999999999980407e-01 -1.040999999999999037e+00 -8.459999999999971987e-01 -1.399999999999992362e-01 8.290000000000024016e-01 3.400000000000180655e-02 1.413000000000002920e+00 -1.879999999999997229e+00 1.726000000000006196e+00 -8.099999999999998312e-01 -3.169999999999985052e-01 2.790000000000021352e-01 2.300000000000010925e-01 5.230000000000030180e-01 -1.359999999999998543e+00 2.390000000000018776e-01 1.674000000000004151e+00 -1.177999999999999270e+00 -1.049999999999983169e-01 9.840000000000026503e-01 -1.418999999999999595e+00 -6.899999999999997247e-01 2.799000000000005706e+00 -4.999999999998228084e-03 3.700000000000012168e-01 -8.199999999999998401e-01 6.500000000000014655e-01 7.760000000000034648e-01 7.500000000000015543e-01 7.110000000000022968e-01 6.990000000000023972e-01 8.500000000000016431e-01 1.988000000000004430e+00 1.900000000000010569e-01 -3.499999999999994227e-01 -3.859999999999977893e-01 2.700000000000020162e-01 -7.699999999999997957e-01 -9.499999999999999556e-01 7.100000000000015188e-01 2.101000000000005308e+00 -5.709999999999987308e-01 -2.379999999999975469e-01 -6.779999999999988258e-01 5.300000000000013589e-01 8.790000000000024460e-01 -1.599999999999723865e-02 4.690000000000037472e-01 -3.489999999999984226e-01 -3.799999999999994493e-01 -4.309999999999986064e-01 2.130000000000019655e-01 1.839000000000003521e+00 -5.629999999999977245e-01 5.890000000000032987e-01 -1.198999999999999400e+00 1.430000000000004157e+00 -7.499999999999997780e-01 9.450000000000027267e-01 -8.399999999999998579e-01 -9.799999999999999822e-01 -9.699999999999731060e-02 -6.379999999999987903e-01 -9.499999999999999556e-01 8.000000000000015987e-01 7.000000000000015099e-01 7.400000000000015454e-01 2.610000000000020082e-01 -4.399999999999995026e-01 -4.099999999999994760e-01 6.900000000000350298e-02 -5.599999999999996092e-01 -7.199999999999997513e-01 1.058000000000003604e+00 1.191000000000002723e+00 -2.539999999999984492e-01 -9.699999999999999734e-01 -8.899999999999999023e-01 6.780000000000023785e-01 -5.699999999999987299e-01 9.690000000000025260e-01 -8.999999999999999112e-01 1.870000000000028306e-01 4.900000000000013234e-01 -3.119999999999966134e-01 2.587000000000005073e+00 7.150000000000040767e-01 -5.419999999999980389e-01 4.210000000000047038e-01 4.830000000000022053e-01 -1.232999999999999208e+00 7.800000000000015810e-01 -6.399999999999996803e-01 -1.189999999999983293e-01 4.000000000000092371e-02 2.450000000000019940e-01 -1.649999999999983702e-01 2.000000000000010658e-01 -7.799999999999998046e-01 -6.999999999999997335e-01 1.291000000000003034e+00 -6.599999999999828226e-02 6.660000000000023679e-01 2.900000000000011458e-01 -6.399999999999996803e-01 -3.499999999999836575e-02 -7.199999999999997513e-01 -7.599999999999997868e-01 -1.043999999999999151e+00 1.831000000000004180e+00 -2.999999999999993783e-01 -4.799999999999995381e-01 7.200000000000272848e-02 5.710000000000023945e-01 -6.299999999999996714e-01 4.150000000000031442e-01 -1.163999999999998369e+00 9.680000000000026361e-01 2.700000000000011280e-01 -1.199999999999992184e-01 1.343000000000003968e+00 6.800000000000283595e-02 -4.699999999999995293e-01 -1.012999999999996792e+00 -3.069999999999984963e-01 -7.699999999999997957e-01 -3.799999999999994493e-01 1.290000000000036673e-01 3.130000000000020544e-01 -1.130999999999999339e+00 -1.157999999999999252e+00 7.800000000000015810e-01 -2.299999999999993161e-01 7.200000000000024158e-01 1.693000000000003391e+00 1.100000000000009859e-01 2.000000000000010658e-01 -5.299999999999815969e-02 -1.879999999999975024e-01 -9.209999999999989306e-01 4.700000000000013056e-01 -1.399999999999992362e-01 -6.029999999999988702e-01 1.300000000000010036e-01 6.460000000000023501e-01 9.800000000000017586e-01 -6.999999999999917399e-02 4.850000000000030953e-01 -7.519999999999988916e-01 1.455000000000004068e+00 -6.969999999999988427e-01 6.700000000000014833e-01 6.500000000000014655e-01 -1.772999999999999687e+00 -9.499999999999999556e-01 3.440000000000020819e-01 -7.699999999999997957e-01 -9.599999999999999645e-01 8.700000000000185363e-02 1.276000000000003798e+00 7.200000000000015277e-01 -9.799999999999999822e-01 -7.479999999999979998e-01 1.500000000000010214e-01 -5.599999999999996092e-01 -1.140999999999998238e+00 7.000000000000015099e-01 7.400000000000059863e-01
-6.469999999999979101e-01 5.280000000000032445e-01 -1.496999999999999442e+00 -6.599999999999828226e-02 1.670000000000037010e-01 -2.829999999999965876e-01 9.950000000000027711e-01 3.050000000000030465e-01 -5.919999999999978613e-01 -8.049999999999961631e-01 3.860000000000021192e-01 2.500000000000011102e-01 9.800000000000186340e-02 -2.079999999999984084e-01 -8.999999999999919176e-02 4.100000000000012523e-01 -1.169999999999975504e-01 -5.599999999999996092e-01 1.700000000000010392e-01 1.158000000000004581e+00 -5.799999999999996270e-01 -4.999999999999915623e-02 -2.141999999999998572e+00 -1.999999999999824141e-02 3.800000000000047784e-01 1.183000000000004714e+00 -1.013999999999999124e+00 -7.799999999999998046e-01 2.420000000000019913e-01 9.890000000000036540e-01 1.207000000000002959e+00 9.540000000000036229e-01 -4.799999999999995381e-01 -1.565999999999999615e+00 -7.269999999999988693e-01 7.900000000000015898e-01 4.170000000000029239e-01 -1.626999999999998003e+00 -1.549999999999983613e-01 -3.579999999999985416e-01 -6.299999999999996714e-01 8.300000000000016254e-01 3.370000000000019647e-01 9.000000000000096811e-02 -4.199999999999994849e-01 3.520000000000020890e-01 -7.999999999999918288e-02 -8.089999999999989422e-01 6.000000000001781686e-03 4.690000000000029701e-01 1.901000000000006240e+00 -6.419999999999961293e-01 -1.179999999999966631e-01 -1.799999999999992717e-01 7.510000000000025544e-01 -7.999999999999918288e-02 -2.322999999999998622e+00 1.410000000000043441e-01 -5.799999999999996270e-01 -2.329999999999967653e-01 2.210000000000018616e-01 -4.699999999999995293e-01 5.900000000000014122e-01 -8.199999999999998401e-01 9.300000000000017142e-01 1.400000000000010125e-01 6.000000000000094147e-02 -1.129999999999983240e-01 5.100000000000013411e-01 5.300000000000193445e-02 -7.119999999999988560e-01 -6.969999999999979545e-01 -1.489999999999982450e-01 -8.699999999999981082e-01 1.004000000000002668e+00 -7.939999999999980407e-01 -1.040999999999999037e+00 -8.459999999999971987e-01 -2.059999999999984066e-01 6.500000000000031308e-01 3.400000000000180655e-02 1.413000000000002920e+00 -1.879999999999997229e+00 1.726000000000006196e+00 -3.869999999999984563e-01 -3.169999999999985052e-01 2.790000000000021352e-01 2.300000000000010925e-01 5.230000000000030180e-01 -1.359999999999998543e+00 2.390000000000018776e-01 1.674000000000004151e+00 -3.429999999999975291e-01 -1.049999999999983169e-01 9.840000000000026503e-01 -1.418999999999999595e+00 -1.323999999999999400e+00 2.799000000000005706e+00 -2.999999999999736211e-02 3.700000000000012168e-01 1.520000000000019114e-01 6.500000000000014655e-01 7.760000000000034648e-01 8.960000000000025722e-01 7.110000000000022968e-01 6.990000000000023972e-01 8.500000000000016431e-01 1.988000000000004430e+00 1.900000000000010569e-01 -3.499999999999994227e-01 -3.859999999999977893e-01 2.700000000000020162e-01 -7.699999999999997957e-01 -9.499999999999999556e-01 4.560000000000021814e-01 1.774000000000005794e+00 -5.709999999999987308e-01 -1.449999999999966871e-01 -4.019999999999976925e-01 5.300000000000013589e-01 8.790000000000024460e-01 -1.399999999999964606e-01 4.690000000000037472e-01 -3.489999999999984226e-01 5.580000000000022720e-01 -4.309999999999986064e-01 2.130000000000019655e-01 1.839000000000003521e+00 -5.629999999999977245e-01 5.890000000000032987e-01 -1.198999999999999400e+00 1.430000000000004157e+00 -7.499999999999997780e-01 9.450000000000027267e-01 -8.399999999999998579e-01 -3.859999999999985665e-01 -8.749999999999971134e-01 -6.379999999999987903e-01 -9.499999999999999556e-01 1.636000000000003229e+00 7.000000000000015099e-01 7.400000000000015454e-01 2.610000000000020082e-01 -4.399999999999995026e-01 -1.032999999999999030e+00 2.470000000000045492e-01 -5.599999999999996092e-01 -7.199999999999997513e-01 1.058000000000003604e+00 1.191000000000002723e+00 2.010000000000029541e-01 -9.699999999999999734e-01 -1.140999999999999126e+00 6.780000000000023785e-01 -5.699999999999987299e-01 9.690000000000025260e-01 -1.208999999999999186e+00 1.870000000000028306e-01 4.900000000000013234e-01 -3.119999999999966134e-01 2.587000000000005073e+00 2.880000000000045857e-01 -5.419999999999980389e-01 -3.269999999999950724e-01 4.830000000000022053e-01 -1.232999999999999208e+00 7.800000000000015810e-01 -6.399999999999996803e-01 -1.189999999999983293e-01 4.000000000000092371e-02 2.450000000000019940e-01 -1.649999999999983702e-01 2.000000000000010658e-01 3.200000000000180478e-02 -6.999999999999997335e-01 1.291000000000003034e+00 -6.599999999999828226e-02 6.660000000000023679e-01 6.330000000000024496e-01 1.630000000000020322e-01 -3.499999999999836575e-02 -5.339999999999986979e-01 -7.599999999999997868e-01 -1.043999999999999151e+00 1.831000000000004180e+00 6.170000000000022133e-01 -4.799999999999995381e-01 7.200000000000272848e-02 -5.299999999999815969e-02 -1.178999999999999382e+00 4.150000000000031442e-01 -1.163999999999998369e+00 9.680000000000026361e-01 -2.809999999999984732e-01 -1.199999999999992184e-01 1.343000000000003968e+00 6.800000000000283595e-02 -4.699999999999995293e-01 -1.012999999999996792e+00 -3.829999999999976756e-01 -7.699999999999997957e-01 -3.799999999999994493e-01 1.290000000000036673e-01 3.130000000000020544e-01 -1.955999999999999073e+00 -6.769999999999980478e-01 7.800000000000015810e-01 -2.299999999999993161e-01 7.200000000000024158e-01 1.693000000000003391e+00 6.970000000000025064e-01 2.000000000000010658e-01 -6.799999999999997158e-01 -1.879999999999975024e-01 -9.209999999999989306e-01 4.700000000000013056e-01 -1.399999999999992362e-01 -6.029999999999988702e-01 -6.229999999999987770e-01 4.230000000000030402e-01 9.800000000000017586e-01 -6.999999999999917399e-02 9.410000000000043885e-01 -7.519999999999988916e-01 1.455000000000004068e+00 -6.169999999999978835e-01 6.700000000000014833e-01 6.500000000000014655e-01 -1.772999999999999687e+00 -9.499999999999999556e-01 3.440000000000020819e-01 -7.699999999999997957e-01 -9.599999999999999645e-01 8.700000000000185363e-02 1.276000000000003798e+00 7.200000000000015277e-01 -9.799999999999999822e-01 -2.389999999999967706e-01 1.500000000000010214e-01 -5.599999999999996092e-01 -1.140999999999998238e+00 7.000000000000015099e-01 7.400000000000059863e-01
-6.469999999999979101e-01 5.280000000000032445e-01 -1.496999999999999442e+00 -3.999999999999994671e-01 2.130000000000028537e-01 -2.829999999999965876e-01 9.950000000000027711e-01 3.050000000000030465e-01 -5.919999999999978613e-01 1.530000000000037996e-01 -1.299999999999992273e-01 2.500000000000011102e-01 9.800000000000186340e-02 -2.079999999999984084e-01 -8.999999999999919176e-02 4.100000000000012523e-01 -1.169999999999975504e-01 -5.599999999999996092e-01 1.700000000000010392e-01 1.100000000000003642e+00 -5.799999999999996270e-01 -4.999999999999915623e-02 -1.515999999999998682e+00 -1.999999999999824141e-02 3.650000000000037659e-01 1.183000000000004714e+00 -1.013999999999999124e+00 -7.049999999999987388e-01 2.420000000000019913e-01 9.890000000000036540e-01 1.207000000000002959e+00 4.750000000000021982e-01 -4.799999999999995381e-01 -9.599999999999999645e-01 -7.269999999999988693e-01 7.900000000000015898e-01 -2.899999999999993694e-01 -1.626999999999998003e+00 -1.599999999999974776e-01 -3.579999999999985416e-01 -6.299999999999996714e-01 8.300000000000016254e-01 3.370000000000019647e-01 9.000000000000096811e-02 -4.199999999999994849e-01 3.520000000000020890e-01 -7.999999999999918288e-02 -8.089999999999989422e-01 6.000000000001781686e-03 1.343000000000002858e+00 1.901000000000006240e+00 -8.839999999999972324e-01 1.390000000000026770e-01 -1.799999999999992717e-01 7.510000000000025544e-01 -7.999999999999918288e-02 -1.640999999999998682e+00 2.340000000000027613e-01 -5.799999999999996270e-01 4.270000000000029328e-01 2.210000000000018616e-01 -4.699999999999995293e-01 5.900000000000014122e-01 -8.199999999999998401e-01 9.300000000000017142e-01 1.400000000000010125e-01 6.000000000000094147e-02 5.600000000000013856e-01 5.100000000000013411e-01 -2.499999999999993339e-01 -2.389999999999976588e-01 -6.969999999999979545e-01 -1.999999999999992895e-01 -8.699999999999981082e-01 1.800000000000010481e-01 -7.939999999999980407e-01 -1.040999999999999037e+00 -8.459999999999971987e-01 -1.399999999999992362e-01 8.290000000000024016e-01 3.400000000000180655e-02 1.413000000000002920e+00 -1.879999999999997229e+00 1.726000000000006196e+00 -8.099999999999998312e-01 -3.169999999999985052e-01 2.790000000000021352e-01 2.300000000000010925e-01 5.230000000000030180e-01 -1.779999999999999805e+00 2.390000000000018776e-01 1.674000000000004151e+00 -1.177999999999999270e+00 -1.049999999999983169e-01 9.840000000000026503e-01 -1.418999999999999595e+00 -6.899999999999997247e-01 2.799000000000005706e+00 -4.999999999998228084e-03 3.700000000000012168e-01 -8.199999999999998401e-01 6.500000000000014655e-01 7.760000000000034648e-01 7.500000000000015543e-01 7.110000000000022968e-01 6.990000000000023972e-01 8.500000000000016431e-01 1.988000000000004430e+00 1.900000000000010569e-01 -3.499999999999994227e-01 -3.859999999999977893e-01 2.700000000000020162e-01 -7.699999999999997957e-01 -9.499999999999999556e-01 7.100000000000015188e-01 2.101000000000005308e+00 -5.709999999999987308e-01 -2.379999999999975469e-01 -6.779999999999988258e-01 5.300000000000013589e-01 8.790000000000024460e-01 -1.399999999999964606e-01 4.690000000000037472e-01 -3.489999999999984226e-01 -3.799999999999994493e-01 -4.309999999999986064e-01 2.130000000000019655e-01 1.839000000000003521e+00 -5.629999999999977245e-01 5.890000000000032987e-01 -1.198999999999999400e+00 1.430000000000004157e+00 -7.499999999999997780e-01 9.450000000000027267e-01 -8.399999999999998579e-01 -9.799999999999999822e-01 -9.699999999999731060e-02 -6.379999999999987903e-01 -9.499999999999999556e-01 8.000000000000015987e-01 7.000000000000015099e-01 7.400000000000015454e-01 2.610000000000020082e-01 -4.399999999999995026e-01 -4.099999999999994760e-01 6.900000000000350298e-02 -5.599999999999996092e-01 -7.199999999999997513e-01 1.058000000000003604e+00 1.191000000000002723e+00 -2.539999999999984492e-01 -9.699999999999999734e-01 -8.899999999999999023e-01 6.780000000000023785e-01 -5.699999999999987299e-01 9.690000000000025260e-01 -8.999999999999999112e-01 1.870000000000028306e-01 4.900000000000013234e-01 -3.119999999999966134e-01 2.587000000000005073e+00 7.150000000000040767e-01 -5.419999999999980389e-01 4.210000000000047038e-01 4.830000000000022053e-01 -1.232999999999999208e+00 7.800000000000015810e-01 -6.399999999999996803e-01 -1.189999999999983293e-01 4.000000000000092371e-02 2.450000000000019940e-01 -1.649999999999983702e-01 2.000000000000010658e-01 -7.799999999999998046e-01 -6.999999999999997335e-01 1.291000000000003034e+00 -6.599999999999828226e-02 6.660000000000023679e-01 2.900000000000011458e-01 -6.399999999999996803e-01 -3.499999999999836575e-02 -7.199999999999997513e-01 -7.599999999999997868e-01 -1.043999999999999151e+00 1.831000000000004180e+00 -2.999999999999993783e-01 -4.799999999999995381e-01 7.260000000000024212e-01 -1.999999999999992895e-01 -6.299999999999996714e-01 4.150000000000031442e-01 -1.163999999999998369e+00 2.300000000000010925e-01 2.700000000000011280e-01 -1.199999999999992184e-01 1.343000000000003968e+00 6.800000000000283595e-02 -4.699999999999995293e-01 -1.725999999999998202e+00 -3.069999999999984963e-01 -7.699999999999997957e-01 -3.799999999999994493e-01 1.290000000000036673e-01 3.130000000000020544e-01 -1.130999999999999339e+00 -1.157999999999999252e+00 7.800000000000015810e-01 -2.299999999999993161e-01 7.200000000000024158e-01 1.693000000000003391e+00 1.100000000000009859e-01 2.000000000000010658e-01 -6.799999999999997158e-01 -1.879999999999975024e-01 -9.209999999999989306e-01 4.700000000000013056e-01 -1.399999999999992362e-01 -6.029999999999988702e-01 1.300000000000010036e-01 6.460000000000023501e-01 9.800000000000017586e-01 -6.999999999999917399e-02 2.190000000000019709e-01 -7.519999999999988916e-01 1.455000000000004068e+00 -6.969999999999988427e-01 6.700000000000014833e-01 6.500000000000014655e-01 -1.772999999999999687e+00 -9.499999999999999556e-01 3.440000000000020819e-01 -7.699999999999997957e-01 -1.359999999999983444e-01 8.700000000000185363e-02 1.276000000000003798e+00 7.200000000000015277e-01 -9.799999999999999822e-01 -2.389999999999967706e-01 1.500000000000010214e-01 -5.599999999999996092e-01 -1.140999999999998238e+00 7.000000000000015099e-01 7.400000000000059863e-01
-6.469999999999979101e-01 5.280000000000032445e-01 -1.496999999999999442e+00 -3.999999999999994671e-01 2.130000000000028537e-01 -2.829999999999965876e-01 9.950000000000027711e-01 3.050000000000030465e-01 -5.919999999999978613e-01 1.530000000000037996e-01 -1.299999999999992273e-01 2.500000000000011102e-01 9.800000000000186340e-02 -2.079999999999984084e-01 -8.999999999999919176e-02 4.100000000000012523e-01 -1.169999999999975504e-01 -5.599999999999996092e-01 1.700000000000010392e-01 1.100000000000003642e+00 -5.799999999999996270e-01 -4.999999999999915623e-02 -1.515999999999998682e+00 -1.999999999999824141e-02 3.650000000000037659e-01 1.183000000000004714e+00 -1.013999999999999124e+00 -7.799999999999998046e-01 2.420000000000019913e-01 9.890000000000036540e-01 1.207000000000002959e+00 4.750000000000021982e-01 -4.799999999999995381e-01 -1.107999999999999208e+00 -7.269999999999988693e-01 7.900000000000015898e-01 -6.379999999999987903e-01 -1.626999999999998003e+00 -1.549999999999983613e-01 -3.579999999999985416e-01 -6.299999999999996714e-01 8.300000000000016254e-01 3.370000000000019647e-01 9.000000000000096811e-02 -4.199999999999994849e-01 3.520000000000020890e-01 -7.999999999999918288e-02 -8.089999999999989422e-01 6.000000000001781686e-03 4.690000000000029701e-01 1.901000000000006240e+00 -7.919999999999980389e-01 1.390000000000026770e-01 -1.799999999999992717e-01 7.510000000000025544e-01 -7.999999999999918288e-02 -1.640999999999998682e+00 1.410000000000043441e-01 -5.799999999999996270e-01 4.270000000000029328e-01 2.210000000000018616e-01 -4.699999999999995293e-01 5.900000000000014122e-01 -8.199999999999998401e-01 9.300000000000017142e-01 1.400000000000010125e-01 6.000000000000094147e-02 5.600000000000013856e-01 5.100000000000013411e-01 -2.499999999999993339e-01 -7.119999999999988560e-01 -6.969999999999979545e-01 -1.999999999999992895e-01 -8.699999999999981082e-01 1.800000000000010481e-01 -7.939999999999980407e-01 -1.040999999999999037e+00 -8.459999999999971987e-01 -1.399999999999992362e-01 8.290000000000024016e-01 3.400000000000180655e-02 1.413000000000002920e+00 -1.879999999999997229e+00 1.726000000000006196e+00 -8.099999999999998312e-01 -3.169999999999985052e-01 2.790000000000021352e-01 2.300000000000010925e-01 8.920000000000034568e-01 -1.779999999999999805e+00 2.390000000000018776e-01 1.674000000000004151e+00 -1.177999999999999270e+00 -1.049999999999983169e-01 9.840000000000026503e-01 -1.418999999999999595e+00 -6.899999999999997247e-01 2.799000000000005706e+00 2.920000000000028129e-01 3.700000000000012168e-01 -8.199999999999998401e-01 6.500000000000014655e-01 7.760000000000034648e-01 7.500000000000015543e-01 7.110000000000022968e-01 6.990000000000023972e-01 8.500000000000016431e-01 1.988000000000004430e+00 1.900000000000010569e-01 -3.499999999999994227e-01 -3.859999999999977893e-01 2.700000000000020162e-01 -7.699999999999997957e-01 -9.499999999999999556e-01 7.100000000000015188e-01 2.101000000000005308e+00 -5.709999999999987308e-01 -2.379999999999975469e-01 -6.779999999999988258e-01 5.300000000000013589e-01 8.790000000000024460e-01 -1.399999999999964606e-01 4.690000000000037472e-01 -3.489999999999984226e-01 -3.799999999999994493e-01 -4.309999999999986064e-01 2.130000000000019655e-01 1.839000000000003521e+00 -5.629999999999977245e-01 5.890000000000032987e-01 -1.198999999999999400e+00 1.430000000000004157e+00 -7.499999999999997780e-01 9.450000000000027267e-01 -8.399999999999998579e-01 -9.799999999999999822e-01 -9.699999999999731060e-02 -6.379999999999987903e-01 -9.499999999999999556e-01 8.000000000000015987e-01 7.000000000000015099e-01 7.400000000000015454e-01 2.610000000000020082e-01 -4.399999999999995026e-01 -4.099999999999994760e-01 6.900000000000350298e-02 -5.599999999999996092e-01 -7.199999999999997513e-01 1.058000000000003604e+00 8.270000000000032880e-01 5.070000000000040030e-01 -9.699999999999999734e-01 -8.899999999999999023e-01 -2.069999999999975193e-01 -5.699999999999987299e-01 9.690000000000025260e-01 -8.999999999999999112e-01 1.870000000000028306e-01 4.900000000000013234e-01 -3.119999999999966134e-01 2.587000000000005073e+00 7.150000000000040767e-01 -5.419999999999980389e-01 4.210000000000047038e-01 4.830000000000022053e-01 -1.232999999999999208e+00 7.800000000000015810e-01 -6.399999999999996803e-01 -1.189999999999983293e-01 4.000000000000092371e-02 2.450000000000019940e-01 -1.649999999999983702e-01 2.000000000000010658e-01 -7.799999999999998046e-01 -6.999999999999997335e-01 1.291000000000003034e+00 -6.599999999999828226e-02 -3.269999999999976259e-01 2.900000000000011458e-01 -6.399999999999996803e-01 -3.499999999999836575e-02 -1.238999999999999435e+00 -7.599999999999997868e-01 -1.043999999999999151e+00 1.831000000000004180e+00 -2.999999999999993783e-01 -4.799999999999995381e-01 7.260000000000024212e-01 -1.999999999999992895e-01 -6.299999999999996714e-01 4.150000000000031442e-01 -1.163999999999998369e+00 9.680000000000026361e-01 2.700000000000011280e-01 -1.199999999999992184e-01 1.343000000000003968e+00 6.800000000000283595e-02 -4.699999999999995293e-01 -1.456999999999997186e+00 -3.069999999999984963e-01 -7.699999999999997957e-01 -3.799999999999994493e-01 1.290000000000036673e-01 3.130000000000020544e-01 -1.130999999999999339e+00 -1.157999999999999252e+00 -1.359999999999983444e-01 -2.299999999999993161e-01 7.200000000000024158e-01 1.693000000000003391e+00 1.100000000000009859e-01 2.000000000000010658e-01 -6.799999999999997158e-01 -1.879999999999975024e-01 -9.209999999999989306e-01 4.700000000000013056e-01 -1.399999999999992362e-01 -6.029999999999988702e-01 1.300000000000010036e-01 6.460000000000023501e-01 9.800000000000017586e-01 -6.999999999999917399e-02 2.190000000000019709e-01 -7.519999999999988916e-01 1.455000000000004068e+00 -6.969999999999988427e-01 6.700000000000014833e-01 6.500000000000014655e-01 -1.772999999999999687e+00 -9.499999999999999556e-01 3.440000000000020819e-01 -7.699999999999997957e-01 -9.599999999999999645e-01 8.700000000000185363e-02 1.276000000000003798e+00 7.200000000000015277e-01 -9.799999999999999822e-01 -7.479999999999979998e-01 1.500000000000010214e-01 -5.599999999999996092e-01 -1.140999999999998238e+00 7.000000000000015099e-01 7.400000000000059863e-01
